{"test_rmse":0.06432606170340925,"gradients/model.lin3.weights":{"_type":"histogram","values":[1,0,1,1,1,2,1,1,1,0,4,5,5,9,4,7,21,20,32,42,62,86,147,227,369,25528,1483,298,142,78,69,30,26,24,14,9,9,7,8,7,1,2,2,2,2,0,1,1,4,0,0,0,0,0,0,0,2,0,0,1,0,0,0,1],"bins":[-13.396621704101562,-12.877947807312012,-12.359273910522461,-11.840600967407227,-11.321927070617676,-10.803253173828125,-10.284579277038574,-9.765905380249023,-9.247232437133789,-8.728558540344238,-8.209884643554688,-7.691210746765137,-7.172536849975586,-6.653863430023193,-6.135189533233643,-5.61651611328125,-5.097842216491699,-4.579168319702148,-4.060494899749756,-3.541821002960205,-3.0231473445892334,-2.5044736862182617,-1.9857999086380005,-1.4671261310577393,-0.9484524726867676,-0.4297787547111511,0.08889496326446533,0.6075686812400818,1.1262423992156982,1.64491605758667,2.1635899543762207,2.6822636127471924,3.200937271118164,3.7196109294891357,4.238284587860107,4.756958484649658,5.275631904602051,5.794305801391602,6.312979698181152,6.831653118133545,7.350327014923096,7.8690009117126465,8.387674331665039,8.90634822845459,9.42502212524414,9.943696022033691,10.462368965148926,10.981042861938477,11.499716758728027,12.018390655517578,12.537064552307129,13.055737495422363,13.574411392211914,14.093085289001465,14.611759185791016,15.130433082580566,15.649106979370117,16.16777992248535,16.68645477294922,17.205127716064453,17.723800659179688,18.242475509643555,18.76114845275879,19.279823303222656,19.79849624633789]},"gradients/model.lin4.biases":{"bins":[-41.03563690185547,-39.57916259765625,-38.12268829345703,-36.66621780395508,-35.20974349975586,-33.75326919555664,-32.29679489135742,-30.840322494506836,-29.38385009765625,-27.92737579345703,-26.470901489257812,-25.014429092407227,-23.557954788208008,-22.101482391357422,-20.645008087158203,-19.188535690307617,-17.7320613861084,-16.27558708190918,-14.819114685058594,-13.362641334533691,-11.906167984008789,-10.44969367980957,-8.993220329284668,-7.536746978759766,-6.080273628234863,-4.623800277709961,-3.1673266887664795,-1.7108532190322876,-0.2543797492980957,1.2020937204360962,2.658567190170288,4.1150407791137695,5.571514129638672,7.027987480163574,8.484460830688477,9.940934181213379,11.397407531738281,12.8538818359375,14.310355186462402,15.766828536987305,17.22330093383789,18.67977523803711,20.136249542236328,21.592721939086914,23.049196243286133,24.50566864013672,25.962142944335938,27.418615341186523,28.875089645385742,30.33156394958496,31.788036346435547,33.244510650634766,34.700984954833984,36.15745544433594,37.613929748535156,39.070404052734375,40.526878356933594,41.98335266113281,43.439823150634766,44.896297454833984,46.3527717590332,47.80924606323242,49.265716552734375,50.722190856933594,52.17866516113281],"_type":"histogram","values":[1,0,0,0,0,0,0,0,2,0,0,0,1,0,1,0,0,1,0,1,2,1,1,1,1,0,1,1,94,1,0,0,0,2,0,0,1,1,1,0,0,1,0,0,0,0,0,0,0,1,1,0,0,0,0,0,0,0,0,0,1,0,0,1]},"_wandb":{"runtime":179},"gradients/model.lin4.weights":{"bins":[-39.113224029541016,-37.70924377441406,-36.30526351928711,-34.901283264160156,-33.4973030090332,-32.09332275390625,-30.689342498779297,-29.285362243652344,-27.88138198852539,-26.477399826049805,-25.07341957092285,-23.6694393157959,-22.265459060668945,-20.861478805541992,-19.45749855041504,-18.053518295288086,-16.649538040161133,-15.24555778503418,-13.841577529907227,-12.437597274780273,-11.03361701965332,-9.62963581085205,-8.225655555725098,-6.8216753005981445,-5.417695045471191,-4.013714790344238,-2.609734296798706,-1.2057539224624634,0.1982264518737793,1.602206826210022,3.0061872005462646,4.410167694091797,5.81414794921875,7.218128204345703,8.622108459472656,10.02608871459961,11.430068969726562,12.834050178527832,14.238030433654785,15.642010688781738,17.045989990234375,18.44997215270996,19.853952407836914,21.257932662963867,22.66191291809082,24.065893173217773,25.469873428344727,26.87385368347168,28.277833938598633,29.681814193725586,31.08579444885254,32.489776611328125,33.89375686645508,35.29773712158203,36.701717376708984,38.10569763183594,39.50967788696289,40.913658142089844,42.3176383972168,43.72161865234375,45.1255989074707,46.529579162597656,47.93355941772461,49.33753967285156,50.741519927978516],"_type":"histogram","values":[1,0,0,1,0,0,0,0,3,0,1,4,2,2,5,8,9,10,15,22,38,28,62,73,127,179,279,12477,416,156,113,84,67,36,29,29,22,19,10,14,11,12,5,6,4,3,2,4,4,2,1,0,1,0,0,1,0,0,1,0,1,0,0,1]},"gradients/model.lin1.biases":{"_type":"histogram","values":[1,0,0,1,0,0,1,0,0,0,0,0,2,0,0,0,0,0,0,0,6,1,0,4,84,2,4,1,2,0,1,1,1,1,0,1,1,1,0,1,0,0,0,0,0,0,0,0,0,2,0,0,0,0,0,0,0,0,0,0,0,0,0,1],"bins":[-0.9525685906410217,-0.9137433171272278,-0.8749180436134338,-0.8360927700996399,-0.797267496585846,-0.758442223072052,-0.7196169495582581,-0.6807916760444641,-0.6419663429260254,-0.6031410694122314,-0.5643157958984375,-0.5254905223846436,-0.4866652488708496,-0.44783997535705566,-0.4090147018432617,-0.3701894283294678,-0.33136415481567383,-0.2925388813018799,-0.25371360778808594,-0.2148883193731308,-0.17606304585933685,-0.1372377723455429,-0.09841249138116837,-0.05958721414208412,-0.020761936902999878,0.018063340336084366,0.05688861757516861,0.09571389853954315,0.1345391720533371,0.17336444556713104,0.21218973398208618,0.2510150074958801,0.28984034061431885,0.3286656141281128,0.36749088764190674,0.4063161611557007,0.44514143466949463,0.48396673798561096,0.5227919816970825,0.5616172552108765,0.6004425287246704,0.6392678618431091,0.6780931353569031,0.716918408870697,0.755743682384491,0.7945689558982849,0.8333942294120789,0.8722195029258728,0.9110447764396667,0.9498700499534607,0.9886953234672546,1.0275206565856934,1.0663459300994873,1.1051712036132812,1.1439964771270752,1.1828217506408691,1.221647024154663,1.260472297668457,1.299297571182251,1.338122844696045,1.3769481182098389,1.4157733917236328,1.4545986652374268,1.4934239387512207,1.5322492122650146]},"_runtime":179.078500606,"train_loss":-15.674512004294591,"gradients/model.lin5.weights":{"bins":[-95.79845428466797,-92.3734130859375,-88.94837188720703,-85.52333068847656,-82.0982894897461,-78.67324829101562,-75.24820709228516,-71.82316589355469,-68.39812469482422,-64.97308349609375,-61.54804229736328,-58.12300109863281,-54.697959899902344,-51.272918701171875,-47.847877502441406,-44.42283630371094,-40.99779510498047,-37.57275390625,-34.14771270751953,-30.722671508789062,-27.297630310058594,-23.872589111328125,-20.447547912597656,-17.022506713867188,-13.597465515136719,-10.17242431640625,-6.747383117675781,-3.3223419189453125,0.10269927978515625,3.527740478515625,6.952781677246094,10.377822875976562,13.8028564453125,17.22789764404297,20.652938842773438,24.077980041503906,27.503021240234375,30.928062438964844,34.35310363769531,37.77814483642578,41.20318603515625,44.62822723388672,48.05326843261719,51.478309631347656,54.903350830078125,58.328392028808594,61.75343322753906,65.17847442626953,68.603515625,72.02855682373047,75.45359802246094,78.8786392211914,82.30368041992188,85.72872161865234,89.15376281738281,92.57880401611328,96.00384521484375,99.42888641357422,102.85392761230469,106.27896881103516,109.70401000976562,113.1290512084961,116.55409240722656,119.97913360595703,123.4041748046875],"_type":"histogram","values":[2,0,0,0,0,0,1,0,2,1,0,3,3,1,1,2,0,1,5,1,1,1,1,0,1,0,0,384,42,0,1,0,1,0,1,2,1,0,2,0,2,1,1,2,1,2,1,1,2,2,2,0,1,0,0,0,0,0,0,0,0,0,0,1]},"_step":281,"epoch":280,"_timestamp":1.7524371300829437e+09,"gradients/model.lin3.biases":{"bins":[-19.83652687072754,-19.06975555419922,-18.30298614501953,-17.53621482849121,-16.76944351196289,-16.002674102783203,-15.235902786254883,-14.469132423400879,-13.702362060546875,-12.935591697692871,-12.168821334838867,-11.402050018310547,-10.635279655456543,-9.868509292602539,-9.101737976074219,-8.334967613220215,-7.568197250366211,-6.801426887512207,-6.034656047821045,-5.267885208129883,-4.501114845275879,-3.734344244003296,-2.967573642730713,-2.20080304145813,-1.4340324401855469,-0.6672618389129639,0.09950876235961914,0.8662793636322021,1.6330499649047852,2.399820566177368,3.166591167449951,3.933361768722534,4.700130462646484,5.466900825500488,6.23367166519165,7.0004425048828125,7.767212867736816,8.53398323059082,9.30075454711914,10.067524909973145,10.834295272827148,11.601065635681152,12.367835998535156,13.134607315063477,13.90137767791748,14.668148040771484,15.434919357299805,16.201688766479492,16.968460083007812,17.735231399536133,18.50200080871582,19.26877212524414,20.035541534423828,20.80231285095215,21.56908416748047,22.335853576660156,23.102624893188477,23.869396209716797,24.636165618896484,25.402936935424805,26.169708251953125,26.936477661132812,27.703248977661133,28.47001838684082,29.23678970336914],"_type":"histogram","values":[1,0,1,0,0,0,0,1,0,0,1,1,0,3,1,0,3,0,4,1,3,1,3,2,10,274,19,5,6,4,4,2,0,1,1,0,2,0,0,2,0,1,1,0,0,0,0,0,1,0,0,0,0,0,0,0,0,0,0,0,0,0,0,1]},"gradients/model.lin5.biases":{"values":[1,0,0,0,0,0,0,0,0,0,0,0,0,0,0,0,0,0,0,0,0,0,0,0,0,0,0,0,0,0,10,0,0,0,0,0,0,0,0,0,0,0,0,0,0,0,0,0,0,0,0,0,0,0,0,0,0,0,0,0,0,0,0,1],"bins":[-64.71723937988281,-62.575477600097656,-60.4337158203125,-58.29195785522461,-56.15019607543945,-54.0084342956543,-51.86667251586914,-49.724910736083984,-47.583152770996094,-45.44139099121094,-43.29962921142578,-41.157867431640625,-39.01610565185547,-36.87434387207031,-34.73258590698242,-32.590824127197266,-30.44906234741211,-28.307300567626953,-26.16554069519043,-24.023778915405273,-21.88201904296875,-19.740257263183594,-17.598495483398438,-15.456734657287598,-13.314973831176758,-11.173213005065918,-9.031452178955078,-6.889690399169922,-4.747929573059082,-2.606168508529663,-0.46440744400024414,1.6773536205291748,3.8191146850585938,5.960875511169434,8.102636337280273,10.24439811706543,12.38615894317627,14.52791976928711,16.669681549072266,18.81144142150879,20.953203201293945,23.0949649810791,25.236724853515625,27.37848663330078,29.520248413085938,31.66200828552246,33.803768157958984,35.94552993774414,38.0872917175293,40.22905349731445,42.37081527709961,44.5125732421875,46.654335021972656,48.79609680175781,50.93785858154297,53.079620361328125,55.22138214111328,57.36314010620117,59.50490188598633,61.646663665771484,63.78842544555664,65.93018341064453,68.07194519042969,70.21370697021484,72.35546875],"_type":"histogram"},"gradients/model.lin2.biases":{"_type":"histogram","values":[1,0,0,3,0,1,0,1,1,0,0,0,0,0,1,1,1,3,5,13,172,8,6,3,4,2,2,0,2,2,0,1,2,2,0,0,2,0,0,0,0,0,0,0,0,0,0,0,0,0,0,0,0,0,0,0,0,0,0,0,0,0,0,1],"bins":[-4.088693618774414,-3.8905086517333984,-3.692323684692383,-3.494138717651367,-3.2959537506103516,-3.097768545150757,-2.899583578109741,-2.7013986110687256,-2.50321364402771,-2.3050286769866943,-2.1068437099456787,-1.9086586236953735,-1.710473656654358,-1.5122886896133423,-1.314103603363037,-1.1159186363220215,-0.9177336692810059,-0.7195487022399902,-0.5213636755943298,-0.3231786787509918,-0.12499368190765381,0.0731913149356842,0.2713763117790222,0.46956130862236023,0.6677463054656982,0.8659312725067139,1.0641162395477295,1.2623013257980347,1.4604862928390503,1.658671259880066,1.856856346130371,2.0550413131713867,2.2532262802124023,2.451411247253418,2.6495962142944336,2.847781181335449,3.045966148376465,3.2441513538360596,3.442336320877075,3.640521287918091,3.8387062549591064,4.036891460418701,4.235076427459717,4.433261394500732,4.631446361541748,4.829631328582764,5.027816295623779,5.226001262664795,5.4241862297058105,5.622371196746826,5.820556163787842,6.018741130828857,6.216926097869873,6.415111064910889,6.613296031951904,6.81148099899292,7.009666442871094,7.207851409912109,7.406036376953125,7.604221343994141,7.802406311035156,8.000591278076172,8.198776245117188,8.396961212158203,8.595146179199219]},"test_loss":171.9599208047945,"gradients/model.lin1.weights":{"_type":"histogram","values":[1,0,0,0,0,0,0,0,0,0,0,0,0,0,0,0,0,0,0,0,0,0,0,0,0,1,0,1,2,0,3,3,5,5,5,11,11,24,20,27,502,37,14,10,8,5,4,6,3,4,0,1,2,1,1,0,2,0,0,0,0,0,0,1],"bins":[-3.2347562313079834,-3.1543853282928467,-3.07401442527771,-2.9936435222625732,-2.9132723808288574,-2.8329014778137207,-2.752530574798584,-2.6721596717834473,-2.5917887687683105,-2.511417865753174,-2.431046962738037,-2.3506760597229004,-2.2703051567077637,-2.189934015274048,-2.109563112258911,-2.0291922092437744,-1.9488213062286377,-1.868450403213501,-1.7880795001983643,-1.707708477973938,-1.6273375749588013,-1.5469666719436646,-1.4665956497192383,-1.3862247467041016,-1.3058538436889648,-1.2254829406738281,-1.1451120376586914,-1.0647410154342651,-0.9843701124191284,-0.9039992094039917,-0.8236282467842102,-0.7432572841644287,-0.6628866195678711,-0.5825157165527344,-0.5021447539329529,-0.4217738211154938,-0.34140288829803467,-0.26103195548057556,-0.18066102266311646,-0.10029008984565735,-0.019919157028198242,0.060451775789260864,0.14082270860671997,0.22119364142417908,0.3015645742416382,0.3819355070590973,0.4623064398765564,0.5426774024963379,0.6230483055114746,0.7034192085266113,0.7837901711463928,0.8641611337661743,0.944532036781311,1.0249029397964478,1.105273962020874,1.1856448650360107,1.2660157680511475,1.3463866710662842,1.426757574081421,1.5071285963058472,1.5874994993209839,1.6678704023361206,1.7482414245605469,1.8286123275756836,1.9089832305908203]},"gradients/model.lin2.weights":{"bins":[-4.872369289398193,-4.644270420074463,-4.416172027587891,-4.18807315826416,-3.959974765777588,-3.7318758964538574,-3.503777265548706,-3.2756786346435547,-3.0475800037384033,-2.819481372833252,-2.5913827419281006,-2.363284111022949,-2.1351852416992188,-1.907086730003357,-1.678987979888916,-1.4508893489837646,-1.2227907180786133,-0.9946920871734619,-0.7665933966636658,-0.5384947061538696,-0.31039607524871826,-0.0822974145412445,0.14580124616622925,0.373899906873703,0.6019985675811768,0.8300971984863281,1.0581958293914795,1.2862945795059204,1.5143932104110718,1.7424918413162231,1.970590591430664,2.1986892223358154,2.4267873764038086,2.65488600730896,2.8829846382141113,3.1110832691192627,3.339181900024414,3.5672807693481445,3.795379400253296,4.023478031158447,4.2515764236450195,4.47967529296875,4.7077741622924805,4.935872554779053,5.163971424102783,5.3920698165893555,5.620168685913086,5.848267078399658,6.076365947723389,6.304464817047119,6.532563209533691,6.760662078857422,6.988760471343994,7.216859340667725,7.444957733154297,7.673056602478027,7.901155471801758,8.129254341125488,8.357352256774902,8.585451126098633,8.813549995422363,9.041648864746094,9.269746780395508,9.497845649719238,9.725944519042969],"_type":"histogram","values":[1,1,0,0,1,2,4,1,1,4,4,0,7,6,12,14,21,36,33,92,461,8188,383,145,59,43,18,12,4,14,3,8,4,6,0,2,0,3,2,0,1,1,0,0,0,0,0,0,0,0,0,1,0,0,1,0,0,0,0,0,0,0,0,1]}}