{"_runtime":245.333752309,"_timestamp":1.7522483603280575e+09,"gradients/model.lin5.biases":{"values":[1,0,0,0,0,0,0,0,0,0,0,0,0,0,0,0,0,0,0,0,0,0,0,0,0,0,0,0,0,0,0,0,0,0,0,0,0,0,0,0,0,0,0,0,0,0,0,0,0,0,0,0,0,0,0,0,0,0,0,0,0,0,0,11],"bins":[-86.40374755859375,-85.04143524169922,-83.67913055419922,-82.31681823730469,-80.95451354980469,-79.59220123291016,-78.22989654541016,-76.86758422851562,-75.50527954101562,-74.1429672241211,-72.7806625366211,-71.41835021972656,-70.05604553222656,-68.69373321533203,-67.33142852783203,-65.9691162109375,-64.6068115234375,-63.24449920654297,-61.8821907043457,-60.51988220214844,-59.15757369995117,-57.795265197753906,-56.43295669555664,-55.070648193359375,-53.70833969116211,-52.346031188964844,-50.98372268676758,-49.62141418457031,-48.25910568237305,-46.89679718017578,-45.534488677978516,-44.17218017578125,-42.80986785888672,-41.44755935668945,-40.08525085449219,-38.72294235229492,-37.360633850097656,-35.99832534790039,-34.636016845703125,-33.27370834350586,-31.911399841308594,-30.549091339111328,-29.186782836914062,-27.824474334716797,-26.46216583251953,-25.099857330322266,-23.737548828125,-22.375240325927734,-21.01293182373047,-19.650623321533203,-18.288314819335938,-16.926006317138672,-15.56369686126709,-14.201388359069824,-12.839079856872559,-11.476771354675293,-10.114462852478027,-8.752154350280762,-7.389845371246338,-6.027536869049072,-4.665227890014648,-3.302919387817383,-1.9406108856201172,-0.5783022046089172,0.7840064167976379],"_type":"histogram"},"gradients/model.lin3.biases":{"bins":[-1.8785277605056763,-1.788548231124878,-1.6985688209533691,-1.6085892915725708,-1.5186097621917725,-1.4286302328109741,-1.3386507034301758,-1.248671293258667,-1.1586917638778687,-1.0687122344970703,-0.9787327647209167,-0.8887532949447632,-0.7987737655639648,-0.7087942361831665,-0.6188147664070129,-0.5288352966308594,-0.43885576725006104,-0.3488762676715851,-0.25889676809310913,-0.16891726851463318,-0.07893776893615723,0.011041730642318726,0.10102123022079468,0.19100072979927063,0.2809802293777466,0.37095972895622253,0.4609392285346985,0.550918698310852,0.6408982276916504,0.7308777570724487,0.8208572268486023,0.9108366966247559,1.0008163452148438,1.090795874595642,1.1807754039764404,1.2707548141479492,1.3607343435287476,1.450713872909546,1.5406932830810547,1.630672812461853,1.7206523418426514,1.8106318712234497,1.900611400604248,1.9905908107757568,2.0805702209472656,2.1705498695373535,2.2605292797088623,2.35050892829895,2.440488338470459,2.5304677486419678,2.6204473972320557,2.7104268074035645,2.8004064559936523,2.890385866165161,2.98036527633667,3.070344924926758,3.1603243350982666,3.2503037452697754,3.3402833938598633,3.430262804031372,3.520242214202881,3.6102218627929688,3.7002012729644775,3.7901809215545654,3.880160331726074],"_type":"histogram","values":[1,0,0,0,1,0,0,1,0,1,2,1,0,0,1,2,0,3,4,7,274,12,10,6,1,2,1,1,5,1,0,1,2,2,2,1,0,0,1,1,1,2,2,0,0,3,0,0,1,1,0,0,1,0,0,0,0,1,0,0,0,0,0,1]},"_step":385,"_wandb":{"runtime":245},"gradients/model.lin4.biases":{"bins":[-10.472868919372559,-10.123952865600586,-9.775035858154297,-9.426119804382324,-9.077202796936035,-8.728286743164062,-8.379369735717773,-8.0304536819458,-7.68153715133667,-7.332620620727539,-6.983704090118408,-6.634787559509277,-6.285871505737305,-5.936954975128174,-5.588038444519043,-5.239121913909912,-4.890205383300781,-4.54128885269165,-4.1923723220825195,-3.8434560298919678,-3.494539499282837,-3.145622968673706,-2.7967066764831543,-2.4477901458740234,-2.0988736152648926,-1.7499570846557617,-1.4010406732559204,-1.052124261856079,-0.7032077312469482,-0.35429126024246216,-0.005374789237976074,0.34354168176651,0.6924591064453125,1.0413756370544434,1.3902920484542847,1.739208459854126,2.088124990463257,2.4370415210723877,2.7859578132629395,3.1348743438720703,3.483790874481201,3.832707405090332,4.181623935699463,4.530540466308594,4.879456520080566,5.228373050689697,5.577289581298828,5.926206111907959,6.27512264251709,6.624039173126221,6.972955703735352,7.321872234344482,7.670788764953613,8.019704818725586,8.368621826171875,8.717537879943848,9.06645393371582,9.41537094116211,9.764286994934082,10.113204002380371,10.462120056152344,10.811037063598633,11.159953117370605,11.508870124816895,11.857786178588867],"_type":"histogram","values":[1,1,1,2,0,0,0,0,1,0,0,1,0,1,0,0,1,1,0,0,0,1,1,0,0,0,0,1,0,5,89,0,0,0,0,0,0,2,1,0,1,0,0,0,0,1,0,0,0,0,0,1,2,1,0,0,1,1,1,0,0,0,0,1]},"gradients/model.lin3.weights":{"_type":"histogram","values":[2,0,0,1,0,1,2,2,3,9,7,15,14,18,41,50,52,85,154,376,23736,1905,646,361,256,217,157,125,113,84,61,50,45,39,37,17,24,10,16,11,3,14,6,6,5,7,1,3,4,1,0,0,3,0,0,0,0,3,0,0,0,0,0,2],"bins":[-1.1292766332626343,-1.0754202604293823,-1.0215637683868408,-0.9677073359489441,-0.9138509035110474,-0.8599945306777954,-0.8061380982398987,-0.752281665802002,-0.6984252333641052,-0.6445688009262085,-0.5907123684883118,-0.536855936050415,-0.4829995334148407,-0.42914310097694397,-0.37528669834136963,-0.3214302659034729,-0.26757383346557617,-0.21371740102767944,-0.1598609834909439,-0.10600455850362778,-0.052148133516311646,0.001708291471004486,0.05556471645832062,0.10942114144563675,0.16327756643295288,0.2171339988708496,0.27099043130874634,0.3248468339443207,0.3787032663822174,0.43255969882011414,0.4864161014556885,0.5402725338935852,0.5941290855407715,0.6479855179786682,0.7018419504165649,0.7556983828544617,0.8095548152923584,0.8634111881256104,0.9172676205635071,0.9711240530014038,1.0249805450439453,1.0788369178771973,1.1326932907104492,1.1865497827529907,1.2404061555862427,1.2942626476287842,1.3481190204620361,1.4019755125045776,1.4558318853378296,1.5096882581710815,1.563544750213623,1.617401123046875,1.6712576150894165,1.7251139879226685,1.77897047996521,1.832826852798462,1.8866832256317139,1.9405397176742554,1.9943960905075073,2.048252582550049,2.102108955383301,2.1559653282165527,2.209821939468384,2.2636783123016357,2.3175346851348877]},"gradients/model.lin5.weights":{"_type":"histogram","values":[2,0,1,0,0,1,0,1,2,0,2,1,0,0,0,1,0,0,0,0,3,1,0,0,0,0,0,0,1,0,1,2,2,1,1,0,0,1,0,0,0,1,0,1,0,0,0,0,0,0,1,0,0,0,1,0,0,0,0,0,0,0,2,450],"bins":[-82.32252502441406,-81.0184555053711,-79.71439361572266,-78.41032409667969,-77.10625457763672,-75.80219268798828,-74.49812316894531,-73.19405364990234,-71.8899917602539,-70.58592224121094,-69.28185272216797,-67.97779083251953,-66.67372131347656,-65.3696517944336,-64.06558990478516,-62.76152038574219,-61.457454681396484,-60.15338897705078,-58.84931945800781,-57.54525375366211,-56.241188049316406,-54.93711853027344,-53.633052825927734,-52.32898712158203,-51.02491760253906,-49.72085189819336,-48.416786193847656,-47.11272048950195,-45.808650970458984,-44.50458526611328,-43.20051956176758,-41.89645004272461,-40.59238052368164,-39.28831481933594,-37.98424530029297,-36.680179595947266,-35.37611389160156,-34.07204818725586,-32.76797866821289,-31.463912963867188,-30.15984535217285,-28.85577964782715,-27.551712036132812,-26.247644424438477,-24.943578720092773,-23.639511108398438,-22.3354434967041,-21.0313777923584,-19.727310180664062,-18.42324447631836,-17.119176864624023,-15.815110206604004,-14.511042594909668,-13.206975936889648,-11.902909278869629,-10.59884262084961,-9.294775009155273,-7.990708351135254,-6.686641693115234,-5.382574558258057,-4.078507900238037,-2.7744407653808594,-1.4703739881515503,-0.16630709171295166,1.137759804725647]},"train_loss":-8.254046166849415,"gradients/model.lin4.weights":{"bins":[-7.819087982177734,-7.558806896209717,-7.298525810241699,-7.038244247436523,-6.777963161468506,-6.517682075500488,-6.2574005126953125,-5.997119426727295,-5.736838340759277,-5.47655725479126,-5.216276168823242,-4.955994606018066,-4.695713520050049,-4.435432434082031,-4.1751508712768555,-3.914869785308838,-3.6545886993408203,-3.3943076133728027,-3.134026288986206,-2.8737449645996094,-2.613463878631592,-2.353182792663574,-2.0929014682769775,-1.8326202630996704,-1.5723390579223633,-1.3120578527450562,-1.051776647567749,-0.7914954423904419,-0.5312142372131348,-0.27093303203582764,-0.010651826858520508,0.24962937831878662,0.5099096298217773,0.7701908349990845,1.0304720401763916,1.2907532453536987,1.5510344505310059,1.811315655708313,2.07159686088562,2.331878185272217,2.5921592712402344,2.852440357208252,3.1127216815948486,3.3730030059814453,3.633284091949463,3.8935651779174805,4.153846740722656,4.414127826690674,4.674408912658691,4.934689998626709,5.194971084594727,5.455252647399902,5.71553373336792,5.9758148193359375,6.236096382141113,6.496377468109131,6.756658554077148,7.016939640045166,7.277220726013184,7.537502288818359,7.797783374786377,8.058064460754395,8.31834602355957,8.57862663269043,8.838908195495605],"_type":"histogram","values":[1,3,3,5,5,3,2,4,5,9,7,7,9,13,19,10,17,22,22,15,34,21,59,31,52,59,105,88,146,702,12094,146,102,101,78,53,45,47,25,33,17,20,22,21,12,19,14,9,5,11,11,7,6,4,5,3,3,3,2,0,1,0,2,1]},"gradients/model.lin1.weights":{"values":[1,0,0,0,0,0,1,2,0,0,0,0,0,0,2,0,1,0,2,0,1,1,5,1,1,3,4,3,4,5,7,11,8,8,25,412,20,13,9,7,4,4,4,6,4,1,3,1,2,3,1,2,3,0,0,1,0,0,0,0,1,2,0,1],"bins":[-0.9311414957046509,-0.9050414562225342,-0.8789414763450623,-0.8528414368629456,-0.8267414569854736,-0.8006414175033569,-0.774541437625885,-0.7484413981437683,-0.7223414182662964,-0.6962413787841797,-0.670141339302063,-0.6440413594245911,-0.6179413199424744,-0.5918413400650024,-0.5657413005828857,-0.5396413207054138,-0.5135412812232971,-0.4874412715435028,-0.4613412618637085,-0.4352412521839142,-0.4091412425041199,-0.3830412030220032,-0.35694119334220886,-0.33084118366241455,-0.30474117398262024,-0.2786411643028259,-0.2525411546230316,-0.2264411300420761,-0.2003411203622818,-0.1742411106824875,-0.14814108610153198,-0.12204107642173767,-0.09594106674194336,-0.06984105706214905,-0.04374103993177414,-0.01764102652668953,0.00845898687839508,0.03455900028347969,0.0606590136885643,0.08675903081893921,0.11285904049873352,0.13895905017852783,0.16505905985832214,0.19115908443927765,0.21725909411907196,0.24335910379886627,0.2694591283798218,0.2955591380596161,0.3216591477394104,0.3477591574192047,0.373859167098999,0.39995917677879333,0.42605918645858765,0.45215922594070435,0.47825923562049866,0.504359245300293,0.5304592847824097,0.5565592646598816,0.5826593041419983,0.6087592840194702,0.6348593235015869,0.6609593033790588,0.6870593428611755,0.7131593227386475,0.7392593622207642],"_type":"histogram"},"gradients/model.lin1.biases":{"bins":[-0.58263099193573,-0.5182051062583923,-0.45377928018569946,-0.3893533945083618,-0.32492753863334656,-0.2605016827583313,-0.19607581198215485,-0.1316499412059784,-0.06722408533096313,-0.002798222005367279,0.06162764132022858,0.12605351209640503,0.1904793679714203,0.25490522384643555,0.3193311095237732,0.38375696539878845,0.4481828212738037,0.5126087069511414,0.5770345330238342,0.6414604187011719,0.7058862447738647,0.7703121304512024,0.83473801612854,0.8991638422012329,0.9635897278785706,1.0280156135559082,1.092441439628601,1.156867265701294,1.2212932109832764,1.2857190370559692,1.350144863128662,1.4145708084106445,1.478996753692627,1.5434225797653198,1.6078485250473022,1.6722743511199951,1.736700177192688,1.8011261224746704,1.8655519485473633,1.9299777746200562,1.994403600692749,2.0588295459747314,2.123255491256714,2.187681198120117,2.2521071434020996,2.316533088684082,2.3809587955474854,2.4453847408294678,2.509810447692871,2.5742363929748535,2.638662338256836,2.7030880451202393,2.7675139904022217,2.831939935684204,2.8963656425476074,2.96079158782959,3.0252175331115723,3.0896432399749756,3.154069185256958,3.2184951305389404,3.2829208374023438,3.347346782684326,3.4117727279663086,3.476198434829712,3.5406243801116943],"_type":"histogram","values":[1,0,1,0,2,2,2,2,5,83,3,2,3,1,3,0,1,1,1,1,0,0,1,0,0,0,1,0,0,0,0,0,0,0,1,0,0,0,1,0,0,0,0,0,0,0,1,0,0,0,0,0,0,0,0,0,0,0,0,0,0,0,0,1]},"gradients/model.lin2.biases":{"_type":"histogram","values":[1,0,0,0,0,0,0,2,1,3,0,0,2,2,4,3,4,168,6,3,3,2,2,3,1,3,1,0,1,0,2,1,0,0,0,2,0,4,0,2,1,1,1,0,1,0,0,0,3,1,0,1,0,0,1,1,0,0,0,0,1,0,0,2],"bins":[-0.9031838774681091,-0.8521662354469299,-0.8011485934257507,-0.7501310110092163,-0.6991133689880371,-0.6480957269668579,-0.5970780849456787,-0.5460604429244995,-0.4950428307056427,-0.4440251886844635,-0.3930075764656067,-0.3419899344444275,-0.2909722924232483,-0.23995468020439148,-0.18893703818321228,-0.13791941106319427,-0.08690178394317627,-0.035884153097867966,0.015133477747440338,0.06615111231803894,0.11716873943805695,0.16818636655807495,0.21920400857925415,0.27022162079811096,0.32123926281929016,0.37225690484046936,0.42327451705932617,0.47429215908050537,0.5253098011016846,0.5763274431228638,0.6273450255393982,0.6783626675605774,0.7293802499771118,0.780397891998291,0.8314155340194702,0.8824331164360046,0.9334507584571838,0.984468400478363,1.0354859828948975,1.0865036249160767,1.1375212669372559,1.188538908958435,1.2395565509796143,1.2905741930007935,1.3415918350219727,1.3926094770431519,1.443627119064331,1.4946447610855103,1.5456624031066895,1.596679925918579,1.6476975679397583,1.6987152099609375,1.7497328519821167,1.800750494003296,1.851768136024475,1.9027857780456543,1.9538034200668335,2.0048210620880127,2.0558385848999023,2.106856346130371,2.1578738689422607,2.2088916301727295,2.259909152984619,2.310926914215088,2.3619444370269775]},"gradients/model.lin2.weights":{"values":[1,1,1,0,5,5,4,5,5,6,11,13,21,25,36,43,63,133,235,7197,388,224,148,142,128,87,67,66,54,41,49,29,28,31,30,29,29,24,13,22,13,23,12,9,11,7,9,18,10,4,7,7,5,1,4,3,2,2,7,2,3,1,0,1],"bins":[-0.6050394177436829,-0.5744129419326782,-0.5437864065170288,-0.5131599307060242,-0.48253345489501953,-0.4519069790840149,-0.42128047347068787,-0.39065396785736084,-0.3600274920463562,-0.32940101623535156,-0.29877451062202454,-0.2681480050086975,-0.23752152919769287,-0.20689503848552704,-0.1762685477733612,-0.14564205706119537,-0.11501556634902954,-0.08438907563686371,-0.053762584924697876,-0.023136094212532043,0.007490396499633789,0.03811688721179962,0.06874337792396545,0.09936986863613129,0.12999635934829712,0.16062285006046295,0.19124934077262878,0.22187583148479462,0.25250232219696045,0.2831287980079651,0.3137553036212921,0.34438180923461914,0.37500834465026855,0.4056348204612732,0.4362613260746002,0.46688783168792725,0.4975143074989319,0.5281407833099365,0.5587673187255859,0.5893937945365906,0.6200202703475952,0.6506467461585999,0.6812732219696045,0.7118997573852539,0.7425262331962585,0.7731527090072632,0.8037792444229126,0.8344057202339172,0.8650321960449219,0.8956586718559265,0.9262851476669312,0.9569116830825806,0.9875381588935852,1.0181646347045898,1.0487911701202393,1.0794175863265991,1.1100441217422485,1.140670657157898,1.1712970733642578,1.2019236087799072,1.2325501441955566,1.2631765604019165,1.293803095817566,1.3244295120239258,1.3550560474395752],"_type":"histogram"},"test_rmse":1.4517778441592701,"test_loss":317749.34246575343,"epoch":384}