{"gradients/model.lin3.biases":{"bins":[-1.1384648084640503,-1.1143475770950317,-1.0902303457260132,-1.0661131143569946,-1.0419960021972656,-1.017878770828247,-0.9937615394592285,-0.96964430809021,-0.9455270767211914,-0.9214099049568176,-0.8972926735877991,-0.8731754422187805,-0.849058210849762,-0.8249410390853882,-0.8008238077163696,-0.7767065763473511,-0.7525893449783325,-0.7284721732139587,-0.7043549418449402,-0.6802377104759216,-0.6561205387115479,-0.6320033073425293,-0.6078860759735107,-0.5837688446044922,-0.5596516728401184,-0.5355344414710999,-0.5114172101020813,-0.48730000853538513,-0.46318280696868896,-0.4390655755996704,-0.41494837403297424,-0.3908311426639557,-0.36671391129493713,-0.34259670972824097,-0.3184794783592224,-0.29436227679252625,-0.2702450454235077,-0.24612784385681152,-0.22201062738895416,-0.1978934109210968,-0.17377619445323944,-0.14965897798538208,-0.12554176151752472,-0.10142455250024796,-0.0773073360323906,-0.053190119564533234,-0.02907290682196617,-0.00495569221675396,0.019161522388458252,0.04327873885631561,0.06739595532417297,0.09151316434144974,0.1156303808093071,0.13974758982658386,0.16386480629444122,0.18798202276229858,0.21209923923015594,0.2362164556980133,0.2603336572647095,0.284450888633728,0.3085680902004242,0.33268532156944275,0.3568025231361389,0.38091975450515747,0.40503695607185364],"_type":"histogram","values":[1,0,0,0,0,0,0,0,0,0,0,0,0,0,0,0,0,0,0,0,1,0,0,0,0,0,1,1,0,3,1,1,4,2,3,1,1,1,7,2,4,5,7,2,4,5,4,263,2,4,1,1,4,4,2,0,0,3,5,4,1,2,2,1]},"train_loss":-2.1869533605742872,"gradients/model.lin3.weights":{"_type":"histogram","values":[2,0,0,0,0,0,3,1,1,0,1,1,0,0,0,3,2,2,1,0,5,4,3,8,0,10,16,20,28,30,42,54,47,94,112,180,271,380,554,826,1706,22723,535,323,234,163,108,86,47,55,44,24,25,7,7,3,1,2,0,2,3,0,0,1],"bins":[-0.7750562429428101,-0.75617915391922,-0.7373020052909851,-0.718424916267395,-0.6995477676391602,-0.6806706786155701,-0.66179358959198,-0.6429164409637451,-0.624039351940155,-0.6051622629165649,-0.5862851142883301,-0.56740802526474,-0.5485309362411499,-0.529653787612915,-0.510776698589325,-0.4918995797634125,-0.4730224609375,-0.4541453421115875,-0.43526822328567505,-0.41639113426208496,-0.3975140154361725,-0.37863689661026,-0.3597598075866699,-0.34088268876075745,-0.32200556993484497,-0.3031284511089325,-0.28425133228302,-0.26537424325942993,-0.24649712443351746,-0.22762000560760498,-0.2087429016828537,-0.18986579775810242,-0.17098867893218994,-0.15211156010627747,-0.13323445618152618,-0.1143573448061943,-0.09548023343086243,-0.07660312205553055,-0.05772601068019867,-0.03884889930486679,-0.019971787929534912,-0.0010946765542030334,0.017782434821128845,0.036659546196460724,0.0555366575717926,0.07441376894712448,0.09329088032245636,0.11216799169778824,0.13104510307312012,0.1499222218990326,0.16879932582378387,0.18767642974853516,0.20655354857444763,0.2254306674003601,0.2443077713251114,0.26318487524986267,0.28206199407577515,0.3009391129016876,0.3198162317276001,0.3386933207511902,0.35757043957710266,0.37644755840301514,0.3953246474266052,0.4142017662525177,0.4330788850784302]},"_timestamp":1.7522687932861574e+09,"_runtime":265.073221973,"_step":353,"_wandb":{"runtime":265},"epoch":352,"gradients/model.lin1.weights":{"_type":"histogram","values":[1,2,0,0,0,0,0,1,0,0,2,1,1,2,0,0,0,0,0,4,1,3,0,3,5,8,14,2,31,456,3,16,4,6,2,6,4,0,5,1,2,3,0,1,0,1,0,2,0,1,0,0,1,0,1,1,1,0,0,0,0,1,0,1],"bins":[-1.5873825550079346,-1.5336848497390747,-1.4799870252609253,-1.4262893199920654,-1.372591495513916,-1.3188937902450562,-1.2651960849761963,-1.2114982604980469,-1.157800555229187,-1.1041028499603271,-1.0504050254821777,-0.9967073202133179,-0.9430095553398132,-0.8893117904663086,-0.8356140851974487,-0.7819163203239441,-0.7282185554504395,-0.6745207905769348,-0.6208230257034302,-0.5671253204345703,-0.5134275555610657,-0.45972979068756104,-0.4060320556163788,-0.35233432054519653,-0.2986365556716919,-0.24493880569934845,-0.191241055727005,-0.13754330575466156,-0.08384555578231812,-0.03014780580997467,0.023549944162368774,0.07724769413471222,0.13094544410705566,0.1846431940793991,0.23834094405174255,0.2920386791229248,0.34573644399642944,0.3994342088699341,0.45313194394111633,0.5068296790122986,0.5605274438858032,0.6142252087593079,0.6679229736328125,0.7216206789016724,0.775318443775177,0.8290162086486816,0.8827139139175415,0.9364116787910461,0.9901094436645508,1.0438071489334106,1.09750497341156,1.15120267868042,1.2049005031585693,1.2585982084274292,1.312295913696289,1.3659937381744385,1.4196914434432983,1.4733891487121582,1.5270869731903076,1.5807846784591675,1.6344823837280273,1.6881802082061768,1.7418779134750366,1.795575737953186,1.849273443222046]},"gradients/model.lin1.biases":{"_type":"histogram","values":[2,0,0,0,0,0,0,0,0,0,0,1,0,0,0,1,1,0,0,0,0,0,0,0,0,0,0,1,0,1,1,0,0,1,1,90,4,1,3,1,3,3,0,1,0,0,0,0,0,1,0,0,0,1,0,0,0,0,0,0,0,0,1,1],"bins":[-1.3834444284439087,-1.344833493232727,-1.3062225580215454,-1.2676116228103638,-1.2290005683898926,-1.190389633178711,-1.1517786979675293,-1.1131677627563477,-1.074556827545166,-1.0359458923339844,-0.9973349571228027,-0.9587239623069763,-0.9201130270957947,-0.881502091884613,-0.8428910970687866,-0.804280161857605,-0.7656692266464233,-0.7270582914352417,-0.6884473562240601,-0.6498363614082336,-0.611225426197052,-0.5726144909858704,-0.534003496170044,-0.4953925609588623,-0.45678162574768066,-0.418170690536499,-0.379559725522995,-0.34094876050949097,-0.3023378252983093,-0.2637268900871277,-0.22511592507362366,-0.18650497496128082,-0.14789390563964844,-0.1092829555273056,-0.07067200541496277,-0.032061055302619934,0.0065498948097229,0.045160844922065735,0.08377179503440857,0.1223827451467514,0.16099369525909424,0.19960464537143707,0.2382155954837799,0.27682656049728394,0.3154374957084656,0.3540484309196472,0.39265939593315125,0.4312703609466553,0.4698812961578369,0.5084922313690186,0.5471031665802002,0.5857141613960266,0.6243250966072083,0.6629360318183899,0.7015470266342163,0.740157961845398,0.7787688970565796,0.8173798322677612,0.8559907674789429,0.8946017622947693,0.9332126975059509,0.9718236327171326,1.010434627532959,1.0490455627441406,1.0876564979553223]},"gradients/model.lin4.weights":{"bins":[-0.535236120223999,-0.5184370279312134,-0.5016379356384277,-0.4848388433456421,-0.46803975105285645,-0.4512406289577484,-0.43444153666496277,-0.4176424443721771,-0.4008433520793915,-0.38404425978660583,-0.3672451674938202,-0.35044607520103455,-0.3336469531059265,-0.31684786081314087,-0.3000487685203552,-0.2832496762275696,-0.26645058393478394,-0.2496514916419983,-0.23285239934921265,-0.2160532921552658,-0.19925419986248016,-0.18245510756969452,-0.16565600037574768,-0.14885690808296204,-0.1320578157901764,-0.11525872349739075,-0.0984596237540245,-0.08166052401065826,-0.06486143171787262,-0.04806233569979668,-0.031263239681720734,-0.01446414366364479,0.0023349523544311523,0.019134048372507095,0.03593314439058304,0.05273224040865898,0.06953133642673492,0.08633042871952057,0.10312952846288681,0.11992862820625305,0.1367277204990387,0.15352681279182434,0.17032590508460999,0.18712501227855682,0.20392410457134247,0.2207231968641281,0.23752230405807495,0.2543213963508606,0.27112048864364624,0.2879195809364319,0.30471867322921753,0.3215177655220032,0.3383168578147888,0.35511597990989685,0.3719150722026825,0.38871416449546814,0.4055132567882538,0.42231234908103943,0.4391114413738251,0.4559105336666107,0.47270965576171875,0.4895087480545044,0.50630784034729,0.5231069326400757,0.5399060249328613],"_type":"histogram","values":[3,2,5,2,3,4,0,3,7,3,8,8,6,5,11,12,10,20,26,29,32,36,38,46,69,84,87,114,162,187,250,11343,264,168,138,144,131,123,100,71,79,93,88,64,67,44,27,24,23,16,17,17,15,15,11,3,10,10,5,7,6,3,0,2]},"gradients/model.lin2.weights":{"_type":"histogram","values":[1,0,0,1,0,0,0,0,0,1,0,0,3,1,1,1,2,1,4,7,7,5,12,10,24,24,29,28,46,40,64,116,256,8176,324,103,57,53,34,28,16,21,20,13,10,16,9,8,2,2,5,1,5,3,2,2,1,0,0,1,0,1,1,2],"bins":[-1.5340739488601685,-1.4886001348495483,-1.4431263208389282,-1.397652506828308,-1.3521785736083984,-1.3067047595977783,-1.2612309455871582,-1.215757131576538,-1.170283317565918,-1.1248095035552979,-1.0793356895446777,-1.0338618755340576,-0.9883880019187927,-0.9429141879081726,-0.8974403142929077,-0.8519665002822876,-0.8064926862716675,-0.7610188722610474,-0.7155450582504272,-0.6700711846351624,-0.6245973706245422,-0.5791235566139221,-0.5336496829986572,-0.4881758689880371,-0.442702054977417,-0.3972282409667969,-0.35175439715385437,-0.30628055334091187,-0.26080673933029175,-0.21533291041851044,-0.16985908150672913,-0.12438525259494781,-0.07891154289245605,-0.033437713980674744,0.012036114931106567,0.05750994384288788,0.10298377275466919,0.1484576016664505,0.1939314305782318,0.23940525949001312,0.28487908840179443,0.33035290241241455,0.37582674622535706,0.42130059003829956,0.4667744040489197,0.5122482180595398,0.5577220916748047,0.6031959056854248,0.6486697196960449,0.694143533706665,0.7396173477172852,0.78509122133255,0.8305650353431702,0.8760388493537903,0.9215127229690552,0.9669865369796753,1.0124603509902954,1.0579341650009155,1.1034079790115356,1.1488817930221558,1.1943557262420654,1.2398295402526855,1.2853033542633057,1.3307771682739258,1.376250982284546]},"test_rmse":1.2044639229063,"gradients/model.lin2.biases":{"_type":"histogram","values":[1,0,0,0,0,0,0,0,0,0,0,0,0,0,1,1,1,2,2,2,1,1,1,1,3,3,2,3,0,2,3,3,1,168,3,6,2,1,4,2,3,1,3,1,1,0,2,0,0,1,1,0,2,1,1,2,0,0,0,0,0,0,0,1],"bins":[-1.2840522527694702,-1.2460817098617554,-1.2081111669540405,-1.1701406240463257,-1.1321700811386108,-1.094199538230896,-1.0562289953231812,-1.0182584524154663,-0.9802879095077515,-0.9423173666000366,-0.9043468236923218,-0.8663762807846069,-0.8284057378768921,-0.7904351949691772,-0.7524646520614624,-0.7144941091537476,-0.6765235662460327,-0.6385530233383179,-0.600582480430603,-0.5626119375228882,-0.5246413946151733,-0.4866708517074585,-0.44870030879974365,-0.4107297658920288,-0.37275922298431396,-0.3347886800765991,-0.2968181371688843,-0.25884759426116943,-0.2208770513534546,-0.18290650844573975,-0.1449359655380249,-0.10696542263031006,-0.06899499893188477,-0.031024456024169922,0.006946086883544922,0.044916629791259766,0.08288717269897461,0.12085771560668945,0.1588282585144043,0.19679880142211914,0.23476934432983398,0.27273988723754883,0.31071043014526367,0.3486809730529785,0.38665151596069336,0.4246220588684082,0.46259260177612305,0.5005631446838379,0.5385336875915527,0.5765042304992676,0.6144747734069824,0.6524453163146973,0.6904158592224121,0.728386402130127,0.7663569450378418,0.8043274879455566,0.8422980308532715,0.8802685737609863,0.9182391166687012,0.956209659576416,0.9941802024841309,1.0321507453918457,1.0701212882995605,1.1080918312072754,1.1460623741149902]},"test_loss":26.57039610980308,"gradients/model.lin4.biases":{"_type":"histogram","values":[2,0,0,1,0,0,0,0,0,1,0,0,0,1,0,1,0,0,0,0,0,1,2,0,0,2,1,0,2,0,0,0,87,0,1,1,0,1,0,0,0,1,0,1,1,1,0,0,1,1,0,0,0,0,1,0,1,0,1,0,1,2,2,2],"bins":[-0.5689167976379395,-0.5515542030334473,-0.5341915488243103,-0.5168289542198181,-0.4994663596153259,-0.48210373520851135,-0.4647411108016968,-0.4473785161972046,-0.43001589179039,-0.41265326738357544,-0.39529067277908325,-0.3779280483722687,-0.3605654239654541,-0.3432028293609619,-0.32584020495414734,-0.30847761034965515,-0.2911149859428406,-0.273752361536026,-0.2563897669315338,-0.23902714252471924,-0.22166453301906586,-0.20430192351341248,-0.1869392991065979,-0.16957668960094452,-0.15221408009529114,-0.13485147058963776,-0.11748885363340378,-0.1001262366771698,-0.08276362717151642,-0.06540101766586304,-0.04803840070962906,-0.03067578747868538,-0.0133131742477417,0.004049438983201981,0.02141205221414566,0.03877466544508934,0.05613727867603302,0.0734998881816864,0.09086250513792038,0.10822512209415436,0.12558773159980774,0.14295034110546112,0.1603129506111145,0.17767557501792908,0.19503818452358246,0.21240079402923584,0.22976341843605042,0.2471260279417038,0.2644886374473572,0.28185126185417175,0.29921385645866394,0.3165764808654785,0.3339390754699707,0.3513016998767853,0.36866432428359985,0.38602691888809204,0.4033895432949066,0.4207521677017212,0.4381147623062134,0.45547738671302795,0.47284001111984253,0.4902026057243347,0.5075652003288269,0.5249278545379639,0.542290449142456]},"gradients/model.lin5.biases":{"values":[1,0,0,0,0,0,0,0,0,0,0,0,0,0,0,0,0,0,0,0,0,0,0,0,0,0,0,0,0,0,0,0,0,0,0,0,0,0,0,0,0,0,0,0,0,0,0,0,0,0,0,0,0,0,0,0,0,0,0,0,0,1,8,2],"bins":[-3.2650809288024902,-3.213196277618408,-3.161311626434326,-3.109426975250244,-3.057542324066162,-3.005657434463501,-2.953772783279419,-2.901888132095337,-2.850003480911255,-2.798118829727173,-2.746234178543091,-2.694349527359009,-2.6424648761749268,-2.5905802249908447,-2.5386953353881836,-2.4868106842041016,-2.4349260330200195,-2.3830413818359375,-2.3311567306518555,-2.2792720794677734,-2.2273874282836914,-2.1755027770996094,-2.1236181259155273,-2.071733236312866,-2.019848585128784,-1.9679640531539917,-1.9160792827606201,-1.864194631576538,-1.812309980392456,-1.760425329208374,-1.7085405588150024,-1.6566559076309204,-1.6047711372375488,-1.5528864860534668,-1.5010018348693848,-1.4491171836853027,-1.3972325325012207,-1.3453477621078491,-1.293463110923767,-1.241578459739685,-1.189693808555603,-1.137809157371521,-1.0859243869781494,-1.0340397357940674,-0.9821550846099854,-0.9302703738212585,-0.8783857226371765,-0.8265010118484497,-0.7746163606643677,-0.7227317094802856,-0.6708469986915588,-0.6189623475074768,-0.56707763671875,-0.515192985534668,-0.46330830454826355,-0.41142362356185913,-0.3595389425754547,-0.3076542615890503,-0.2557695806026459,-0.20388491451740265,-0.15200023353099823,-0.10011555254459381,-0.04823087900876999,0.0036537982523441315,0.05553847551345825],"_type":"histogram"},"gradients/model.lin5.weights":{"values":[1,0,0,0,0,0,1,1,0,0,0,0,0,0,0,0,0,1,0,0,0,1,0,1,0,1,0,2,0,1,0,1,0,1,0,2,1,1,2,1,1,1,3,0,0,1,0,3,1,0,1,0,0,0,1,0,0,5,32,398,5,1,4,4],"bins":[-6.165541172027588,-6.061519622802734,-5.957498073577881,-5.853476524353027,-5.749454975128174,-5.64543342590332,-5.541411399841309,-5.437389850616455,-5.333368301391602,-5.229346752166748,-5.1253252029418945,-5.021303653717041,-4.9172821044921875,-4.813260555267334,-4.7092390060424805,-4.605217456817627,-4.501195907592773,-4.397173881530762,-4.293152332305908,-4.189130783081055,-4.085109233856201,-3.9810876846313477,-3.877066135406494,-3.7730445861816406,-3.669023036956787,-3.5650012493133545,-3.460979700088501,-3.3569581508636475,-3.252936601638794,-3.1489150524139404,-3.044893264770508,-2.9408717155456543,-2.836850166320801,-2.7328286170959473,-2.6288070678710938,-2.5247855186462402,-2.4207639694213867,-2.316742181777954,-2.2127206325531006,-2.108699083328247,-2.0046775341033936,-1.9006558656692505,-1.796634316444397,-1.692612648010254,-1.5885910987854004,-1.4845695495605469,-1.3805478811264038,-1.2765263319015503,-1.1725046634674072,-1.0684831142425537,-0.9644615650177002,-0.8604399561882019,-0.7564183473587036,-0.6523967385292053,-0.548375129699707,-0.4443535804748535,-0.3403319716453552,-0.23631037771701813,-0.13228878378868103,-0.028267189860343933,0.07575440406799316,0.17977599799633026,0.28379759192466736,0.38781917095184326,0.49184077978134155],"_type":"histogram"}}