{"gradients/model.lin2.weights":{"bins":[-0.15821784734725952,-0.1498158723115921,-0.14141389727592468,-0.13301192224025726,-0.12460993975400925,-0.11620796471834183,-0.10780598223209381,-0.09940400719642639,-0.09100203216075897,-0.08260005712509155,-0.07419808208942413,-0.06579609960317612,-0.0573941245675087,-0.04899214953184128,-0.04059017077088356,-0.03218819200992584,-0.023786216974258423,-0.015384240075945854,-0.0069822631776332855,0.0014197137206792831,0.009821690618991852,0.01822366751730442,0.02662564441561699,0.03502762317657471,0.043429598212242126,0.051831573247909546,0.060233552008867264,0.06863553076982498,0.0770375058054924,0.08543948084115982,0.09384146332740784,0.10224343836307526,0.11064538359642029,0.11904735863208771,0.12744933366775513,0.13585130870342255,0.14425328373908997,0.15265527367591858,0.161057248711586,0.16945922374725342,0.17786119878292084,0.18626317381858826,0.19466514885425568,0.2030671238899231,0.2114691138267517,0.21987108886241913,0.22827306389808655,0.23667503893375397,0.2450770139694214,0.25347900390625,0.2618809640407562,0.27028295397758484,0.27868491411209106,0.2870869040489197,0.2954888641834259,0.3038908541202545,0.31229281425476074,0.32069480419158936,0.32909679412841797,0.3374987542629242,0.3459007441997528,0.35430270433425903,0.36270469427108765,0.37110665440559387,0.3795086443424225],"_type":"histogram","values":[1,0,1,1,2,1,6,4,9,11,9,14,36,52,69,111,180,312,7192,513,371,250,147,95,54,36,32,26,13,9,7,2,3,3,2,0,5,4,3,1,2,3,0,2,2,0,0,1,0,0,0,0,0,0,0,1,0,0,0,1,0,0,0,1]},"gradients/model.lin5.weights":{"_type":"histogram","values":[1,1,0,0,0,2,1,2,0,3,4,8,6,4,5,2,2,1,8,380,0,2,2,1,5,2,3,5,2,0,4,0,1,1,0,0,1,3,0,4,0,4,0,0,0,0,0,0,2,2,0,0,1,1,0,0,1,1,0,0,0,0,0,2],"bins":[-0.2374265193939209,-0.22551977634429932,-0.21361303329467773,-0.20170629024505615,-0.18979954719543457,-0.177892804145813,-0.1659860610961914,-0.15407931804656982,-0.14217257499694824,-0.13026581704616547,-0.11835908144712448,-0.1064523383975029,-0.09454558789730072,-0.08263884484767914,-0.07073210179805756,-0.058825358748435974,-0.04691861569881439,-0.03501187264919281,-0.02310512773692608,-0.011198383755981922,0.0007083602249622345,0.012615104205906391,0.024521848186850548,0.03642859309911728,0.04833533614873886,0.06024207919836044,0.07214882224798203,0.08405556529760361,0.09596231579780579,0.10786905884742737,0.11977580189704895,0.13168254494667053,0.14358928799629211,0.1554960310459137,0.16740277409553528,0.17930951714515686,0.19121626019477844,0.20312300324440002,0.2150297462940216,0.2269364893436432,0.23884323239326477,0.25074997544288635,0.26265671849250793,0.2745634615421295,0.2864702045917511,0.2983769476413727,0.31028369069099426,0.32219043374061584,0.3340972065925598,0.3460039496421814,0.357910692691803,0.36981743574142456,0.38172417879104614,0.3936309218406677,0.4055376648902893,0.4174444079399109,0.42935115098953247,0.44125789403915405,0.45316463708877563,0.4650713801383972,0.4769781231880188,0.4888848662376404,0.500791609287262,0.5126983523368835,0.5246050953865051]},"gradients/model.lin2.biases":{"bins":[-0.14760009944438934,-0.14076578617095947,-0.1339314579963684,-0.12709714472293854,-0.12026283144950867,-0.1134285107254982,-0.10659419000148773,-0.09975987672805786,-0.0929255560040474,-0.08609123528003693,-0.07925692200660706,-0.07242260128259659,-0.06558828055858612,-0.05875396728515625,-0.05191964656114578,-0.04508532956242561,-0.038251012563705444,-0.031416695564985275,-0.024582376703619957,-0.01774805784225464,-0.01091374084353447,-0.004079422913491726,0.0027548950165510178,0.009589212946593761,0.016423530876636505,0.023257847875356674,0.030092166736721992,0.03692648559808731,0.04376080259680748,0.05059511959552765,0.057429440319538116,0.06426375359296799,0.07109808921813965,0.07793240994215012,0.08476672321557999,0.09160104393959045,0.09843535721302032,0.10526967793703079,0.11210399866104126,0.11893831193447113,0.125772625207901,0.13260695338249207,0.13944126665592194,0.1462755799293518,0.15310990810394287,0.15994422137737274,0.1667785346508026,0.17361286282539368,0.18044717609882355,0.18728148937225342,0.19411581754684448,0.20095013082027435,0.20778444409370422,0.2146187722682953,0.22145308554172516,0.22828739881515503,0.2351217269897461,0.24195604026317596,0.24879035353660583,0.2556246817111969,0.2624589800834656,0.26929330825805664,0.2761276364326477,0.2829619348049164,0.28979626297950745],"_type":"histogram","values":[1,0,0,0,1,0,0,2,1,0,0,1,1,2,2,3,3,0,0,4,6,168,3,5,10,2,2,2,4,3,3,1,0,3,0,2,0,0,0,1,0,0,0,0,1,1,1,0,0,0,0,0,0,0,0,0,0,0,0,0,0,0,0,1]},"gradients/model.lin3.biases":{"_type":"histogram","values":[1,0,0,0,0,0,0,0,0,0,0,0,0,0,1,0,1,0,2,0,0,1,1,3,1,0,1,3,2,3,1,3,2,3,1,5,257,4,5,5,3,8,2,6,3,5,2,5,3,3,3,2,2,2,1,0,1,0,0,1,0,0,0,2],"bins":[-0.12489476799964905,-0.12147825211286545,-0.11806173622608185,-0.11464521288871765,-0.11122869700193405,-0.10781218111515045,-0.10439565777778625,-0.10097914189100266,-0.09756262600421906,-0.09414611011743546,-0.09072959423065186,-0.08731307089328766,-0.08389655500650406,-0.08048003911972046,-0.07706351578235626,-0.07364699989557266,-0.07023048400878906,-0.06681396812200546,-0.06339745223522186,-0.059980928897857666,-0.056564413011074066,-0.053147897124290466,-0.04973137751221657,-0.04631485790014267,-0.04289834201335907,-0.03948182612657547,-0.03606530651450157,-0.03264878690242767,-0.029232271015644073,-0.025815753266215324,-0.022399235516786575,-0.018982717767357826,-0.015566200017929077,-0.012149682268500328,-0.008733164519071579,-0.00531664676964283,-0.0019001290202140808,0.0015163887292146683,0.004932906478643417,0.008349424228072166,0.011765941977500916,0.015182459726929665,0.018598977476358414,0.022015495225787163,0.025432012975215912,0.02884853072464466,0.03226504847407341,0.03568156808614731,0.03909808397293091,0.04251459985971451,0.045931119471788406,0.049347639083862305,0.052764154970645905,0.056180670857429504,0.0595971904695034,0.0630137100815773,0.0664302259683609,0.0698467418551445,0.0732632577419281,0.0766797810792923,0.0800962969660759,0.0835128128528595,0.0869293361902237,0.0903458520770073,0.0937623679637909]},"test_loss":0.33289047136698685,"gradients/model.lin1.biases":{"values":[1,1,0,0,0,0,1,0,0,1,0,0,0,0,1,1,0,1,1,0,0,0,1,0,0,4,2,0,0,1,0,1,0,2,0,80,0,1,2,1,2,0,2,0,0,1,1,1,3,1,0,2,0,0,0,0,0,1,1,1,0,0,0,1],"bins":[-0.16736947000026703,-0.16259674727916718,-0.15782400965690613,-0.15305128693580627,-0.14827856421470642,-0.14350582659244537,-0.13873310387134552,-0.13396036624908447,-0.12918764352798462,-0.12441491335630417,-0.11964218318462372,-0.11486946046352386,-0.11009673029184341,-0.10532400012016296,-0.10055127739906311,-0.09577854722738266,-0.09100581705570221,-0.08623308688402176,-0.08146035671234131,-0.07668763399124146,-0.071914903819561,-0.06714217364788055,-0.0623694472014904,-0.05759672075510025,-0.0528239905834198,-0.04805126041173935,-0.0432785339653492,-0.038505807518959045,-0.033733077347278595,-0.028960349038243294,-0.024187620729207993,-0.01941489242017269,-0.014642179012298584,-0.009869450703263283,-0.005096722394227982,-0.00032399408519268036,0.004448734223842621,0.009221462532877922,0.013994190841913223,0.018766919150948524,0.023539647459983826,0.028312375769019127,0.03308510407805443,0.03785783052444458,0.04263056069612503,0.04740329086780548,0.05217601731419563,0.056948743760585785,0.061721473932266235,0.06649420410394669,0.07126693427562714,0.07603965699672699,0.08081238716840744,0.08558511734008789,0.09035784006118774,0.0951305702328682,0.09990330040454865,0.1046760305762291,0.10944876074790955,0.1142214834690094,0.11899421364068985,0.1237669438123703,0.12853966653347015,0.1333124041557312,0.13808512687683105],"_type":"histogram"},"gradients/model.lin4.weights":{"_type":"histogram","values":[1,0,0,2,3,2,1,5,1,2,10,7,6,14,10,20,18,15,20,24,25,40,33,40,39,39,59,105,148,290,11868,226,198,155,150,133,111,105,71,66,57,50,39,31,30,26,14,19,17,12,9,8,4,5,5,4,1,0,2,0,1,3,0,1],"bins":[-0.0720972865819931,-0.06969794631004333,-0.06729860603809357,-0.0648992657661438,-0.06249992176890373,-0.060100581496953964,-0.0577012374997139,-0.05530189722776413,-0.05290255695581436,-0.050503216683864594,-0.048103876411914825,-0.04570453241467476,-0.04330519214272499,-0.04090585187077522,-0.038506507873535156,-0.03610716760158539,-0.03370782732963562,-0.03130848705768585,-0.028909144923090935,-0.026509802788496017,-0.02411046251654625,-0.02171112224459648,-0.019311780110001564,-0.016912437975406647,-0.014513097703456879,-0.012113756500184536,-0.009714415296912193,-0.007315074093639851,-0.004915732890367508,-0.0025163916870951653,-0.00011705048382282257,0.00228229071944952,0.004681624472141266,0.0070809656754136086,0.009480306878685951,0.011879648081958294,0.014278989285230637,0.016678329557180405,0.019077671691775322,0.02147701382637024,0.023876354098320007,0.026275694370269775,0.028675036504864693,0.03107437863945961,0.03347371891140938,0.035873059183359146,0.03827240318059921,0.04067174345254898,0.04307108372449875,0.04547042399644852,0.047869764268398285,0.05026910826563835,0.05266844853758812,0.05506778880953789,0.057467132806777954,0.05986647307872772,0.06226581335067749,0.06466515362262726,0.06706449389457703,0.0694638341665268,0.07186317443847656,0.07426252216100693,0.0766618624329567,0.07906120270490646,0.08146054297685623]},"_step":155,"test_rmse":0.2639616621659331,"gradients/model.lin4.biases":{"values":[2,0,0,0,0,0,0,0,0,0,0,0,1,0,0,0,0,0,0,2,1,0,0,1,0,1,0,0,93,1,0,1,1,1,1,0,1,0,3,2,1,0,0,0,1,1,0,0,0,0,2,0,0,0,0,1,0,0,1,0,0,0,0,1],"bins":[-0.09802994877099991,-0.09455826133489609,-0.09108657389879227,-0.08761488646268845,-0.08414319157600403,-0.08067150413990021,-0.07719981670379639,-0.07372812926769257,-0.07025644183158875,-0.06678475439548492,-0.0633130669593811,-0.059841375797986984,-0.05636968836188316,-0.05289800092577934,-0.04942630976438522,-0.0459546223282814,-0.04248293489217758,-0.03901124745607376,-0.03553956001996994,-0.03206786885857582,-0.028596181422472,-0.02512449398636818,-0.02165280468761921,-0.01818111538887024,-0.014709427952766418,-0.011237739585340023,-0.007766051217913628,-0.004294362850487232,-0.0008226744830608368,0.0026490138843655586,0.006120702251791954,0.00959239061921835,0.013064071536064148,0.01653575897216797,0.02000744827091694,0.02347913756966591,0.02695082500576973,0.03042251244187355,0.03389420360326767,0.03736589103937149,0.04083757847547531,0.04430926591157913,0.04778095334768295,0.05125264450907707,0.05472433194518089,0.058196019381284714,0.06166771054267883,0.06513939797878265,0.06861108541488647,0.0720827728509903,0.07555446028709412,0.07902614772319794,0.08249783515930176,0.08596953004598618,0.08944121748209,0.09291290491819382,0.09638459235429764,0.09985627979040146,0.10332796722650528,0.1067996546626091,0.11027134954929352,0.11374303698539734,0.11721472442150116,0.12068641185760498,0.1241580992937088],"_type":"histogram"},"gradients/model.lin1.weights":{"bins":[-0.29998695850372314,-0.29146531224250793,-0.2829436957836151,-0.2744220495223999,-0.2659004330635071,-0.25737878680229187,-0.24885715544223785,-0.24033552408218384,-0.23181387782096863,-0.2232922464609146,-0.2147706151008606,-0.20624898374080658,-0.19772735238075256,-0.18920572102069855,-0.18068407475948334,-0.17216244339942932,-0.1636408120393753,-0.1551191806793213,-0.14659754931926727,-0.13807590305805206,-0.12955427169799805,-0.12103264033794403,-0.11251100897789001,-0.1039893701672554,-0.09546773880720139,-0.08694610744714737,-0.07842446863651276,-0.06990283727645874,-0.061381202191114426,-0.05285956710577011,-0.044337935745716095,-0.03581630066037178,-0.027294665575027466,-0.01877303048968315,-0.010251397266983986,-0.001729763112962246,0.006791871041059494,0.015313505195081234,0.023835139349102974,0.03235677257180214,0.040878407657146454,0.04940004274249077,0.05792167782783508,0.0664433091878891,0.07496494054794312,0.08348657935857773,0.09200821071863174,0.10052984952926636,0.10905148088932037,0.11757311224937439,0.1260947436094284,0.13461638987064362,0.14313802123069763,0.15165965259075165,0.16018128395080566,0.16870291531085968,0.1772245466709137,0.1857461929321289,0.19426782429218292,0.20278945565223694,0.21131108701229095,0.21983271837234497,0.22835436463356018,0.2368759959936142,0.2453976273536682],"_type":"histogram","values":[1,0,0,0,0,0,0,0,1,0,0,0,1,1,0,0,0,0,2,3,0,0,1,4,5,2,5,7,8,8,9,18,10,12,12,407,10,6,16,6,8,8,5,2,3,1,2,3,3,1,1,0,0,2,0,0,1,0,1,0,0,0,1,3]},"_runtime":106.313302226,"epoch":154,"_wandb":{"runtime":106},"gradients/model.lin5.biases":{"values":[1,1,0,0,0,0,0,0,0,0,0,0,0,0,0,0,0,0,0,0,8,0,0,0,0,0,0,0,0,0,0,0,0,0,0,0,0,0,0,0,0,0,0,0,0,0,0,0,0,0,0,0,0,0,0,0,0,0,0,0,0,0,0,2],"bins":[-0.1533636897802353,-0.14595730602741241,-0.13855090737342834,-0.13114452362060547,-0.12373813986778259,-0.11633175611495972,-0.10892536491155624,-0.10151897370815277,-0.0941125899553299,-0.08670620620250702,-0.07929981499910355,-0.07189342379570007,-0.0644870400428772,-0.05708065256476402,-0.04967426508665085,-0.042267877608537674,-0.0348614901304245,-0.027455102652311325,-0.02004871517419815,-0.012642327696084976,-0.005235940217971802,0.0021704472601413727,0.009576834738254547,0.01698322221636772,0.024389609694480896,0.03179599717259407,0.039202384650707245,0.04660877212882042,0.054015159606933594,0.06142154708504677,0.06882793456315994,0.07623432576656342,0.0836406946182251,0.09104707837104797,0.09845346957445145,0.10585986077785492,0.1132662445306778,0.12067262828350067,0.12807902693748474,0.13548541069030762,0.1428917944431305,0.15029817819595337,0.15770456194877625,0.16511096060276031,0.1725173443555832,0.17992372810840607,0.18733012676239014,0.194736510515213,0.2021428942680359,0.20954927802085876,0.21695566177368164,0.2243620604276657,0.2317684441804886,0.23917482793331146,0.24658122658729553,0.2539876103401184,0.2613939940929413,0.26880037784576416,0.27620676159858704,0.2836131453514099,0.2910195589065552,0.29842594265937805,0.3058323264122009,0.3132387101650238,0.3206450939178467],"_type":"histogram"},"_timestamp":1.7522500042666779e+09,"gradients/model.lin3.weights":{"values":[4,3,2,1,4,6,2,2,4,4,10,10,7,10,24,18,17,16,35,42,57,64,89,117,140,174,263,312,412,598,21686,1010,745,611,530,374,316,240,171,128,113,100,70,55,39,37,25,23,19,12,15,11,3,7,4,2,3,2,1,0,0,0,0,1],"bins":[-0.05644432455301285,-0.05461669713258743,-0.05278906598687172,-0.050961438566446304,-0.04913380742073059,-0.047306180000305176,-0.04547854885458946,-0.04365092143416405,-0.041823290288448334,-0.03999566286802292,-0.038168035447597504,-0.03634040430188179,-0.034512776881456375,-0.03268514573574066,-0.030857518315315247,-0.029029889032244682,-0.027202259749174118,-0.025374630466103554,-0.02354700118303299,-0.021719371899962425,-0.01989174261689186,-0.018064115196466446,-0.01623648591339588,-0.014408856630325317,-0.012581227347254753,-0.010753598064184189,-0.008925968781113625,-0.007098340429365635,-0.005270711146295071,-0.00344308209605515,-0.0016154530458152294,0.0002121760044246912,0.002039805054664612,0.0038674341049045324,0.005695063155144453,0.00752269197255373,0.009350321255624294,0.011177950538694859,0.013005578890442848,0.014833208173513412,0.016660837456583977,0.01848846673965454,0.020316096022725105,0.02214372530579567,0.023971352726221085,0.02579898200929165,0.027626611292362213,0.029454240575432777,0.03128186985850334,0.03310949727892876,0.03493712842464447,0.036764755845069885,0.0385923869907856,0.040420014411211014,0.04224764555692673,0.04407527297735214,0.04590290039777756,0.04773053154349327,0.049558158963918686,0.0513857901096344,0.053213417530059814,0.05504104867577553,0.05686867609620094,0.058696307241916656,0.06052393466234207],"_type":"histogram"},"train_loss":-2.068264431423611}