{"gradients/model.lin2.biases":{"values":[1,0,0,0,1,0,2,0,0,0,6,0,3,1,1,2,1,3,1,3,3,1,3,2,1,2,164,4,3,2,2,3,2,1,1,1,3,3,1,2,0,1,3,1,2,0,0,1,0,1,0,1,0,0,0,0,0,0,0,0,0,0,0,1],"bins":[-0.10976650565862656,-0.1056368499994278,-0.10150720179080963,-0.09737754613161087,-0.09324789047241211,-0.08911824226379395,-0.08498858660459518,-0.08085893094539642,-0.07672928273677826,-0.0725996270775795,-0.06846997141838074,-0.06434031575918198,-0.06021066755056381,-0.05608101189136505,-0.05195135995745659,-0.04782170429825783,-0.043692052364349365,-0.0395624004304409,-0.03543274477124214,-0.03130309283733368,-0.027173439040780067,-0.023043785244226456,-0.018914133310317993,-0.014784479513764381,-0.01065482571721077,-0.006525172386318445,-0.0023955190554261208,0.0017341342754662037,0.005863787606358528,0.00999344140291214,0.014123094268143177,0.018252747133374214,0.022382408380508423,0.026512062177062035,0.030641715973615646,0.03477136790752411,0.03890102356672287,0.04303067550063133,0.047160327434539795,0.051289983093738556,0.05541963502764702,0.05954928696155548,0.06367894262075424,0.067808598279953,0.07193824648857117,0.07606790214776993,0.08019755780696869,0.08432720601558685,0.08845686167478561,0.09258651733398438,0.09671616554260254,0.1008458212018013,0.10497547686100006,0.10910512506961823,0.11323478072881699,0.11736443638801575,0.12149408459663391,0.12562374770641327,0.12975339591503143,0.1338830441236496,0.13801270723342896,0.14214235544204712,0.14627200365066528,0.15040166676044464,0.1545313149690628],"_type":"histogram"},"epoch":176,"_timestamp":1.7522675199716115e+09,"gradients/model.lin5.biases":{"values":[10,0,0,0,0,0,0,0,0,0,0,0,0,0,0,0,0,0,0,0,0,0,0,0,0,0,0,0,0,0,0,0,0,0,0,0,0,1,0,0,0,0,0,0,0,0,0,0,0,0,0,0,0,0,0,0,0,0,0,0,0,0,0,1],"bins":[0,0.003468121634796262,0.006936243269592524,0.010404365137219429,0.013872486539185047,0.017340607941150665,0.020808730274438858,0.0242768507450819,0.027744973078370094,0.031213095411658287,0.03468121588230133,0.03814933821558952,0.041617460548877716,0.04508558288216591,0.0485537014901638,0.052021823823451996,0.05548994615674019,0.05895806849002838,0.062426190823316574,0.06589431315660477,0.06936243176460266,0.07283055782318115,0.07629867643117905,0.07976679503917694,0.08323492109775543,0.08670303970575333,0.09017116576433182,0.09363928437232971,0.0971074029803276,0.1005755290389061,0.10404364764690399,0.10751177370548248,0.11097989231348038,0.11444801092147827,0.11791613698005676,0.12138425558805466,0.12485238164663315,0.12832050025463104,0.13178862631320953,0.13525673747062683,0.13872486352920532,0.1421929895877838,0.1456611156463623,0.1491292268037796,0.1525973528623581,0.15606547892093658,0.15953359007835388,0.16300171613693237,0.16646984219551086,0.16993795335292816,0.17340607941150665,0.17687420547008514,0.18034233152866364,0.18381044268608093,0.18727856874465942,0.19074669480323792,0.1942148059606552,0.1976829320192337,0.2011510580778122,0.2046191692352295,0.20808729529380798,0.21155542135238647,0.21502354741096497,0.21849165856838226,0.22195978462696075],"_type":"histogram"},"train_loss":-1.696839449698465,"test_rmse":1.3265796212863608,"_wandb":{"runtime":130},"_step":177,"gradients/model.lin1.weights":{"values":[1,0,0,0,0,0,0,0,0,0,1,0,0,0,0,2,1,0,2,3,3,1,2,4,0,1,0,4,7,5,8,12,9,16,418,19,13,8,10,12,9,5,4,2,4,1,4,1,2,1,0,2,1,0,0,0,1,0,0,0,0,0,0,1],"bins":[-0.4450618624687195,-0.43229737877845764,-0.4195328652858734,-0.4067683815956116,-0.39400386810302734,-0.3812393844127655,-0.36847490072250366,-0.35571038722991943,-0.3429459035396576,-0.33018139004707336,-0.3174169063568115,-0.3046524226665497,-0.29188790917396545,-0.2791234254837036,-0.2663589119911194,-0.25359442830085754,-0.2408299297094345,-0.22806543111801147,-0.21530093252658844,-0.2025364488363266,-0.18977195024490356,-0.17700745165348053,-0.1642429530620575,-0.15147845447063446,-0.13871395587921143,-0.12594947218894958,-0.11318497359752655,-0.10042047500610352,-0.08765597641468048,-0.07489148527383804,-0.06212698668241501,-0.04936249181628227,-0.036597996950149536,-0.0238335020840168,-0.011069005355238914,0.0016954904422163963,0.014459986239671707,0.027224481105804443,0.03998897969722748,0.052753474563360214,0.06551796942949295,0.07828246802091599,0.09104695916175842,0.10381145775318146,0.11657595634460449,0.12934045493602753,0.14210493862628937,0.1548694372177124,0.16763393580913544,0.18039843440055847,0.1931629329919815,0.20592741668224335,0.21869191527366638,0.23145641386508942,0.24422091245651245,0.2569853961467743,0.2697499096393585,0.28251439332962036,0.2952789068222046,0.30804339051246643,0.32080787420272827,0.3335723876953125,0.34633687138557434,0.35910138487815857,0.3718658685684204],"_type":"histogram"},"gradients/model.lin5.weights":{"values":[1,0,0,1,0,0,1,412,0,6,6,1,3,1,1,1,0,4,3,0,2,0,4,3,5,0,1,1,2,0,0,4,1,2,1,1,1,0,0,1,0,0,0,1,2,0,1,1,0,0,1,0,2,0,1,0,0,0,0,0,0,0,0,1],"bins":[-0.040392860770225525,-0.03507675230503082,-0.02976064756512642,-0.024444540962576866,-0.019128434360027313,-0.01381232775747776,-0.008496221154928207,-0.0031801145523786545,0.0021359920501708984,0.007452098652720451,0.012768205255270004,0.018084311857819557,0.02340041846036911,0.028716525062918663,0.034032631665468216,0.03934873640537262,0.04466484487056732,0.049980953335762024,0.05529705807566643,0.06061316281557083,0.06592927128076553,0.07124537974596024,0.07656148076057434,0.08187758922576904,0.08719369769096375,0.09250980615615845,0.09782591462135315,0.10314201563596725,0.10845812410116196,0.11377423256635666,0.11909033358097076,0.12440644204616547,0.12972253561019897,0.13503864407539368,0.14035475254058838,0.14567086100578308,0.15098696947097778,0.1563030630350113,0.161619171500206,0.1669352799654007,0.1722513884305954,0.1775674968957901,0.1828836053609848,0.1881997138261795,0.193515807390213,0.19883191585540771,0.20414802432060242,0.20946413278579712,0.21478024125099182,0.22009634971618652,0.22541245818138123,0.23072856664657593,0.23604467511177063,0.24136076867580414,0.24667687714099884,0.25199300050735474,0.25730907917022705,0.26262518763542175,0.26794129610061646,0.27325740456581116,0.27857351303100586,0.28388962149620056,0.28920572996139526,0.29452183842658997,0.29983794689178467],"_type":"histogram"},"gradients/model.lin4.biases":{"_type":"histogram","values":[2,1,1,1,2,0,1,0,1,1,1,0,1,0,0,0,0,1,0,0,1,1,4,3,0,85,2,0,0,0,1,0,2,0,1,1,0,1,0,0,1,0,0,1,0,1,1,0,0,0,0,0,0,0,0,0,0,0,0,0,0,0,0,1],"bins":[-0.05758019536733627,-0.055303506553173065,-0.05302681773900986,-0.05075012519955635,-0.04847343638539314,-0.046196747571229935,-0.04392005503177643,-0.04164336621761322,-0.03936667740345001,-0.037089988589286804,-0.034813299775123596,-0.03253660723567009,-0.03025991842150688,-0.027983229607343674,-0.025706538930535316,-0.02342984825372696,-0.02115315943956375,-0.018876470625400543,-0.016599779948592186,-0.014323090203106403,-0.01204640045762062,-0.009769710712134838,-0.0074930209666490555,-0.005216331221163273,-0.0029396414756774902,-0.0006629517301917076,0.001613738015294075,0.0038904277607798576,0.00616711750626564,0.008443807251751423,0.010720496997237206,0.012997186742722988,0.015273883938789368,0.017550572752952576,0.019827263429760933,0.02210395410656929,0.024380642920732498,0.026657331734895706,0.028934022411704063,0.03121071308851242,0.03348740190267563,0.03576409071683884,0.038040779531002045,0.04031747207045555,0.04259416088461876,0.04487084969878197,0.047147542238235474,0.04942423105239868,0.05170091986656189,0.0539776086807251,0.056254297494888306,0.05853099003434181,0.06080767884850502,0.06308437138795853,0.06536106020212173,0.06763774901628494,0.06991443783044815,0.07219112664461136,0.07446781545877457,0.07674450427293777,0.07902120053768158,0.08129788935184479,0.083574578166008,0.0858512669801712,0.08812795579433441]},"gradients/model.lin3.biases":{"bins":[-0.05786122381687164,-0.055840540677309036,-0.05381986126303673,-0.05179917812347412,-0.049778494983911514,-0.047757815569639206,-0.0457371324300766,-0.04371644929051399,-0.041695766150951385,-0.03967508673667908,-0.03765440359711647,-0.035633720457553864,-0.033613041043281555,-0.03159235790371895,-0.02957167662680149,-0.027550993487238884,-0.025530312210321426,-0.02350963093340397,-0.021488947793841362,-0.019468266516923904,-0.017447583377361298,-0.01542690210044384,-0.013406220823526382,-0.01138553861528635,-0.009364856407046318,-0.007344174198806286,-0.005323492456227541,-0.0033028104808181524,-0.0012821285054087639,0.0007385534700006247,0.002759235445410013,0.004779917187988758,0.00680059939622879,0.008821281604468822,0.010841963812708855,0.012862645089626312,0.014883327297866344,0.016904009506106377,0.018924690783023834,0.02094537392258644,0.0229660551995039,0.024986736476421356,0.027007419615983963,0.02902810089290142,0.031048782169818878,0.033069465309381485,0.03509014844894409,0.0371108278632164,0.03913151100277901,0.041152194142341614,0.04317287355661392,0.04519355669617653,0.047214239835739136,0.049234919250011444,0.05125560238957405,0.05327628552913666,0.055296964943408966,0.05731764808297157,0.05933833122253418,0.061359014362096786,0.0633796975016594,0.0654003769159317,0.06742105633020401,0.06944174319505692,0.07146242260932922],"_type":"histogram","values":[1,0,0,0,1,1,1,2,6,2,2,1,0,4,2,3,3,4,2,0,1,3,7,3,2,3,4,5,260,4,4,0,1,4,0,0,1,2,1,2,1,1,2,1,1,1,0,0,1,2,0,1,0,0,1,0,0,1,0,0,3,1,0,1]},"gradients/model.lin3.weights":{"bins":[-0.054052408784627914,-0.052072759717702866,-0.050093114376068115,-0.048113465309143066,-0.04613381624221802,-0.04415417090058327,-0.04217452183365822,-0.04019487276673317,-0.03821522742509842,-0.03623557835817337,-0.03425592929124832,-0.03227628022432327,-0.030296634882688522,-0.028316985815763474,-0.026337338611483574,-0.024357689544558525,-0.022378042340278625,-0.020398395135998726,-0.018418746069073677,-0.016439098864793777,-0.014459450729191303,-0.012479802593588829,-0.01050015538930893,-0.008520507253706455,-0.006540859118103981,-0.004561210982501507,-0.00258156331256032,-0.0006019154097884893,0.0013777324929833412,0.0033573803957551718,0.005337028298527002,0.007316675968468189,0.009296320378780365,0.01127596851438284,0.013255616649985313,0.015235263854265213,0.017214912921190262,0.01919456012547016,0.02117420732975006,0.02315385639667511,0.02513350360095501,0.02711315080523491,0.029092799872159958,0.031072447076439857,0.03305209428071976,0.035031743347644806,0.037011392414569855,0.038991037756204605,0.040970686823129654,0.0429503358900547,0.04492998123168945,0.0469096302986145,0.04888927936553955,0.0508689247071743,0.05284857377409935,0.0548282228410244,0.05680786818265915,0.0587875172495842,0.06076716631650925,0.0627468153834343,0.06472646445035934,0.0667061060667038,0.06868575513362885,0.0706654042005539,0.07264505326747894],"_type":"histogram","values":[2,1,5,3,7,11,7,11,13,20,23,31,40,39,64,74,80,122,114,155,212,239,305,399,533,678,901,21819,708,473,311,262,200,151,138,107,97,83,48,48,38,49,40,20,27,25,11,10,10,6,5,4,2,1,5,3,3,0,2,2,1,0,0,2]},"gradients/model.lin2.weights":{"_type":"histogram","values":[1,2,1,0,0,3,2,2,1,2,8,6,5,8,8,14,11,17,19,27,35,48,65,80,118,217,354,7128,442,289,189,121,87,63,54,35,32,13,19,21,7,9,5,6,7,2,4,2,1,1,2,3,0,0,0,1,1,1,0,0,0,0,0,1],"bins":[-0.1993378847837448,-0.19219326972961426,-0.1850486695766449,-0.17790405452251434,-0.1707594394683838,-0.16361483931541443,-0.15647022426128387,-0.14932562410831451,-0.14218100905418396,-0.1350363940000534,-0.12789179384708405,-0.12074717879295349,-0.11360257118940353,-0.10645796358585358,-0.09931334853172302,-0.09216874092817307,-0.08502413332462311,-0.07787952572107315,-0.0707349181175232,-0.06359030306339264,-0.05644569545984268,-0.049301087856292725,-0.04215647652745247,-0.03501186519861221,-0.027867257595062256,-0.02072264812886715,-0.013578038662672043,-0.006433429196476936,0.0007111802697181702,0.007855789735913277,0.015000399202108383,0.02214500866830349,0.02928963303565979,0.03643424063920975,0.04357885196805,0.05072346329689026,0.057868070900440216,0.06501267850399017,0.07215729355812073,0.07930190116167068,0.08644650876522064,0.0935911163687706,0.10073572397232056,0.10788033902645111,0.11502494663000107,0.12216955423355103,0.12931416928768158,0.13645876944065094,0.1436033844947815,0.15074799954891205,0.1578925997018814,0.16503721475601196,0.17218181490898132,0.17932642996311188,0.18647104501724243,0.1936156451702118,0.20076026022434235,0.2079048752784729,0.21504947543144226,0.22219409048557281,0.22933870553970337,0.23648330569267273,0.24362792074680328,0.25077253580093384,0.2579171359539032]},"test_loss":0.971721492401541,"_runtime":130.071610226,"gradients/model.lin4.weights":{"_type":"histogram","values":[6,2,2,1,2,13,8,9,6,12,25,23,18,23,41,37,53,51,61,65,97,89,118,107,143,224,227,331,11123,306,225,192,149,110,105,63,73,48,35,39,20,19,14,20,13,6,15,5,6,1,2,4,2,1,3,0,1,1,2,0,2,0,0,1],"bins":[-0.05671682953834534,-0.05473309010267258,-0.05274935066699982,-0.05076561123132706,-0.0487818717956543,-0.04679813235998154,-0.04481439292430878,-0.04283065348863602,-0.04084691405296326,-0.0388631746172905,-0.03687943518161774,-0.03489569574594498,-0.03291195631027222,-0.030928216874599457,-0.028944477438926697,-0.026960738003253937,-0.024976998567581177,-0.022993259131908417,-0.021009519696235657,-0.019025780260562897,-0.017042040824890137,-0.015058301389217377,-0.013074561953544617,-0.011090822517871857,-0.009107083082199097,-0.007123343646526337,-0.005139604210853577,-0.0031558647751808167,-0.0011721253395080566,0.0008116140961647034,0.0027953535318374634,0.004779092967510223,0.0067628249526023865,0.008746564388275146,0.010730303823947906,0.012714043259620667,0.014697782695293427,0.016681522130966187,0.018665261566638947,0.020649001002311707,0.022632740437984467,0.024616479873657227,0.026600219309329987,0.028583958745002747,0.030567698180675507,0.03255143761634827,0.03453517705202103,0.03651891648769379,0.03850265592336655,0.04048639535903931,0.04247013479471207,0.04445387423038483,0.04643761366605759,0.04842135310173035,0.05040509253740311,0.05238883197307587,0.05437257140874863,0.05635631084442139,0.05834005028009415,0.06032378971576691,0.06230752915143967,0.06429126858711243,0.06627500802278519,0.06825874745845795,0.0702424868941307]},"gradients/model.lin1.biases":{"bins":[-0.12056584656238556,-0.11569558829069138,-0.11082533001899719,-0.10595507174730301,-0.10108481347560883,-0.09621454775333405,-0.09134428948163986,-0.08647403120994568,-0.0816037729382515,-0.07673351466655731,-0.07186325639486313,-0.06699299812316895,-0.062122736126184464,-0.05725247785449028,-0.0523822158575058,-0.047511957585811615,-0.04264169931411743,-0.03777144104242325,-0.032901182770729065,-0.028030920773744583,-0.0231606625020504,-0.018290404230356216,-0.013420144096016884,-0.008549884893000126,-0.003679625689983368,0.00119063351303339,0.006060892716050148,0.010931151919066906,0.015801411122083664,0.020671669393777847,0.02554192952811718,0.030412189662456512,0.0352824330329895,0.040152691304683685,0.04502294957637787,0.04989321157336235,0.054763469845056534,0.05963372811675072,0.0645039901137352,0.06937424838542938,0.07424450665712357,0.07911476492881775,0.08398502320051193,0.08885528147220612,0.0937255471944809,0.09859580546617508,0.10346606373786926,0.10833632200956345,0.11320658028125763,0.11807683855295181,0.122947096824646,0.12781736254692078,0.13268761336803436,0.13755787909030914,0.14242812991142273,0.1472983956336975,0.1521686613559723,0.15703891217708588,0.16190917789936066,0.16677942872047424,0.17164969444274902,0.1765199452638626,0.1813902109861374,0.18626046180725098,0.19113072752952576],"_type":"histogram","values":[2,1,0,0,0,0,0,0,0,1,2,1,0,0,1,1,1,0,2,2,3,3,2,3,82,1,0,0,1,3,0,0,0,1,0,1,0,1,1,0,0,0,0,0,0,0,0,0,0,0,0,1,0,0,0,0,1,0,0,0,0,0,1,1]}}