{"_runtime":29.086472585,"gradients/model.lin4.biases":{"_type":"histogram","values":[1,1,0,1,0,1,0,1,0,1,0,0,0,0,1,0,2,0,1,0,1,1,2,1,0,0,92,1,2,0,2,1,0,0,0,2,0,0,0,0,0,0,0,0,2,1,0,0,0,0,0,0,0,1,0,0,0,0,0,0,0,0,0,1],"bins":[-1.4891923666000366,-1.4338945150375366,-1.3785967826843262,-1.3232989311218262,-1.2680011987686157,-1.2127033472061157,-1.1574056148529053,-1.1021077632904053,-1.0468099117279053,-0.9915121793746948,-0.9362143874168396,-0.8809165954589844,-0.8256187438964844,-0.7703209519386292,-0.7150231599807739,-0.6597253680229187,-0.6044275760650635,-0.5491297841072083,-0.493831992149353,-0.4385341703891754,-0.3832363784313202,-0.32793858647346497,-0.27264076471328735,-0.21734297275543213,-0.1620451807975769,-0.10674738138914108,-0.05144958198070526,0.0038482174277305603,0.05914601683616638,0.1144438162446022,0.16974161565303802,0.22503942251205444,0.2803373336791992,0.33563512563705444,0.39093291759490967,0.4462307393550873,0.5015285015106201,0.5568263530731201,0.6121241450309753,0.6674219369888306,0.7227197289466858,0.778017520904541,0.8333153128623962,0.8886131048202515,0.9439109563827515,0.9992087483406067,1.054506540298462,1.1098042726516724,1.1651021242141724,1.2203999757766724,1.2756977081298828,1.3309955596923828,1.3862932920455933,1.4415911436080933,1.4968888759613037,1.5521867275238037,1.6074845790863037,1.6627823114395142,1.7180801630020142,1.7733778953552246,1.8286757469177246,1.883973479270935,1.939271330833435,1.9945690631866455,2.0498669147491455]},"train_loss":-3.029821563185307,"gradients/model.lin3.weights":{"bins":[-0.5427794456481934,-0.525019645690918,-0.5072598457336426,-0.48950010538101196,-0.4717403054237366,-0.4539805054664612,-0.4362207353115082,-0.4184609651565552,-0.4007011651992798,-0.3829413652420044,-0.3651815950870514,-0.3474218249320984,-0.329662024974823,-0.3119022250175476,-0.2941424548625946,-0.2763826847076416,-0.2586228847503662,-0.24086309969425201,-0.22310331463813782,-0.20534352958202362,-0.18758374452590942,-0.16982395946979523,-0.15206417441368103,-0.13430438935756683,-0.11654460430145264,-0.09878481924533844,-0.08102503418922424,-0.06326524913311005,-0.04550546407699585,-0.027745679020881653,-0.009985893964767456,0.007773891091346741,0.025533616542816162,0.04329340159893036,0.061053186655044556,0.07881297171115875,0.09657275676727295,0.11433254182338715,0.13209232687950134,0.14985211193561554,0.16761189699172974,0.18537168204784393,0.20313146710395813,0.22089125216007233,0.23865103721618652,0.2564108371734619,0.2741706073284149,0.2919303774833679,0.3096901774406433,0.3274499773979187,0.3452097475528717,0.3629695177078247,0.3807293176651001,0.3984891176223755,0.4162488877773285,0.4340086579322815,0.4517684578895569,0.4695282578468323,0.4872880280017853,0.5050477981567383,0.5228075981140137,0.5405673980712891,0.5583271980285645,0.5760869383811951,0.5938467383384705],"_type":"histogram","values":[2,0,0,0,1,1,2,2,2,4,3,2,6,8,5,15,13,16,19,28,33,37,56,83,85,122,180,224,289,622,23969,915,529,349,267,179,134,114,81,60,53,53,44,31,31,26,16,16,13,15,8,6,7,6,4,4,3,1,2,1,1,0,1,1]},"gradients/model.lin5.weights":{"_type":"histogram","values":[1,2,3,0,2,2,0,0,0,1,0,0,1,2,0,438,0,1,0,0,0,0,1,0,0,1,2,0,0,0,4,0,0,2,3,1,2,3,2,1,1,0,0,0,0,0,1,1,0,0,0,0,0,0,0,1,0,0,0,0,0,0,0,1],"bins":[-17.40951156616211,-16.279647827148438,-15.14978313446045,-14.019918441772461,-12.890054702758789,-11.7601900100708,-10.630325317382812,-9.50046157836914,-8.370596885681152,-7.240732669830322,-6.110868453979492,-4.981003761291504,-3.851139545440674,-2.7212753295898438,-1.5914108753204346,-0.46154654026031494,0.6683177947998047,1.7981821298599243,2.928046464920044,4.057910919189453,5.187775135040283,6.317639350891113,7.447504043579102,8.577367782592773,9.707232475280762,10.83709716796875,11.966960906982422,13.09682559967041,14.226690292358398,15.35655403137207,16.486417770385742,17.616283416748047,18.74614715576172,19.87601089477539,21.005876541137695,22.135740280151367,23.26560401916504,24.395469665527344,25.525333404541016,26.655197143554688,27.78506088256836,28.914926528930664,30.044790267944336,31.174654006958008,32.30451965332031,33.434383392333984,34.564247131347656,35.69411087036133,36.823974609375,37.95384216308594,39.08370590209961,40.21356964111328,41.34343338012695,42.473297119140625,43.6031608581543,44.733028411865234,45.862892150878906,46.99275588989258,48.12261962890625,49.25248336791992,50.382347106933594,51.51221466064453,52.6420783996582,53.771942138671875,54.90180587768555]},"gradients/model.lin2.weights":{"_type":"histogram","values":[1,0,0,0,0,1,3,3,2,2,4,2,7,0,3,9,6,15,10,10,19,34,53,59,92,148,215,342,7351,319,189,166,117,93,72,46,24,22,16,20,10,12,19,19,16,10,5,7,5,9,1,0,4,3,1,2,1,0,0,0,0,0,0,1],"bins":[-0.23527856171131134,-0.22700880467891693,-0.21873903274536133,-0.21046927571296692,-0.2021995186805725,-0.1939297467470169,-0.1856599897146225,-0.1773902177810669,-0.16912046074867249,-0.16085070371627808,-0.15258093178272247,-0.14431117475032806,-0.13604140281677246,-0.12777164578437805,-0.11950188875198364,-0.11123212426900864,-0.10296235978603363,-0.09469259530305862,-0.08642283082008362,-0.07815307378768921,-0.0698833093047142,-0.0616135448217392,-0.05334378406405449,-0.04507402330636978,-0.036804258823394775,-0.02853449620306492,-0.02026473358273506,-0.011994970962405205,-0.003725208342075348,0.004544554278254509,0.012814316898584366,0.021084079518914223,0.029353827238082886,0.03762359172105789,0.0458933524787426,0.05416311323642731,0.06243287771940231,0.07070264220237732,0.07897239923477173,0.08724216371774673,0.09551192820072174,0.10378169268369675,0.11205145716667175,0.12032121419906616,0.12859097123146057,0.13686074316501617,0.14513050019741058,0.1534002721309662,0.1616700291633606,0.169939786195755,0.1782095581293106,0.18647931516170502,0.19474908709526062,0.20301884412765503,0.21128860116004944,0.21955837309360504,0.22782813012599945,0.23609788715839386,0.24436765909194946,0.25263741612434387,0.2609071731567383,0.2691769301891327,0.2774467170238495,0.2857164740562439,0.2939862310886383]},"gradients/model.lin1.weights":{"bins":[-0.22802817821502686,-0.22020100057125092,-0.21237382292747498,-0.20454664528369904,-0.1967194676399231,-0.18889228999614716,-0.18106511235237122,-0.17323793470859528,-0.16541075706481934,-0.1575835645198822,-0.14975638687610626,-0.14192920923233032,-0.13410203158855438,-0.12627485394477844,-0.1184476763010025,-0.11062049865722656,-0.10279332101345062,-0.09496614336967468,-0.08713896572589874,-0.0793117880821228,-0.07148461043834686,-0.06365742534399033,-0.055830247700214386,-0.048003070056438446,-0.040175892412662506,-0.032348714768886566,-0.024521535262465477,-0.016694355756044388,-0.008867178112268448,-0.0010399995371699333,0.006787179037928581,0.014614357613027096,0.02244153618812561,0.03026871383190155,0.03809589147567749,0.04592307284474373,0.05375025048851967,0.06157742813229561,0.06940460950136185,0.07723178714513779,0.08505896478891373,0.09288614243268967,0.1007133200764656,0.10854049772024155,0.11636768281459808,0.12419486045837402,0.13202203810214996,0.1398492157459259,0.14767639338970184,0.15550357103347778,0.16333074867725372,0.17115792632102966,0.1789851039648056,0.18681228160858154,0.19463945925235748,0.20246663689613342,0.21029382944107056,0.2181210070848465,0.22594818472862244,0.23377536237239838,0.24160254001617432,0.24942971765995026,0.2572568953037262,0.26508405804634094,0.2729112505912781],"_type":"histogram","values":[1,1,1,1,1,0,0,1,1,1,1,3,0,0,2,1,3,2,7,6,4,9,6,7,9,8,13,6,8,415,9,6,9,10,6,8,4,7,7,2,1,3,5,0,0,0,2,1,0,0,0,0,0,0,0,1,0,0,0,0,0,0,0,1]},"test_rmse":13.841498761727012,"gradients/model.lin3.biases":{"_type":"histogram","values":[1,0,0,0,0,0,0,0,0,1,0,3,0,0,2,1,0,0,0,3,0,2,1,1,4,5,4,6,275,6,7,5,4,2,2,5,4,2,0,1,2,2,1,1,1,1,0,1,0,0,2,0,0,0,0,0,0,0,0,1,0,0,0,1],"bins":[-0.5051832795143127,-0.4874947965145111,-0.4698063135147095,-0.45211783051490784,-0.4344293475151062,-0.41674086451530457,-0.39905238151550293,-0.3813638985157013,-0.36367541551589966,-0.345986932516098,-0.3282984495162964,-0.31060996651649475,-0.2929214835166931,-0.2752330005168915,-0.25754451751708984,-0.2398560345172882,-0.22216755151748657,-0.20447906851768494,-0.1867905855178833,-0.16910210251808167,-0.15141361951828003,-0.1337251365184784,-0.11603665351867676,-0.09834817051887512,-0.08065968751907349,-0.06297120451927185,-0.045282721519470215,-0.02759423851966858,-0.009905755519866943,0.007782727479934692,0.025471210479736328,0.043159693479537964,0.060848116874694824,0.07853659987449646,0.0962250828742981,0.11391356587409973,0.13160204887390137,0.149290531873703,0.16697901487350464,0.18466749787330627,0.2023559808731079,0.22004446387290955,0.23773294687271118,0.2554214298725128,0.27310991287231445,0.2907983958721161,0.3084868788719177,0.32617536187171936,0.343863844871521,0.36155232787132263,0.37924081087112427,0.3969292938709259,0.41461777687072754,0.4323062598705292,0.4499947428703308,0.46768322587013245,0.4853717088699341,0.5030602216720581,0.5207486748695374,0.5384371280670166,0.5561256408691406,0.5738141536712646,0.5915026068687439,0.6091910600662231,0.6268795728683472]},"_wandb":{"runtime":29},"_step":42,"test_loss":9.540839452054795e+06,"gradients/model.lin1.biases":{"bins":[-0.3260645568370819,-0.3169528543949127,-0.30784115195274353,-0.29872944951057434,-0.28961774706840515,-0.28050604462623596,-0.2713943421840668,-0.2622826397418976,-0.2531709671020508,-0.2440592497587204,-0.2349475473165512,-0.22583584487438202,-0.21672415733337402,-0.20761245489120483,-0.19850075244903564,-0.18938905000686646,-0.18027734756469727,-0.17116564512252808,-0.1620539426803589,-0.1529422402381897,-0.1438305377960205,-0.1347188502550125,-0.12560714781284332,-0.11649544537067413,-0.10738374292850494,-0.09827204048633575,-0.08916033804416656,-0.08004864305257797,-0.07093694061040878,-0.061825238168239594,-0.0527135394513607,-0.04360184073448181,-0.034490108489990234,-0.025378407910466194,-0.016266707330942154,-0.007155006751418114,0.0019566938281059265,0.011068394407629967,0.020180094987154007,0.029291795566678047,0.03840349614620209,0.04751519858837128,0.05662689730525017,0.06573859602212906,0.07485029846429825,0.08396200090646744,0.09307369589805603,0.10218539834022522,0.11129710078239441,0.1204088032245636,0.1295205056667328,0.13863220810890198,0.14774391055107117,0.15685559809207916,0.16596730053424835,0.17507900297641754,0.18419070541858673,0.19330240786075592,0.2024141103029251,0.2115258127450943,0.2206375002861023,0.22974920272827148,0.23886090517044067,0.24797260761260986,0.25708431005477905],"_type":"histogram","values":[1,0,0,0,0,0,0,1,0,0,0,0,0,0,0,0,1,0,1,1,0,0,0,1,1,1,0,1,2,0,0,0,2,1,2,80,4,0,0,2,1,1,1,1,2,1,2,0,3,0,1,0,1,1,0,0,1,0,0,1,0,0,0,1]},"epoch":41,"_timestamp":1.752255279369372e+09,"gradients/model.lin5.biases":{"values":[1,0,0,0,0,0,0,0,0,0,0,0,0,10,0,0,0,0,0,0,0,0,0,0,0,0,0,0,0,0,0,0,0,0,0,0,0,0,0,0,0,0,0,0,0,0,0,0,0,0,0,0,0,0,0,0,0,0,0,0,0,0,0,1],"bins":[-3.123048782348633,-2.8839428424835205,-2.644836902618408,-2.405730962753296,-2.1666250228881836,-1.9275189638137817,-1.6884130239486694,-1.4493070840835571,-1.2102011442184448,-0.9710952043533325,-0.7319892644882202,-0.49288326501846313,-0.25377732515335083,-0.014671370387077332,0.22443458437919617,0.46354055404663086,0.7026464939117432,0.9417524337768555,1.1808583736419678,1.41996431350708,1.6590702533721924,1.8981763124465942,2.137282133102417,2.3763880729675293,2.6154942512512207,2.854600191116333,3.0937061309814453,3.3328120708465576,3.57191801071167,3.8110239505767822,4.0501298904418945,4.289235591888428,4.528341770172119,4.7674479484558105,5.006553649902344,5.245659828186035,5.484765529632568,5.72387170791626,5.962977409362793,6.202083587646484,6.441189289093018,6.680295467376709,6.919401168823242,7.158507347106934,7.397613048553467,7.636719226837158,7.875824928283691,8.114931106567383,8.354037284851074,8.593143463134766,8.83224868774414,9.071354866027832,9.310461044311523,9.549567222595215,9.78867244720459,10.027778625488281,10.266884803771973,10.505990982055664,10.745096206665039,10.98420238494873,11.223308563232422,11.462414741516113,11.701519966125488,11.94062614440918,12.179732322692871],"_type":"histogram"},"gradients/model.lin2.biases":{"bins":[-0.21993058919906616,-0.2127363532781601,-0.20554211735725403,-0.19834788143634796,-0.1911536455154419,-0.18395942449569702,-0.17676518857479095,-0.1695709526538849,-0.16237671673297882,-0.15518248081207275,-0.1479882448911667,-0.14079400897026062,-0.13359978795051575,-0.12640555202960968,-0.11921131610870361,-0.11201708018779755,-0.10482284426689148,-0.09762860834598541,-0.09043437242507935,-0.08324014395475388,-0.07604590803384781,-0.06885167211294174,-0.061657439917325974,-0.054463207721710205,-0.04726897180080414,-0.04007473587989807,-0.0328805036842823,-0.025686269626021385,-0.018492035567760468,-0.01129780150949955,-0.004103567451238632,0.0030906666070222855,0.01028488576412201,0.017479119822382927,0.024673353880643845,0.03186758607625961,0.03906182199716568,0.04625605791807175,0.053450290113687515,0.060644522309303284,0.06783875823020935,0.07503299415111542,0.08222723007202148,0.08942145854234695,0.09661569446325302,0.10380993038415909,0.11100415885448456,0.11819839477539062,0.1253926306962967,0.13258686661720276,0.13978110253810883,0.1469753384590149,0.15416955947875977,0.16136379539966583,0.1685580313205719,0.17575226724147797,0.18294650316238403,0.1901407390832901,0.19733497500419617,0.20452921092510223,0.2117234468460083,0.21891766786575317,0.22611190378665924,0.2333061397075653,0.24050037562847137],"_type":"histogram","values":[1,0,0,0,0,0,1,0,0,0,0,0,0,1,2,0,3,1,1,1,2,2,2,2,0,0,4,5,3,2,168,2,3,1,1,5,1,1,2,2,1,1,2,3,0,1,2,1,2,2,1,0,0,1,0,0,2,0,0,0,0,0,1,1]},"gradients/model.lin4.weights":{"values":[1,1,0,0,1,0,0,2,0,5,4,7,5,4,12,20,19,17,26,34,31,37,26,48,51,70,85,94,96,110,138,121,155,12233,180,100,88,81,87,53,52,37,46,33,27,22,20,21,14,14,9,7,10,7,7,4,7,2,2,2,4,1,5,5],"bins":[-3.2291369438171387,-3.132591724395752,-3.0360465049743652,-2.9395012855529785,-2.842956066131592,-2.746411085128784,-2.6498658657073975,-2.5533206462860107,-2.456775426864624,-2.3602302074432373,-2.2636849880218506,-2.167139768600464,-2.0705947875976562,-1.97404944896698,-1.8775043487548828,-1.780959129333496,-1.6844139099121094,-1.5878686904907227,-1.491323471069336,-1.3947783708572388,-1.298233151435852,-1.2016879320144653,-1.1051428318023682,-1.0085976123809814,-0.9120523929595947,-0.815507173538208,-0.7189620137214661,-0.6224168539047241,-0.5258716344833374,-0.42932644486427307,-0.33278125524520874,-0.2362360656261444,-0.13969063758850098,-0.043145447969436646,0.053399741649627686,0.14994493126869202,0.24649012088775635,0.3430353105068207,0.439580500125885,0.536125659942627,0.6326708793640137,0.7292160987854004,0.8257612586021423,0.9223064184188843,1.018851637840271,1.1153968572616577,1.2119419574737549,1.3084871768951416,1.4050323963165283,1.501577615737915,1.5981228351593018,1.694667935371399,1.7912131547927856,1.8877583742141724,1.9843034744262695,2.0808486938476562,2.177393913269043,2.2739391326904297,2.3704843521118164,2.467029571533203,2.56357479095459,2.6601197719573975,2.756664991378784,2.853210210800171,2.9497554302215576],"_type":"histogram"}}