{"gradients/model.lin4.biases":{"values":[1,0,0,0,2,0,0,0,0,0,0,0,0,1,0,0,0,0,0,0,0,0,0,0,0,1,0,1,0,1,1,0,1,0,0,97,3,0,0,2,0,2,2,0,0,0,1,0,0,1,0,0,0,0,0,0,0,0,0,0,0,1,0,2],"bins":[-15.257308006286621,-14.82458209991455,-14.391857147216797,-13.959131240844727,-13.526405334472656,-13.093680381774902,-12.660954475402832,-12.228229522705078,-11.795503616333008,-11.362777709960938,-10.930052757263184,-10.497326850891113,-10.06460189819336,-9.631875991821289,-9.199150085449219,-8.766425132751465,-8.333699226379395,-7.900973796844482,-7.46824836730957,-7.0355224609375,-6.602797031402588,-6.170071601867676,-5.7373456954956055,-5.304620265960693,-4.871894836425781,-4.439169406890869,-4.006443977355957,-3.5737180709838867,-3.1409926414489746,-2.7082672119140625,-2.2755415439605713,-1.8428159952163696,-1.4100894927978516,-0.9773639440536499,-0.5446383953094482,-0.11191284656524658,0.3208127021789551,0.7535382509231567,1.1862637996673584,1.61898934841156,2.0517148971557617,2.484440326690674,2.917165994644165,3.3498916625976562,3.7826170921325684,4.2153425216674805,4.648068428039551,5.080793857574463,5.513519287109375,5.946244716644287,6.378970146179199,6.8116960525512695,7.244421482086182,7.677146911621094,8.109872817993164,8.542597770690918,8.975323677062988,9.408049583435059,9.840774536132812,10.273500442504883,10.706226348876953,11.138951301574707,11.571677207946777,12.004402160644531,12.437128067016602],"_type":"histogram"},"test_rmse":0.008101050738476855,"_timestamp":1.7524297899462843e+09,"gradients/model.lin5.weights":{"values":[1,2,0,0,1,2,1,2,0,0,1,1,3,0,0,0,1,1,2,0,2,2,3,0,1,2,3,1,0,0,0,1,0,1,2,1,2,1,1,0,2,1,0,1,1,0,0,0,0,0,0,0,0,0,0,0,0,0,0,0,2,0,0,432],"bins":[-24.236902236938477,-23.858200073242188,-23.47949981689453,-23.100797653198242,-22.722095489501953,-22.343393325805664,-21.964693069458008,-21.58599090576172,-21.20728874206543,-20.828588485717773,-20.449886322021484,-20.071184158325195,-19.69248390197754,-19.31378173828125,-18.93507957458496,-18.556377410888672,-18.177677154541016,-17.798974990844727,-17.420272827148438,-17.04157257080078,-16.662870407104492,-16.284168243408203,-15.90546703338623,-15.526765823364258,-15.148063659667969,-14.769362449645996,-14.390660285949707,-14.011959075927734,-13.633257865905762,-13.254555702209473,-12.8758544921875,-12.497152328491211,-12.118451118469238,-11.739749908447266,-11.361047744750977,-10.982346534729004,-10.603644371032715,-10.224943161010742,-9.84624195098877,-9.46753978729248,-9.088838577270508,-8.710136413574219,-8.331435203552246,-7.952733516693115,-7.574031829833984,-7.1953301429748535,-6.816628932952881,-6.43792724609375,-6.059225559234619,-5.680523872375488,-5.301822185516357,-4.923120975494385,-4.544419288635254,-4.165717601776123,-3.787015914916992,-3.4083144664764404,-3.0296127796173096,-2.6509110927581787,-2.272209644317627,-1.893507957458496,-1.5148063898086548,-1.1361048221588135,-0.7574031949043274,-0.3787015974521637,0],"_type":"histogram"},"gradients/model.lin5.biases":{"values":[1,0,0,0,0,0,1,0,0,0,0,0,0,0,0,0,0,0,0,0,0,0,0,0,0,0,0,0,0,0,0,0,0,0,0,0,0,0,0,0,0,0,0,0,0,0,0,0,0,0,0,0,0,0,0,0,0,0,0,0,0,0,0,10],"bins":[-63.90585708618164,-62.90732955932617,-61.90879821777344,-60.91027069091797,-59.911739349365234,-58.913211822509766,-57.9146842956543,-56.91615295410156,-55.917625427246094,-54.91909408569336,-53.92056655883789,-52.92203903198242,-51.92350769042969,-50.92498016357422,-49.92645263671875,-48.927921295166016,-47.92939376831055,-46.93086242675781,-45.932334899902344,-44.933807373046875,-43.93527603149414,-42.93674850463867,-41.93821716308594,-40.93968963623047,-39.941162109375,-38.942630767822266,-37.9441032409668,-36.94557189941406,-35.947044372558594,-34.948516845703125,-33.94998550415039,-32.95145797729492,-31.95292854309082,-30.95439910888672,-29.955869674682617,-28.95734214782715,-27.958812713623047,-26.960283279418945,-25.961753845214844,-24.963226318359375,-23.964696884155273,-22.966167449951172,-21.96763801574707,-20.96910858154297,-19.9705810546875,-18.9720516204834,-17.973522186279297,-16.974992752075195,-15.97646427154541,-14.977934837341309,-13.979406356811523,-12.980876922607422,-11.982348442077637,-10.983819007873535,-9.98529052734375,-8.986761093139648,-7.988232135772705,-6.989703178405762,-5.991174221038818,-4.992645263671875,-3.9941160678863525,-2.995587110519409,-1.9970580339431763,-0.9985290169715881,0],"_type":"histogram"},"epoch":499,"gradients/model.lin3.biases":{"_type":"histogram","values":[1,0,0,0,0,1,2,0,0,0,0,1,0,1,3,0,0,0,0,0,1,0,1,3,2,1,2,0,2,298,2,1,2,0,0,3,3,2,5,2,3,6,1,2,0,1,0,0,3,0,0,0,0,0,1,0,1,0,0,1,0,1,0,1],"bins":[-2.057323932647705,-1.987991213798523,-1.9186584949493408,-1.8493257761001587,-1.7799930572509766,-1.710660457611084,-1.6413277387619019,-1.5719950199127197,-1.5026623010635376,-1.4333295822143555,-1.3639968633651733,-1.2946641445159912,-1.2253315448760986,-1.1559988260269165,-1.0866661071777344,-1.0173333883285522,-0.9480006694793701,-0.878667950630188,-0.8093352317810059,-0.7400025725364685,-0.6706698536872864,-0.6013371348381042,-0.5320044755935669,-0.46267175674438477,-0.39333903789520264,-0.3240063190460205,-0.25467362999916077,-0.18534092605113983,-0.1160082221031189,-0.04667551815509796,0.022657185792922974,0.09198988974094391,0.16132259368896484,0.23065529763698578,0.2999880015850067,0.36932069063186646,0.4386534094810486,0.5079861283302307,0.5773187875747681,0.6466515064239502,0.7159842252731323,0.7853169441223145,0.8546496629714966,0.9239823222160339,0.9933150410652161,1.0626477003097534,1.1319804191589355,1.2013131380081177,1.2706458568572998,1.339978575706482,1.409311294555664,1.4786440134048462,1.5479767322540283,1.617309331893921,1.686642050743103,1.7559747695922852,1.8253074884414673,1.8946402072906494,1.9639729261398315,2.0333056449890137,2.1026382446289062,2.171971082687378,2.2413036823272705,2.310636520385742,2.3799691200256348]},"gradients/model.lin1.weights":{"_type":"histogram","values":[1,0,0,0,0,0,0,0,0,0,0,0,0,0,0,1,1,0,0,0,0,0,1,0,0,1,2,2,2,2,5,0,2,2,12,25,30,450,22,13,6,7,1,2,1,3,0,1,1,0,1,0,0,1,0,1,0,0,0,0,0,0,0,1],"bins":[-5.101716041564941,-4.964210510253906,-4.826704978942871,-4.689199447631836,-4.551693916320801,-4.414188385009766,-4.2766828536987305,-4.139177322387695,-4.00167179107666,-3.864166498184204,-3.726660966873169,-3.589155435562134,-3.4516501426696777,-3.3141446113586426,-3.1766390800476074,-3.0391335487365723,-2.901628017425537,-2.764122486114502,-2.626616954803467,-2.4891114234924316,-2.3516058921813965,-2.2141005992889404,-2.0765950679779053,-1.9390895366668701,-1.801584005355835,-1.6640784740447998,-1.5265729427337646,-1.389067530632019,-1.2515619993209839,-1.1140564680099487,-0.9765509963035583,-0.839045524597168,-0.7015395164489746,-0.5640339851379395,-0.4265285134315491,-0.2890230119228363,-0.15151751041412354,-0.014012008905410767,0.123493492603302,0.26099899411201477,0.39850449562072754,0.5360100269317627,0.6735154986381531,0.8110209703445435,0.9485265016555786,1.0860320329666138,1.2235374450683594,1.3610429763793945,1.4985485076904297,1.6360540390014648,1.7735595703125,1.9110649824142456,2.0485706329345703,2.1860759258270264,2.3235814571380615,2.4610869884490967,2.598592519760132,2.736098051071167,2.873603582382202,3.0111091136932373,3.1486144065856934,3.2861199378967285,3.4236254692077637,3.561131000518799,3.698636531829834]},"_step":499,"_wandb":{"runtime":313},"train_loss":-15.271137438322368,"_runtime":313,"gradients/model.lin4.weights":{"_type":"histogram","values":[1,0,0,0,3,0,0,0,3,0,0,3,3,2,3,8,3,2,3,4,4,9,6,9,7,13,16,15,19,21,26,29,49,71,143,13399,153,101,64,45,28,24,20,16,16,7,7,6,6,3,3,3,7,5,3,1,0,2,1,1,1,1,0,2],"bins":[-5.038506984710693,-4.895776748657227,-4.75304651260376,-4.610316276550293,-4.467586517333984,-4.324856281280518,-4.182126045227051,-4.039395809173584,-3.896665573120117,-3.7539355754852295,-3.6112053394317627,-3.468475103378296,-3.325745105743408,-3.1830148696899414,-3.0402846336364746,-2.897554636001587,-2.75482439994812,-2.6120941638946533,-2.4693641662597656,-2.326633930206299,-2.183903694152832,-2.0411736965179443,-1.8984434604644775,-1.7557132244110107,-1.6129831075668335,-1.4702529907226562,-1.3275227546691895,-1.1847926378250122,-1.042062520980835,-0.8993322849273682,-0.7566021680831909,-0.6138719916343689,-0.4711418151855469,-0.32841163873672485,-0.18568149209022522,-0.04295133054256439,0.09977883100509644,0.24250899255275726,0.3852391541004181,0.5279693007469177,0.6706994771957397,0.8134296536445618,0.9561598300933838,1.098889946937561,1.2416200637817383,1.384350299835205,1.5270804166793823,1.6698106527328491,1.8125407695770264,1.9552708864212036,2.098001003265381,2.2407312393188477,2.3834614753723145,2.526191473007202,2.668921709060669,2.8116519451141357,2.9543819427490234,3.0971121788024902,3.239842414855957,3.382572650909424,3.5253026485443115,3.6680328845977783,3.810763120651245,3.953493118286133,4.0962233543396]},"test_loss":52.27043758026541,"gradients/model.lin1.biases":{"bins":[-1.7478185892105103,-1.6977603435516357,-1.6477020978927612,-1.5976438522338867,-1.5475856065750122,-1.4975273609161377,-1.4474689960479736,-1.3974107503890991,-1.3473525047302246,-1.29729425907135,-1.2472360134124756,-1.197177767753601,-1.1471195220947266,-1.097061276435852,-1.0470030307769775,-0.9969447255134583,-0.9468864798545837,-0.8968282341957092,-0.8467699885368347,-0.7967116832733154,-0.7466534376144409,-0.6965951919555664,-0.6465369462966919,-0.5964787006378174,-0.5464204549789429,-0.49636217951774597,-0.4463039040565491,-0.39624565839767456,-0.34618741273880005,-0.29612913727760315,-0.24607089161872864,-0.19601263105869293,-0.14595437049865723,-0.09589610993862152,-0.04583785682916641,0.004220400005578995,0.0542786568403244,0.10433691740036011,0.15439516305923462,0.20445342361927032,0.25451168417930603,0.30456992983818054,0.35462820529937744,0.40468645095825195,0.45474469661712646,0.504802942276001,0.5548612475395203,0.6049194931983948,0.6549777388572693,0.7050359845161438,0.7550942301750183,0.8051525354385376,0.8552107810974121,0.9052690267562866,0.9553272724151611,1.0053855180740356,1.0554437637329102,1.1055020093917847,1.1555602550506592,1.2056186199188232,1.2556768655776978,1.3057351112365723,1.3557933568954468,1.4058516025543213,1.4559098482131958],"_type":"histogram","values":[1,0,0,0,0,0,0,0,0,0,1,0,0,0,0,0,0,0,0,0,0,0,0,0,0,0,1,2,2,2,3,2,0,0,85,1,1,8,1,2,1,0,1,1,1,0,0,1,1,0,0,1,0,0,0,0,0,0,0,0,0,0,0,1]},"gradients/model.lin3.weights":{"bins":[-0.8635052442550659,-0.834221601486206,-0.8049379587173462,-0.7756543159484863,-0.7463706731796265,-0.7170870304107666,-0.6878033876419067,-0.6585197448730469,-0.629236102104187,-0.5999525189399719,-0.5706688761711121,-0.5413852334022522,-0.5121015906333923,-0.48281794786453247,-0.4535343050956726,-0.42425066232681274,-0.3949670195579529,-0.365683376789093,-0.33639973402023315,-0.3071160912513733,-0.2778324484825134,-0.24854882061481476,-0.2192651927471161,-0.18998154997825623,-0.16069790720939636,-0.1314142644405365,-0.10213062912225723,-0.07284699380397797,-0.0435633510351181,-0.014279711991548538,0.015003927052021027,0.04428756609559059,0.07357120513916016,0.10285484790802002,0.13213849067687988,0.16142211854457855,0.19070576131343842,0.21998940408229828,0.24927303194999695,0.2785566747188568,0.3078403174877167,0.33712396025657654,0.3664076030254364,0.39569124579429626,0.42497485876083374,0.4542585015296936,0.48354214429855347,0.5128257870674133,0.5421094298362732,0.5713930726051331,0.6006767153739929,0.6299603581428528,0.6592440009117126,0.6885276436805725,0.7178112864494324,0.7470949292182922,0.7763785123825073,0.8056621551513672,0.834945797920227,0.8642294406890869,0.8935130834579468,0.9227967262268066,0.9520803689956665,0.9813640117645264,1.0106476545333862],"_type":"histogram","values":[1,0,1,0,0,1,2,2,1,5,0,0,1,7,7,4,3,2,9,10,16,20,12,35,34,58,76,218,714,26322,408,200,160,107,69,64,49,36,39,24,12,17,6,6,6,7,3,4,4,2,1,1,4,0,2,1,0,0,1,1,1,1,1,2]},"gradients/model.lin2.weights":{"_type":"histogram","values":[2,1,0,0,0,2,0,1,1,0,1,1,0,4,2,0,4,5,6,6,7,10,21,27,39,60,90,149,201,8265,178,77,56,57,45,35,24,34,29,14,30,24,9,9,10,10,7,6,5,6,5,3,6,1,5,2,2,4,1,0,0,0,0,1],"bins":[-1.7647004127502441,-1.70579993724823,-1.6468994617462158,-1.5879989862442017,-1.5290985107421875,-1.4701980352401733,-1.4112974405288696,-1.3523969650268555,-1.2934964895248413,-1.2345960140228271,-1.175695538520813,-1.1167950630187988,-1.0578945875167847,-0.9989941120147705,-0.9400935769081116,-0.8811931014060974,-0.8222926259040833,-0.7633921504020691,-0.7044916749000549,-0.645591139793396,-0.5866906642913818,-0.5277901887893677,-0.4688897132873535,-0.40998920798301697,-0.3510887324810028,-0.29218825697898865,-0.2332877516746521,-0.17438727617263794,-0.11548678576946259,-0.05658629909157753,0.0023141875863075256,0.06121467426419258,0.12011516094207764,0.179015651345253,0.23791614174842834,0.2968166172504425,0.35571712255477905,0.4146175980567932,0.4735180735588074,0.5324185490608215,0.5913190841674805,0.6502195596694946,0.7091200351715088,0.768020510673523,0.8269209861755371,0.8858214616775513,0.9447219967842102,1.0036224126815796,1.0625228881835938,1.1214234828948975,1.1803239583969116,1.2392244338989258,1.29812490940094,1.357025384902954,1.4159258604049683,1.4748263359069824,1.5337268114089966,1.5926272869110107,1.651527762413025,1.7104283571243286,1.7693288326263428,1.828229308128357,1.887129783630371,1.9460302591323853,2.0049307346343994]},"gradients/model.lin2.biases":{"values":[1,0,0,0,0,0,0,0,0,0,1,0,0,0,0,2,0,0,0,1,0,2,1,2,0,3,0,3,3,2,2,184,1,3,1,2,0,0,0,2,0,3,1,0,1,0,2,0,1,1,6,1,0,1,0,0,1,1,0,3,1,0,0,1],"bins":[-1.598405122756958,-1.5480965375900269,-1.4977878332138062,-1.447479248046875,-1.3971705436706543,-1.3468619585037231,-1.2965532541275024,-1.2462446689605713,-1.1959359645843506,-1.1456273794174194,-1.0953186750411987,-1.0450100898742676,-0.9947014451026917,-0.9443928003311157,-0.8940841555595398,-0.8437755107879639,-0.7934668660163879,-0.743158221244812,-0.6928495764732361,-0.6425409317016602,-0.5922322869300842,-0.5419236421585083,-0.49161502718925476,-0.44130638241767883,-0.3909977376461029,-0.340689092874527,-0.29038044810295105,-0.24007181823253632,-0.1897631734609604,-0.13945452868938446,-0.08914589136838913,-0.0388372503221035,0.011471390724182129,0.06178003177046776,0.11208867281675339,0.16239731013774872,0.21270595490932465,0.2630145847797394,0.3133232295513153,0.36363187432289124,0.41394051909446716,0.4642491638660431,0.5145577788352966,0.5648664236068726,0.6151750683784485,0.6654837131500244,0.7157923579216003,0.7661010026931763,0.8164096474647522,0.8667182922363281,0.917026937007904,0.96733558177948,1.0176441669464111,1.0679528713226318,1.118261456489563,1.1685701608657837,1.2188787460327148,1.2691874504089355,1.3194960355758667,1.3698047399520874,1.4201133251190186,1.4704220294952393,1.5207306146621704,1.5710393190383911,1.6213479042053223],"_type":"histogram"}}