{"gradients/model.lin5.biases":{"_type":"histogram","values":[1,0,0,0,0,0,0,0,0,0,0,0,0,0,0,0,0,0,0,0,0,0,0,0,0,0,0,0,0,0,0,0,0,0,0,0,0,0,0,0,0,0,0,0,0,0,0,0,0,0,0,0,0,0,0,0,0,6,0,0,0,0,0,1],"bins":[-0.04239870235323906,-0.04166628047823906,-0.04093385860323906,-0.04020143672823906,-0.03946901485323906,-0.03873659297823906,-0.03800417110323906,-0.03727174922823906,-0.03653932735323906,-0.03580690547823906,-0.03507448360323906,-0.03434206172823906,-0.03360963985323906,-0.03287721797823906,-0.03214479610323906,-0.03141237422823906,-0.03067995421588421,-0.02994753234088421,-0.02921511046588421,-0.02848268859088421,-0.02775026671588421,-0.02701784484088421,-0.02628542296588421,-0.02555300109088421,-0.024820581078529358,-0.024088159203529358,-0.023355737328529358,-0.022623315453529358,-0.021890893578529358,-0.021158471703529358,-0.020426049828529358,-0.019693627953529358,-0.01896120421588421,-0.01822878234088421,-0.01749636046588421,-0.01676393859088421,-0.01603151671588421,-0.015299095772206783,-0.014566673897206783,-0.013834252022206783,-0.013101830147206783,-0.012369408272206783,-0.011636986397206783,-0.010904564522206783,-0.010172143578529358,-0.009439721703529358,-0.008707299828529358,-0.007974877953529358,-0.007242456078529358,-0.006510034203529358,-0.005777612328529358,-0.005045190919190645,-0.004312769044190645,-0.0035803471691906452,-0.002847925527021289,-0.0021155038848519325,-0.0013830820098519325,-0.0006506602512672544,8.176150731742382e-05,0.000814183265902102,0.0015466050244867802,0.00227902689948678,0.0030114485416561365,0.003743870183825493,0.004476292058825493]},"gradients/model.lin4.weights":{"_type":"histogram","values":[4,3,2,3,2,5,6,5,7,14,9,4,11,17,21,14,25,21,24,25,42,46,32,25,54,59,51,54,55,66,61,49,52,59,53,46,48,45,49,36,45,44,54,37,35,41,30,33,36,43,38,40,38,28,36,34,21,16,9,8,19,62,23,96330],"bins":[-0.0033287820406258106,-0.003276769770309329,-0.0032247574999928474,-0.003172745229676366,-0.0031207327265292406,-0.003068720456212759,-0.0030167081858962774,-0.002964695915579796,-0.0029126836452633142,-0.0028606713749468327,-0.002808659104630351,-0.002756646601483226,-0.0027046343311667442,-0.0026526220608502626,-0.002600609790533781,-0.0025485975202172995,-0.002496585249900818,-0.0024445729795843363,-0.002392560476437211,-0.0023405482061207294,-0.002288535935804248,-0.0022365236654877663,-0.0021845113951712847,-0.002132499124854803,-0.0020804868545383215,-0.0020284743513911963,-0.0019764620810747147,-0.001924449810758233,-0.0018724375404417515,-0.0018204252701252699,-0.0017684129998087883,-0.0017164006130769849,-0.0016643882263451815,-0.0016123759560286999,-0.0015603636857122183,-0.0015083514153957367,-0.0014563390286639333,-0.0014043267583474517,-0.00135231448803097,-0.0013003021012991667,-0.001248289830982685,-0.0011962775606662035,-0.001144265290349722,-0.0010922529036179185,-0.001040240633301437,-0.0009882283629849553,-0.0009362160344608128,-0.0008842037059366703,-0.0008321914356201887,-0.0007801791070960462,-0.0007281668367795646,-0.0006761545082554221,-0.0006241422379389405,-0.000572129909414798,-0.0005201175808906555,-0.00046810531057417393,-0.0004160930111538619,-0.00036408071173354983,-0.00031206838320940733,-0.0002600560837890953,-0.00020804378436878324,-0.0001560314849484712,-0.00010401918552815914,-5.200688246986829e-05,5.42195799368983e-09]},"test_rmse":0.8816530966364127,"epoch":50,"gradients/model.lin5.weights":{"values":[3,2,0,0,1,0,2,0,1,2,1,0,1,1,0,2,1,1,0,1,0,0,0,0,0,1,3,1,0,0,0,0,0,0,0,0,1,0,0,0,0,1,0,0,0,0,0,0,0,0,0,0,0,0,0,0,0,972,0,1,1,6,7,11],"bins":[-0.04424743354320526,-0.04348336160182953,-0.042719293385744095,-0.04195522144436836,-0.04119115322828293,-0.040427081286907196,-0.039663009345531464,-0.03889894112944603,-0.0381348691880703,-0.03737080097198486,-0.03660672903060913,-0.0358426570892334,-0.035078588873147964,-0.03431451693177223,-0.0335504449903965,-0.032786376774311066,-0.03202230483293533,-0.0312582366168499,-0.030494164675474167,-0.029730094596743584,-0.028966024518013,-0.028201952576637268,-0.027437882497906685,-0.0266738124191761,-0.02590974234044552,-0.025145672261714935,-0.024381600320339203,-0.02361753024160862,-0.022853460162878036,-0.022089390084147453,-0.02132531814277172,-0.020561248064041138,-0.019797179847955704,-0.01903310976922512,-0.018269037827849388,-0.017504967749118805,-0.016740897670388222,-0.01597682759165764,-0.01521275658160448,-0.014448685571551323,-0.01368461549282074,-0.012920545414090157,-0.012156474404036999,-0.011392404325306416,-0.010628333315253258,-0.009864263236522675,-0.009100192226469517,-0.008336122147738934,-0.007572051603347063,-0.0068079810589551926,-0.006043910514563322,-0.005279839970171452,-0.004515769891440868,-0.0037516991142183542,-0.0029876288026571274,-0.002223558258265257,-0.0014594877138733864,-0.0006954172276891768,6.865325849503279e-05,0.0008327237446792424,0.001596794230863452,0.0023608647752553225,0.0031249350868165493,0.00388900563120842,0.00465307617560029],"_type":"histogram"},"gradients/model.lin4.biases":{"_type":"histogram","values":[3,1,1,0,0,2,2,1,0,2,0,1,1,1,1,1,0,0,1,1,0,0,0,0,1,2,1,1,0,0,0,0,0,0,0,0,1,0,0,0,0,0,1,0,0,0,0,0,0,0,0,0,0,0,0,0,0,0,0,0,0,0,0,230],"bins":[-0.008097500540316105,-0.007970976643264294,-0.007844453677535057,-0.007717929780483246,-0.007591405883431435,-0.007464882452040911,-0.0073383585549890995,-0.007211835123598576,-0.007085311226546764,-0.0069587877951562405,-0.006832263898104429,-0.006705740466713905,-0.006579216569662094,-0.00645269313827157,-0.006326169241219759,-0.006199645809829235,-0.006073121912777424,-0.0059465984813869,-0.005820075049996376,-0.005693551152944565,-0.005567027721554041,-0.00544050382450223,-0.005313980393111706,-0.0051874564960598946,-0.005060933064669371,-0.004934409167617559,-0.0048078857362270355,-0.004681361839175224,-0.0045548384077847,-0.004428314510732889,-0.004301791079342365,-0.004175267182290554,-0.00404874375090003,-0.003922219853848219,-0.0037956961896270514,-0.0036691727582365274,-0.00354264909401536,-0.0034161254297941923,-0.0032896017655730247,-0.003163078101351857,-0.0030365544371306896,-0.002910030772909522,-0.0027835071086883545,-0.002656983444467187,-0.0025304597802460194,-0.002403936116024852,-0.0022774124518036842,-0.0021508887875825167,-0.002024365123361349,-0.0018978415755555034,-0.0017713179113343358,-0.0016447942471131682,-0.0015182705828920007,-0.0013917469186708331,-0.0012652232544496655,-0.0011386997066438198,-0.0010121760424226522,-0.0008856523782014847,-0.0007591287139803171,-0.0006326050497591496,-0.000506081385537982,-0.0003795577504206449,-0.00025303411530330777,-0.00012651046563405544,1.318906406311271e-08]},"test_loss":0.0005342793644546237,"gradients/model.lin2.biases":{"values":[1,0,0,0,0,0,0,0,0,0,0,0,0,0,0,0,0,0,0,0,0,0,0,1,1,0,1,0,1,1,0,1,0,0,1,0,0,0,1,0,0,1,0,0,0,1,0,1,1,0,0,1,0,0,1,0,0,0,1,495,0,0,0,1],"bins":[-0.03169252350926399,-0.03115958906710148,-0.030626652762293816,-0.030093718320131302,-0.029560783877968788,-0.029027847573161125,-0.02849491313099861,-0.027961978688836098,-0.027429044246673584,-0.02689610794186592,-0.026363173499703407,-0.025830239057540894,-0.02529730275273323,-0.024764368310570717,-0.024231433868408203,-0.02369849756360054,-0.023165563121438026,-0.022632628679275513,-0.02209969237446785,-0.021566757932305336,-0.021033823490142822,-0.02050088718533516,-0.019967952743172646,-0.019435018301010132,-0.01890208199620247,-0.018369147554039955,-0.01783621311187744,-0.017303278669714928,-0.016770342364907265,-0.01623740792274475,-0.015704473480582237,-0.015171538107097149,-0.014638603664934635,-0.014105669222772121,-0.013572733849287033,-0.013039798475801945,-0.012506864033639431,-0.011973928660154343,-0.011440994217991829,-0.01090805884450674,-0.010375123471021652,-0.009842189028859138,-0.00930925365537405,-0.008776318281888962,-0.008243383839726448,-0.00771044846624136,-0.007177513558417559,-0.006644578650593758,-0.006111643277108669,-0.005578708369284868,-0.005045773461461067,-0.004512838553637266,-0.003979903645813465,-0.0034469682723283768,-0.0029140333645045757,-0.0023810984566807747,-0.00184816331602633,-0.0013152282917872071,-0.0007822932675480843,-0.0002493582433089614,0.0002835767809301615,0.0008165118051692843,0.0013494468294084072,0.00188238185364753,0.002415316877886653],"_type":"histogram"},"_runtime":28,"_timestamp":1.7525929476348295e+09,"gradients/model.lin2.weights":{"_type":"histogram","values":[1,0,0,0,0,0,0,0,2,0,0,0,0,0,0,0,0,0,1,0,1,0,0,1,1,0,2,0,3,3,1,4,2,3,3,5,1,2,5,4,4,7,10,9,6,11,7,12,13,19,18,18,18,22,18,24,22,29,90,65114,8,7,2,3],"bins":[-0.028776660561561584,-0.028292758390307426,-0.02780885621905327,-0.02732495218515396,-0.026841050013899803,-0.026357147842645645,-0.025873245671391487,-0.02538934350013733,-0.02490544132888317,-0.024421537294983864,-0.023937635123729706,-0.023453732952475548,-0.02296983078122139,-0.022485928609967232,-0.022002026438713074,-0.021518122404813766,-0.02103422023355961,-0.02055031806230545,-0.020066415891051292,-0.019582513719797134,-0.019098611548542976,-0.01861470751464367,-0.01813080534338951,-0.017646903172135353,-0.017163001000881195,-0.016679098829627037,-0.01619519665837288,-0.015711292624473572,-0.015227390453219414,-0.014743488281965256,-0.014259586110711098,-0.013775683008134365,-0.013291780836880207,-0.012807878665626049,-0.012323975563049316,-0.011840073391795158,-0.011356171220541,-0.010872268117964268,-0.01038836594671011,-0.009904463775455952,-0.009420560672879219,-0.008936658501625061,-0.008452756330370903,-0.00796885322779417,-0.007484951056540012,-0.007001048419624567,-0.006517145782709122,-0.006033243611454964,-0.005549340974539518,-0.005065438337624073,-0.004581536166369915,-0.00409763352945447,-0.0036137308925390244,-0.0031298284884542227,-0.002645926084369421,-0.0021620234474539757,-0.001678121043369174,-0.0011942185228690505,-0.0007103160605765879,-0.00022641356918029487,0.00025748892221599817,0.0007413914427161217,0.0012252938468009233,0.0017091963673010468,0.0021930988878011703]},"_step":50,"gradients/model.lin3.biases":{"bins":[-0.010571002960205078,-0.010405031964182854,-0.01023906096816063,-0.010073089972138405,-0.00990711897611618,-0.00974114891141653,-0.009575177915394306,-0.009409206919372082,-0.009243235923349857,-0.009077264927327633,-0.008911293931305408,-0.008745322935283184,-0.00857935193926096,-0.008413380943238735,-0.008247410878539085,-0.008081439882516861,-0.007915468886494637,-0.007749497890472412,-0.007583526894450188,-0.007417555898427963,-0.007251584902405739,-0.007085614372044802,-0.006919643376022577,-0.006753672380000353,-0.006587701383978128,-0.006421730387955904,-0.006255759857594967,-0.0060897888615727425,-0.005923817865550518,-0.005757846869528294,-0.0055918763391673565,-0.005425905343145132,-0.005259934347122908,-0.005093963351100683,-0.004927992820739746,-0.004762021824717522,-0.004596050828695297,-0.004430079832673073,-0.004264108836650848,-0.004098138306289911,-0.003932167310267687,-0.0037661963142454624,-0.0036002255510538816,-0.0034342545550316572,-0.003268283559009433,-0.003102312795817852,-0.0029363417997956276,-0.002770371036604047,-0.0026044000405818224,-0.0024384292773902416,-0.002272458281368017,-0.0021064872853457928,-0.001940516522154212,-0.0017745456425473094,-0.0016085747629404068,-0.0014426037669181824,-0.0012766328873112798,-0.0011106620077043772,-0.0009446911280974746,-0.000778720248490572,-0.0006127493688836694,-0.0004467784601729363,-0.00028080755146220326,-0.00011483666457934305,5.113422957947478e-05],"_type":"histogram","values":[1,1,0,1,0,1,0,1,2,1,0,0,2,1,2,3,2,2,1,0,5,4,2,0,3,2,7,2,1,4,0,0,1,2,0,0,1,0,1,0,3,0,2,0,1,1,1,0,1,0,3,1,0,1,2,0,0,0,0,0,1,3,0,692]},"gradients/model.lin3.weights":{"values":[1,1,0,1,0,1,0,1,2,1,0,0,2,1,2,3,2,2,1,0,5,4,2,0,3,2,9,2,2,7,3,5,4,10,10,8,16,15,22,20,34,30,36,37,33,41,39,31,27,30,25,32,41,46,46,56,56,57,63,77,77,48,109,195367],"bins":[-0.008440017700195312,-0.00830750446766615,-0.008174991235136986,-0.008042478002607822,-0.007909964770078659,-0.007777451537549496,-0.007644938305020332,-0.007512425072491169,-0.007379911839962006,-0.0072473990730941296,-0.007114885840564966,-0.006982372608035803,-0.0068498593755066395,-0.006717346142977476,-0.006584832910448313,-0.006452319677919149,-0.006319806445389986,-0.006187293212860823,-0.006054779980331659,-0.005922266747802496,-0.005789753515273333,-0.005657240282744169,-0.005524727050215006,-0.0053922138176858425,-0.0052597010508179665,-0.005127187818288803,-0.00499467458575964,-0.004862161353230476,-0.004729648120701313,-0.00459713488817215,-0.004464621655642986,-0.004332108423113823,-0.00419959519058466,-0.004067081958055496,-0.00393456919118762,-0.003802055725827813,-0.00366954249329865,-0.0035370292607694864,-0.0034045162610709667,-0.0032720030285418034,-0.00313948979601264,-0.0030069765634834766,-0.0028744633309543133,-0.00274195009842515,-0.0026094368658959866,-0.002476923633366823,-0.0023444106336683035,-0.00221189740113914,-0.0020793841686099768,-0.0019468709360808134,-0.00181435770355165,-0.0016818444710224867,-0.0015493313549086452,-0.0014168181223794818,-0.0012843048898503184,-0.001151791657321155,-0.0010192785412073135,-0.0008867653086781502,-0.0007542520761489868,-0.0006217389018274844,-0.000489225669298321,-0.00035671249497681856,-0.00022419929155148566,-9.168608812615275e-05,4.082711893715896e-05],"_type":"histogram"},"train_loss":0.00019653359351799502,"_wandb":{"runtime":28},"gradients/model.lin1.weights":{"bins":[-0.01821100525557995,-0.017707031220197678,-0.017203055322170258,-0.016699081286787987,-0.016195107251405716,-0.015691131353378296,-0.015187157317996025,-0.014683183282613754,-0.014179208315908909,-0.013675233349204063,-0.013171259313821793,-0.012667284347116947,-0.012163309380412102,-0.011659335345029831,-0.011155360378324986,-0.010651386342942715,-0.01014741137623787,-0.009643436409533024,-0.009139462374150753,-0.008635487407445908,-0.008131513372063637,-0.007627538405358791,-0.007123563438653946,-0.006619588937610388,-0.00611561443656683,-0.0056116399355232716,-0.0051076654344797134,-0.004603690467774868,-0.00409971596673131,-0.0035957414656877518,-0.00309176673181355,-0.0025877919979393482,-0.002083815634250641,-0.001579841016791761,-0.001075866399332881,-0.000571891781874001,-6.791716441512108e-05,0.00043605745304375887,0.0009400320705026388,0.0014440066879615188,0.0019479813054203987,0.002451955806463957,0.0029559305403381586,0.0034599052742123604,0.0039638797752559185,0.004467854276299477,0.004971829243004322,0.00547580374404788,0.005979778245091438,0.006483752746134996,0.0069877272471785545,0.0074917022138834,0.00799567624926567,0.008499651215970516,0.009003626182675362,0.009507600218057632,0.010011575184762478,0.010515550151467323,0.011019524186849594,0.01152349915355444,0.012027474120259285,0.012531448155641556,0.013035423122346401,0.013539397157728672,0.014043372124433517],"_type":"histogram","values":[1,0,1,0,0,1,0,1,1,3,3,0,1,1,0,1,3,1,2,2,7,9,7,2,5,3,3,7,5,5,5,0,3,2,6,8,1340,8,1,2,2,6,5,4,12,3,4,7,1,4,6,6,6,3,2,3,4,1,2,1,0,0,2,2]},"gradients/model.lin1.biases":{"bins":[-0.012048132717609406,-0.011717915534973145,-0.011387698352336884,-0.011057481169700623,-0.010727263987064362,-0.0103970468044281,-0.01006682962179184,-0.009736612439155579,-0.009406395256519318,-0.009076179005205631,-0.00874596182256937,-0.00841574463993311,-0.008085527457296848,-0.007755310274660587,-0.007425093092024326,-0.007094875909388065,-0.006764658726751804,-0.006434441544115543,-0.006104224361479282,-0.005774007178843021,-0.00544378999620676,-0.005113573279231787,-0.004783356096595526,-0.004453138913959265,-0.004122921731323004,-0.0037927045486867428,-0.003462487366050482,-0.0031322704162448645,-0.0028020532336086035,-0.0024718360509723425,-0.002141619101166725,-0.0018114019185304642,-0.0014811838045716286,-0.0011509666219353676,-0.0008207495557144284,-0.0004905324312858284,-0.00016031530685722828,0.0001699018175713718,0.0005001189419999719,0.0008303360664285719,0.001160553190857172,0.001490770373493433,0.0018209874397143722,0.0021512045059353113,0.0024814216885715723,0.0028116388712078333,0.0031418558210134506,0.0034720730036497116,0.0038022901862859726,0.004132507368922234,0.004462724551558495,0.0047929417341947556,0.0051231589168310165,0.00545337563380599,0.005783592816442251,0.006113809999078512,0.006444027181714773,0.006774244364351034,0.007104461546987295,0.007434678729623556,0.00776489544659853,0.00809511262923479,0.008425329811871052,0.008755546994507313,0.009085764177143574],"_type":"histogram","values":[1,0,1,0,0,1,0,1,1,1,2,1,1,0,1,0,1,0,1,0,0,1,3,0,2,1,2,1,0,0,0,0,0,1,1,1,223,0,0,0,1,0,0,0,0,1,0,0,1,0,1,1,0,1,0,0,0,0,0,0,0,0,0,1]}}