{"_step":62,"epoch":61,"gradients/model.lin2.biases":{"_type":"histogram","values":[1,0,0,0,0,1,1,0,0,1,1,1,2,1,0,4,5,3,2,0,2,3,5,0,4,6,5,3,165,1,1,4,1,2,1,3,1,2,0,0,1,0,0,0,0,0,1,4,0,0,0,0,1,0,0,0,0,0,0,0,0,0,0,1],"bins":[-0.32569876313209534,-0.3144303858280182,-0.30316197872161865,-0.2918936014175415,-0.28062519431114197,-0.2693568170070648,-0.2580884099006653,-0.24682003259658813,-0.2355516403913498,-0.22428324818611145,-0.2130148559808731,-0.20174646377563477,-0.19047808647155762,-0.17920969426631927,-0.16794130206108093,-0.1566729098558426,-0.14540451765060425,-0.1341361254453659,-0.12286773324012756,-0.11159934848546982,-0.10033095628023148,-0.08906256407499313,-0.07779417932033539,-0.06652578711509705,-0.055257394909858704,-0.04398900270462036,-0.03272061422467232,-0.021452223882079124,-0.010183833539485931,0.0010845568031072617,0.012352947145700455,0.023621337488293648,0.03488975763320923,0.04615814983844757,0.057426538318395615,0.06869492679834366,0.079963319003582,0.09123171120882034,0.10250009596347809,0.11376848816871643,0.12503688037395477,0.13630527257919312,0.14757366478443146,0.1588420569896698,0.17011043429374695,0.1813788264989853,0.19264721870422363,0.20391561090946198,0.21518400311470032,0.22645239531993866,0.237720787525177,0.24898917973041534,0.2602575719356537,0.27152594923973083,0.28279435634613037,0.2940627336502075,0.30533111095428467,0.3165995180606842,0.32786789536476135,0.3391363024711609,0.35040467977523804,0.3616730868816376,0.3729414641857147,0.38420987129211426,0.3954782485961914]},"gradients/model.lin3.biases":{"values":[1,0,1,1,0,1,1,0,3,3,3,1,6,4,1,2,6,2,3,3,3,4,5,7,262,8,5,1,2,2,1,2,3,1,1,2,3,1,1,0,0,0,0,0,0,2,0,0,0,0,0,0,0,0,0,0,1,0,0,0,0,0,0,1],"bins":[-0.1707088053226471,-0.16364744305610657,-0.15658606588840485,-0.14952470362186432,-0.1424633413553238,-0.13540196418762207,-0.12834060192108154,-0.12127923220396042,-0.1142178624868393,-0.10715650022029877,-0.10009513050317764,-0.09303376078605652,-0.08597239851951599,-0.07891102880239487,-0.07184965908527374,-0.06478829681873322,-0.05772692710161209,-0.050665561109781265,-0.04360419139266014,-0.036542825400829315,-0.02948145754635334,-0.022420089691877365,-0.015358722768723965,-0.008297355845570564,-0.0012359879910945892,0.0058253793977200985,0.012886746786534786,0.019948113709688187,0.02700948156416416,0.03407084941864014,0.04113221541047096,0.04819358512759209,0.05525495111942291,0.06231631711125374,0.06937768310308456,0.07643905282020569,0.08350042253732681,0.09056178480386734,0.09762315452098846,0.10468452423810959,0.11174589395523071,0.11880725622177124,0.12586861848831177,0.1329299956560135,0.13999135792255402,0.14705272018909454,0.15411409735679626,0.1611754596233368,0.16823682188987732,0.17529819905757904,0.18235956132411957,0.1894209384918213,0.19648230075836182,0.20354366302490234,0.21060504019260406,0.2176664024591446,0.22472776472568512,0.23178914189338684,0.23885050415992737,0.2459118664264679,0.2529732286930084,0.26003459095954895,0.26709598302841187,0.2741573452949524,0.2812187075614929],"_type":"histogram"},"gradients/model.lin5.weights":{"_type":"histogram","values":[2,0,0,0,0,0,0,0,0,0,1,1,1,0,0,3,2,0,1,1,0,0,2,0,2,1,1,0,0,0,1,0,0,1,0,0,0,0,0,0,1,0,0,0,0,0,0,0,0,0,378,28,24,13,9,3,0,2,0,1,0,0,0,1],"bins":[-5.159918785095215,-5.058252811431885,-4.956587314605713,-4.854921340942383,-4.753255367279053,-4.651589393615723,-4.549923896789551,-4.448257923126221,-4.346591949462891,-4.244926452636719,-4.143260478973389,-4.041594505310059,-3.9399287700653076,-3.8382627964019775,-3.7365970611572266,-3.6349310874938965,-3.5332653522491455,-3.4315996170043945,-3.3299336433410645,-3.2282679080963135,-3.1266019344329834,-3.0249361991882324,-2.9232702255249023,-2.8216044902801514,-2.7199387550354004,-2.6182727813720703,-2.5166070461273193,-2.4149410724639893,-2.3132753372192383,-2.211609363555908,-2.1099436283111572,-2.008277654647827,-1.906611680984497,-1.8049458265304565,-1.703279972076416,-1.6016141176223755,-1.499948263168335,-1.398282527923584,-1.2966166734695435,-1.194950819015503,-1.0932849645614624,-0.9916191101074219,-0.8899532556533813,-0.7882874608039856,-0.6866216063499451,-0.5849557518959045,-0.4832899272441864,-0.38162410259246826,-0.27995824813842773,-0.1782924085855484,-0.07662656903266907,0.025039270520210266,0.1267051100730896,0.22837094962596893,0.33003678917884827,0.4317026138305664,0.5333684682846069,0.6350343227386475,0.736700177192688,0.8383659720420837,0.9400318264961243,1.04169762134552,1.1433634757995605,1.245029330253601,1.3466951847076416]},"gradients/model.lin1.weights":{"values":[1,0,0,0,1,0,0,0,0,0,0,0,0,1,0,1,0,2,0,2,0,4,3,7,3,3,6,6,11,11,16,12,14,411,8,16,6,10,14,4,2,5,4,1,3,5,2,0,1,0,0,1,0,1,0,0,0,0,0,0,1,0,0,1],"bins":[-0.5390597581863403,-0.5228506326675415,-0.5066415667533875,-0.4904324412345886,-0.4742233455181122,-0.45801424980163574,-0.4418051242828369,-0.4255960285663605,-0.40938693284988403,-0.3931778371334076,-0.37696874141693115,-0.3607596158981323,-0.3445505201816559,-0.32834142446517944,-0.3121322989463806,-0.2959232032299042,-0.27971410751342773,-0.2635050117969513,-0.24729590117931366,-0.23108679056167603,-0.21487769484519958,-0.19866859912872314,-0.1824594885110855,-0.16625037789344788,-0.15004128217697144,-0.133832186460495,-0.11762307584285736,-0.10141397267580032,-0.08520486950874329,-0.06899576634168625,-0.05278666317462921,-0.036577560007572174,-0.020368486642837524,-0.004159383475780487,0.01204971969127655,0.028258822858333588,0.044467926025390625,0.06067702919244766,0.0768861323595047,0.09309523552656174,0.10930433869361877,0.12551343441009521,0.14172254502773285,0.15793165564537048,0.17414075136184692,0.19034984707832336,0.206558957695961,0.22276806831359863,0.23897716403007507,0.2551862597465515,0.27139538526535034,0.2876044809818268,0.3038135766983032,0.32002267241477966,0.3362317681312561,0.35244089365005493,0.36864998936653137,0.3848590850830078,0.40106821060180664,0.4172773063182831,0.4334864020347595,0.44969549775123596,0.4659045934677124,0.48211371898651123,0.49832281470298767],"_type":"histogram"},"train_loss":-5.551480120385599,"_wandb":{"runtime":39},"_runtime":39.335974492,"_timestamp":1.7524293709206858e+09,"gradients/model.lin5.biases":{"_type":"histogram","values":[1,0,0,0,0,0,0,0,0,0,0,0,0,0,0,0,0,0,0,0,0,0,0,0,0,0,0,0,0,0,0,0,0,0,0,0,0,0,0,0,0,0,0,0,0,0,0,0,0,0,0,0,0,0,0,0,1,8,0,0,0,1,0,1],"bins":[-2.88733172416687,-2.8368935585021973,-2.7864553928375244,-2.7360172271728516,-2.6855790615081787,-2.635140895843506,-2.584702730178833,-2.53426456451416,-2.4838263988494873,-2.4333882331848145,-2.3829500675201416,-2.3325119018554688,-2.282073736190796,-2.231635570526123,-2.18119740486145,-2.1307592391967773,-2.0803210735321045,-2.0298829078674316,-1.9794448614120483,-1.9290066957473755,-1.8785685300827026,-1.8281303644180298,-1.777692198753357,-1.727254033088684,-1.6768158674240112,-1.6263777017593384,-1.5759395360946655,-1.5255013704299927,-1.4750632047653198,-1.424625039100647,-1.3741868734359741,-1.3237487077713013,-1.2733105421066284,-1.2228723764419556,-1.1724342107772827,-1.1219960451126099,-1.071557879447937,-1.0211197137832642,-0.9706815481185913,-0.9202433824539185,-0.8698052167892456,-0.8193671107292175,-0.7689289450645447,-0.7184907793998718,-0.668052613735199,-0.6176144480705261,-0.5671762824058533,-0.5167381167411804,-0.46629995107650757,-0.4158617854118347,-0.36542361974716187,-0.314985454082489,-0.26454728841781616,-0.2141091376543045,-0.16367098689079285,-0.11323282122612,-0.06279465556144714,-0.01235649362206459,0.03808166831731796,0.08851982653141022,0.13895799219608307,0.18939615786075592,0.23983430862426758,0.29027247428894043,0.3407106399536133]},"gradients/model.lin2.weights":{"_type":"histogram","values":[1,1,4,2,3,0,2,2,4,5,3,3,11,12,17,15,29,36,47,67,84,99,115,186,241,331,414,6974,257,157,104,73,77,61,43,21,19,15,13,12,10,6,2,4,1,1,3,3,0,1,1,0,2,1,1,0,1,1,0,0,1,0,0,1],"bins":[-0.31805258989334106,-0.3064440190792084,-0.2948354482650757,-0.283226877450943,-0.2716183066368103,-0.2600097358226776,-0.24840117990970612,-0.23679260909557343,-0.22518405318260193,-0.21357548236846924,-0.20196691155433655,-0.19035834074020386,-0.17874976992607117,-0.16714119911193848,-0.15553264319896698,-0.1439240723848343,-0.1323155015707016,-0.12070693075656891,-0.10909836739301682,-0.09748979657888412,-0.08588123321533203,-0.07427266240119934,-0.06266409158706665,-0.05105552449822426,-0.039446957409381866,-0.027838390320539474,-0.016229821369051933,-0.004621253348886967,0.006987314671278,0.018595881760120392,0.030204450711607933,0.041813019663095474,0.053421586751937866,0.06503015756607056,0.07663872092962265,0.08824729174375534,0.09985585510730743,0.11146442592144012,0.12307299673557281,0.1346815675497055,0.146290123462677,0.1578986942768097,0.16950726509094238,0.18111583590507507,0.19272440671920776,0.20433297753334045,0.21594153344631195,0.22755010426044464,0.23915867507457733,0.25076723098754883,0.2623758018016815,0.2739843726158142,0.2855929434299469,0.2972015142440796,0.3088100850582123,0.32041865587234497,0.33202722668647766,0.34363579750061035,0.35524436831474304,0.36685290932655334,0.37846148014068604,0.3900700509548187,0.4016786217689514,0.4132871925830841,0.4248957633972168]},"gradients/model.lin1.biases":{"bins":[-0.5350950360298157,-0.5213508009910583,-0.5076066255569458,-0.4938623905181885,-0.48011815547943115,-0.4663739502429962,-0.4526297152042389,-0.43888550996780396,-0.42514127492904663,-0.4113970696926117,-0.39765283465385437,-0.38390862941741943,-0.3701643943786621,-0.3564201891422272,-0.34267595410346985,-0.3289317488670349,-0.3151875138282776,-0.30144330859184265,-0.2876991033554077,-0.2739548683166504,-0.26021066308021545,-0.24646642804145813,-0.232722207903862,-0.21897798776626587,-0.20523378252983093,-0.1914895623922348,-0.17774534225463867,-0.16400112211704254,-0.1502569019794464,-0.13651268184185028,-0.12276846170425415,-0.10902424156665802,-0.09528002142906189,-0.08153580129146576,-0.06779158115386963,-0.0540473647415638,-0.04030314460396767,-0.026558924466371536,-0.012814706191420555,0.0009295130148530006,0.014673732221126556,0.028417952358722687,0.04216217249631882,0.05590638890862465,0.06965060532093048,0.08339482545852661,0.09713904559612274,0.11088326573371887,0.124627485871315,0.13837170600891113,0.15211592614650726,0.1658601462841034,0.17960436642169952,0.19334858655929565,0.20709280669689178,0.22083702683448792,0.23458123207092285,0.24832545220851898,0.2620696723461151,0.27581390738487244,0.2895581126213074,0.3033023476600647,0.31704655289649963,0.33079078793525696,0.3445349931716919],"_type":"histogram","values":[1,0,0,0,0,0,0,0,0,0,0,0,0,0,1,0,0,0,1,0,0,0,1,0,1,2,0,0,1,0,2,0,3,1,2,3,3,0,82,0,0,0,0,0,2,0,2,3,1,0,2,0,1,0,0,1,1,0,0,0,0,0,2,1]},"test_loss":17269.59931506849,"gradients/model.lin4.biases":{"_type":"histogram","values":[1,0,0,1,0,0,0,1,0,0,1,0,0,1,0,0,0,0,1,0,0,2,1,0,0,0,0,0,1,0,1,0,0,1,1,94,0,0,0,2,3,0,1,1,1,0,0,0,2,0,0,0,0,0,0,1,0,0,0,0,1,0,0,1],"bins":[-0.4751023054122925,-0.4616972506046295,-0.44829222559928894,-0.434887170791626,-0.4214821457862854,-0.40807709097862244,-0.3946720361709595,-0.3812670111656189,-0.36786195635795593,-0.35445690155029297,-0.3410518765449524,-0.32764682173728943,-0.31424176692962646,-0.3008367419242859,-0.2874316871166229,-0.27402666211128235,-0.2606216073036194,-0.24721656739711761,-0.23381152749061584,-0.22040647268295288,-0.2070014327764511,-0.19359639286994934,-0.18019133806228638,-0.1667862981557846,-0.15338125824928284,-0.13997621834278107,-0.1265711784362793,-0.11316612362861633,-0.09976108372211456,-0.08635604381561279,-0.07295099645853043,-0.05954595282673836,-0.04614090919494629,-0.03273586556315422,-0.019330821931362152,-0.005925778299570084,0.007479265332221985,0.020884308964014053,0.03428935259580612,0.04769439622759819,0.06109943985939026,0.07450447976589203,0.0879095271229744,0.10131457448005676,0.11471961438655853,0.1281246542930603,0.14152970910072327,0.15493474900722504,0.1683397889137268,0.18174482882022858,0.19514986872673035,0.2085549235343933,0.22195996344089508,0.23536500334739685,0.24877005815505981,0.2621750831604004,0.27558013796806335,0.2889851927757263,0.3023902177810669,0.31579527258872986,0.3292003273963928,0.3426053524017334,0.35601040720939636,0.36941543221473694,0.3828204870223999]},"gradients/model.lin4.weights":{"bins":[-0.44790056347846985,-0.43456268310546875,-0.42122480273246765,-0.40788692235946655,-0.39454907178878784,-0.38121119141578674,-0.36787331104278564,-0.35453543066978455,-0.34119755029678345,-0.32785966992378235,-0.31452181935310364,-0.30118393898010254,-0.28784605860710144,-0.27450817823410034,-0.26117029786109924,-0.24783243238925934,-0.23449455201625824,-0.22115667164325714,-0.20781880617141724,-0.19448092579841614,-0.18114304542541504,-0.16780517995357513,-0.15446729958057404,-0.14112941920757294,-0.12779155373573303,-0.11445367336273193,-0.10111579298973083,-0.08777792006731033,-0.07444004714488983,-0.06110216677188873,-0.04776429384946823,-0.03442641720175743,-0.02108854055404663,-0.007750664837658405,0.00558721087872982,0.01892508566379547,0.03226296231150627,0.04560083895921707,0.05893871188163757,0.07227659225463867,0.08561446517705917,0.09895233809947968,0.11229021847248077,0.12562809884548187,0.13896596431732178,0.15230384469032288,0.16564172506332397,0.17897959053516388,0.19231747090816498,0.20565535128116608,0.21899321675300598,0.23233109712600708,0.24566897749900818,0.2590068578720093,0.2723447382450104,0.2856825888156891,0.2990204691886902,0.3123583495616913,0.3256962299346924,0.3390341103076935,0.3523719906806946,0.3657098412513733,0.3790477216243744,0.3923856019973755,0.4057234823703766],"_type":"histogram","values":[1,0,1,2,3,3,1,5,6,4,6,8,7,12,11,11,18,12,21,13,27,35,40,40,46,69,64,73,76,96,113,211,308,11906,302,176,135,105,86,64,56,30,27,20,25,26,13,10,17,5,13,2,9,5,5,6,4,2,1,3,1,2,0,1]},"gradients/model.lin3.weights":{"_type":"histogram","values":[3,1,1,0,4,4,6,15,11,13,28,26,65,88,133,215,332,502,731,1107,22867,1131,537,311,203,126,76,56,46,35,19,29,17,6,10,5,5,1,2,4,3,6,2,2,2,1,3,2,0,0,1,0,0,1,0,1,1,0,2,0,0,0,1,1],"bins":[-0.18663543462753296,-0.1776643842458725,-0.16869334876537323,-0.15972229838371277,-0.1507512480020523,-0.14178021252155304,-0.13280916213989258,-0.12383811175823212,-0.11486706882715225,-0.10589602589607239,-0.09692497551441193,-0.08795393258333206,-0.0789828896522522,-0.07001183927059174,-0.06104079633951187,-0.05206974968314171,-0.043098703026771545,-0.03412765637040138,-0.02515661157667637,-0.016185566782951355,-0.007214520126581192,0.0017565255984663963,0.010727571323513985,0.019698616117239,0.02866966277360916,0.037640709429979324,0.04661175608634949,0.05558279901742935,0.06455384194850922,0.07352489233016968,0.08249593526124954,0.09146698564291,0.10043802857398987,0.10940907150506973,0.1183801218867302,0.12735116481781006,0.13632221519947052,0.1452932506799698,0.15426430106163025,0.1632353514432907,0.17220640182495117,0.18117743730545044,0.1901484876871109,0.19911953806877136,0.20809057354927063,0.2170616239309311,0.22603267431259155,0.23500370979309082,0.24397476017475128,0.25294581055641174,0.261916846036911,0.27088791131973267,0.27985894680023193,0.2888299822807312,0.29780104756355286,0.3067720830440521,0.3157431185245514,0.32471418380737305,0.3336852192878723,0.3426562547683716,0.35162732005119324,0.3605983555316925,0.3695693910121918,0.3785404562950134,0.3875114917755127]},"test_rmse":1.3173069231066685}