{"gradients/model.lin3.biases":{"_type":"histogram","values":[1,0,0,1,1,1,1,0,0,0,0,0,2,0,1,1,1,1,0,3,2,2,3,2,3,2,1,2,1,2,1,2,2,6,2,5,1,1,264,5,2,3,3,0,2,1,1,1,3,2,3,2,4,0,2,1,1,1,0,1,0,1,0,3],"bins":[-0.8924683332443237,-0.8694289922714233,-0.846389651298523,-0.8233502507209778,-0.8003109097480774,-0.777271568775177,-0.7542322278022766,-0.7311928868293762,-0.708153486251831,-0.6851141452789307,-0.6620748043060303,-0.6390354633331299,-0.6159961223602295,-0.5929567813873291,-0.5699173808097839,-0.5468780398368835,-0.5238386988639832,-0.5007993578910828,-0.47775998711586,-0.4547206461429596,-0.4316812753677368,-0.4086419343948364,-0.38560259342193604,-0.36256322264671326,-0.33952388167381287,-0.3164845407009125,-0.2934451699256897,-0.2704058289527893,-0.24736647307872772,-0.22432711720466614,-0.20128777623176575,-0.17824842035770416,-0.15520912408828735,-0.13216976821422577,-0.10913041979074478,-0.0860910713672638,-0.06305171549320221,-0.04001236334443092,-0.016973011195659637,0.0060663409531116486,0.029105693101882935,0.05214504525065422,0.0751843973994255,0.0982237458229065,0.12126310169696808,0.14430245757102966,0.16734179854393005,0.19038115441799164,0.21342051029205322,0.2364598661661148,0.2594992220401764,0.2825385630130768,0.30557793378829956,0.32861727476119995,0.35165661573410034,0.3746959865093231,0.3977353274822235,0.4207746684551239,0.4438140392303467,0.46685338020324707,0.48989272117614746,0.5129320621490479,0.535971462726593,0.5590108036994934,0.5820501446723938]},"_step":25,"gradients/model.lin1.biases":{"bins":[-0.6514272689819336,-0.6359935402870178,-0.6205598711967468,-0.605126142501831,-0.5896924138069153,-0.5742587447166443,-0.5588250160217285,-0.5433913469314575,-0.5279576182365417,-0.512523889541626,-0.4970901906490326,-0.4816564917564392,-0.4662227928638458,-0.45078906416893005,-0.43535536527633667,-0.4199216663837433,-0.4044879674911499,-0.38905423879623413,-0.37362053990364075,-0.35818684101104736,-0.3427531123161316,-0.3273194134235382,-0.3118857145309448,-0.29645201563835144,-0.28101828694343567,-0.2655845880508423,-0.2501508891582489,-0.23471717536449432,-0.21928346157073975,-0.20384976267814636,-0.18841604888439178,-0.1729823499917984,-0.15754863619804382,-0.14211492240428925,-0.12668122351169586,-0.11124751716852188,-0.0958138108253479,-0.08038009703159332,-0.06494639068841934,-0.04951268434524536,-0.03407897800207138,-0.0186452716588974,-0.00321156345307827,0.012222143821418285,0.02765585109591484,0.04308955743908882,0.0585232675075531,0.07395697385072708,0.08939068019390106,0.10482438653707504,0.12025809288024902,0.1356918066740036,0.15112550556659698,0.16655921936035156,0.18199291825294495,0.19742663204669952,0.2128603458404541,0.22829404473304749,0.24372775852680206,0.25916147232055664,0.27459517121315,0.2900288701057434,0.3054625689983368,0.32089629769325256,0.33632999658584595],"_type":"histogram","values":[1,0,0,0,0,0,0,0,0,0,0,0,0,1,0,0,0,0,0,1,1,1,1,0,0,2,0,0,1,1,0,2,0,2,1,1,0,1,2,0,2,3,80,1,0,4,0,3,0,1,1,1,0,2,0,0,1,1,0,0,0,0,0,1]},"gradients/model.lin4.weights":{"bins":[-2.9092602729797363,-2.8226895332336426,-2.7361185550689697,-2.649547815322876,-2.562976837158203,-2.4764060974121094,-2.3898351192474365,-2.3032643795013428,-2.21669340133667,-2.130122661590576,-2.0435516834259033,-1.9569809436798096,-1.8704100847244263,-1.783839225769043,-1.6972683668136597,-1.6106975078582764,-1.524126648902893,-1.4375557899475098,-1.3509849309921265,-1.2644140720367432,-1.1778432130813599,-1.0912723541259766,-1.0047014951705933,-0.9181306958198547,-0.8315598368644714,-0.7449889779090881,-0.6584181189537048,-0.5718472599983215,-0.4852764308452606,-0.3987055718898773,-0.3121347427368164,-0.2255638837814331,-0.1389930248260498,-0.0524221733212471,0.0341486781835556,0.1207195296883583,0.207290381193161,0.2938612401485443,0.3804320693016052,0.4670029282569885,0.5535737872123718,0.6401446461677551,0.7267155051231384,0.8132863640785217,0.8998571634292603,0.9864280223846436,1.0729988813400269,1.1595697402954102,1.2461405992507935,1.3327114582061768,1.41928231716156,1.5058531761169434,1.5924240350723267,1.67899489402771,1.7655657529830933,1.8521366119384766,1.9387073516845703,2.025278329849243,2.111849069595337,2.1984200477600098,2.2849907875061035,2.3715617656707764,2.45813250541687,2.544703483581543,2.6312742233276367],"_type":"histogram","values":[4,0,0,0,0,1,3,2,0,0,3,8,10,3,15,14,13,16,21,29,31,45,43,52,63,76,85,94,115,113,148,145,141,12126,236,91,82,81,78,56,50,40,38,37,29,23,32,22,17,18,12,9,9,8,1,0,1,4,3,0,0,0,2,2]},"gradients/model.lin3.weights":{"_type":"histogram","values":[1,2,1,2,2,2,3,2,2,3,6,8,8,8,5,6,12,24,23,24,31,39,37,49,71,73,84,104,133,143,172,209,216,255,342,531,734,22503,827,493,303,228,189,164,165,109,88,86,63,38,52,32,24,14,10,13,5,7,8,3,1,4,2,2],"bins":[-0.7460196018218994,-0.7263163328170776,-0.7066130638122559,-0.6869097948074341,-0.6672065258026123,-0.6475032567977905,-0.6277999877929688,-0.608096718788147,-0.5883934497833252,-0.5686901807785034,-0.5489869117736816,-0.5292836427688599,-0.5095803737640381,-0.4898771345615387,-0.4701738655567169,-0.45047059655189514,-0.43076732754707336,-0.4110640585422516,-0.3913607895374298,-0.37165752053260803,-0.35195425152778625,-0.3322509825229645,-0.3125477135181427,-0.2928444445133209,-0.27314120531082153,-0.25343793630599976,-0.23373465240001678,-0.214031383395195,-0.19432812929153442,-0.17462486028671265,-0.15492159128189087,-0.1352183222770691,-0.11551505327224731,-0.09581178426742554,-0.07610851526260376,-0.05640525370836258,-0.0367019847035408,-0.016998717561364174,0.0027045495808124542,0.022407816722989082,0.04211108386516571,0.06181435286998749,0.08151762187480927,0.10122088342905045,0.12092415243387222,0.1406274139881134,0.16033068299293518,0.18003395199775696,0.19973722100257874,0.2194404900074005,0.2391437590122223,0.25884702801704407,0.27855029702186584,0.2982535660266876,0.3179568350315094,0.3376601040363312,0.35736334323883057,0.37706661224365234,0.3967698812484741,0.4164731502532959,0.4361764192581177,0.45587968826293945,0.47558295726776123,0.495286226272583,0.5149894952774048]},"_timestamp":1.75225842233023e+09,"_wandb":{"runtime":17},"test_loss":56351.02739726027,"gradients/model.lin1.weights":{"bins":[-0.29842355847358704,-0.2893820106983185,-0.2803404629230499,-0.27129894495010376,-0.2622573971748352,-0.25321584939956665,-0.2441743016242981,-0.23513276875019073,-0.22609122097492218,-0.21704967319965363,-0.20800814032554626,-0.1989665925502777,-0.18992504477500916,-0.1808835119009018,-0.17184196412563324,-0.16280043125152588,-0.15375888347625732,-0.14471733570098877,-0.1356758028268814,-0.12663425505161285,-0.1175927147269249,-0.10855117440223694,-0.09950962662696838,-0.09046808630228043,-0.08142654597759247,-0.07238500565290451,-0.06334346532821655,-0.054301917552948,-0.04526037722826004,-0.03621883690357208,-0.027177292853593826,-0.01813575066626072,-0.009094208478927612,-5.266629159450531e-05,0.008988875895738602,0.01803041808307171,0.027071960270404816,0.03611350059509277,0.04515504464507103,0.054196588695049286,0.06323812901973724,0.0722796693444252,0.08132120966911316,0.09036275744438171,0.09940429776906967,0.10844583809375763,0.11748738586902618,0.12652891874313354,0.1355704665184021,0.14461201429367065,0.15365354716777802,0.16269509494304657,0.17173662781715393,0.18077817559242249,0.18981972336769104,0.1988612562417984,0.20790280401706696,0.2169443517923355,0.22598588466644287,0.23502743244171143,0.24406898021697998,0.25311052799224854,0.2621520459651947,0.27119359374046326,0.2802351415157318],"_type":"histogram","values":[1,0,1,0,1,0,0,2,2,1,3,2,1,1,4,2,1,2,5,2,2,3,2,6,4,6,7,6,6,7,5,10,4,412,7,3,9,6,5,9,5,6,2,5,8,2,1,3,1,1,1,2,2,2,0,3,0,1,1,0,0,1,2,1]},"gradients/model.lin2.biases":{"bins":[-0.8989694714546204,-0.8781271576881409,-0.8572848439216614,-0.8364425301551819,-0.8156002163887024,-0.7947579026222229,-0.7739155888557434,-0.7530732750892639,-0.7322309017181396,-0.7113885879516602,-0.6905462741851807,-0.6697039604187012,-0.6488616466522217,-0.6280193328857422,-0.6071770191192627,-0.5863347053527832,-0.5654923915863037,-0.5446500778198242,-0.5238077640533447,-0.5029654502868652,-0.48212313652038574,-0.46128079295158386,-0.44043847918510437,-0.4195961654186249,-0.3987538516521454,-0.3779115378856659,-0.3570692241191864,-0.3362269103527069,-0.31538456678390503,-0.29454225301742554,-0.27369993925094604,-0.25285762548446655,-0.23201525211334229,-0.2111729383468628,-0.1903306245803833,-0.16948829591274261,-0.14864598214626312,-0.12780366837978363,-0.10696134716272354,-0.08611902594566345,-0.06527671217918396,-0.04443439468741417,-0.02359207719564438,-0.002749759703874588,0.018092557787895203,0.03893487527966499,0.059777192771434784,0.08061951398849487,0.10146182775497437,0.12230414152145386,0.14314645528793335,0.16398878395557404,0.18483109772205353,0.20567341148853302,0.2265157401561737,0.2473580539226532,0.2682003676891327,0.2890426814556122,0.3098849952220917,0.33072730898857117,0.35156965255737305,0.37241196632385254,0.39325428009033203,0.4140965938568115,0.434938907623291],"_type":"histogram","values":[1,0,0,0,0,0,0,0,0,0,0,0,0,0,0,0,0,0,0,2,0,0,1,0,1,1,1,2,2,3,1,1,2,5,0,2,2,3,5,1,4,3,5,165,2,3,1,5,4,0,1,2,2,1,1,2,0,0,0,1,1,0,0,1]},"gradients/model.lin4.biases":{"bins":[-2.0362112522125244,-1.976192593574524,-1.9161739349365234,-1.856155276298523,-1.7961366176605225,-1.736117959022522,-1.6760993003845215,-1.616080641746521,-1.5560619831085205,-1.49604332447052,-1.4360246658325195,-1.376006007194519,-1.3159873485565186,-1.255968689918518,-1.1959500312805176,-1.135931372642517,-1.0759127140045166,-1.0158939361572266,-0.9558753371238708,-0.8958566784858704,-0.8358380198478699,-0.7758193612098694,-0.7158007025718689,-0.6557820439338684,-0.5957633256912231,-0.5357446670532227,-0.47572603821754456,-0.41570737957954407,-0.3556886911392212,-0.2956700325012207,-0.23565137386322021,-0.17563271522521973,-0.11561405658721924,-0.05559539422392845,0.004423268139362335,0.06444193422794342,0.12446059286594391,0.1844792515039444,0.24449792504310608,0.30451658368110657,0.36453524231910706,0.42455390095710754,0.48457255959510803,0.5445912480354309,0.6046099066734314,0.6646285653114319,0.7246472239494324,0.7846658825874329,0.8446845412254333,0.9047031998634338,0.9647218585014343,1.0247405767440796,1.08475923538208,1.1447778940200806,1.204796552658081,1.2648152112960815,1.324833869934082,1.3848525285720825,1.444871187210083,1.5048898458480835,1.564908504486084,1.6249271631240845,1.684945821762085,1.7449644804000854,1.804983139038086],"_type":"histogram","values":[2,0,0,0,0,1,0,0,0,1,0,0,1,1,0,0,0,2,0,1,1,1,0,0,1,0,1,0,1,0,0,0,0,91,3,3,0,0,0,1,0,0,0,1,0,2,0,0,0,1,0,0,0,0,0,0,0,0,1,1,0,0,1,1]},"gradients/model.lin2.weights":{"_type":"histogram","values":[1,0,0,0,1,1,0,0,3,1,1,1,3,1,1,0,0,0,3,3,2,5,8,8,5,11,14,15,20,23,26,35,66,66,77,96,98,141,237,322,419,7003,227,172,129,96,78,44,31,25,20,17,11,10,6,4,5,2,1,0,1,1,1,2],"bins":[-0.6055424213409424,-0.5908669233322144,-0.5761914849281311,-0.5615160465240479,-0.5468405485153198,-0.5321650505065918,-0.5174896121025085,-0.5028141736984253,-0.48813867568969727,-0.4734632074832916,-0.458787739276886,-0.44411227107048035,-0.4294368028640747,-0.41476133465766907,-0.4000858664512634,-0.3854103982448578,-0.37073493003845215,-0.3560594618320465,-0.34138399362564087,-0.32670852541923523,-0.3120330572128296,-0.29735758900642395,-0.2826821208000183,-0.26800665259361267,-0.25333118438720703,-0.2386557161808014,-0.22398024797439575,-0.2093047797679901,-0.19462931156158447,-0.17995384335517883,-0.1652783751487732,-0.15060290694236755,-0.1359274685382843,-0.12125200033187866,-0.10657653212547302,-0.09190106391906738,-0.07722559571266174,-0.0625501275062561,-0.047874659299850464,-0.033199191093444824,-0.018523722887039185,-0.003848254680633545,0.010827213525772095,0.025502681732177734,0.040178149938583374,0.054853618144989014,0.06952908635139465,0.08420455455780029,0.09888002276420593,0.11355549097061157,0.1282309591770172,0.14290642738342285,0.1575818955898285,0.17225736379623413,0.18693283200263977,0.2016083002090454,0.21628376841545105,0.2309592366218567,0.24563470482826233,0.26031017303466797,0.2749856412410736,0.28966110944747925,0.3043365776538849,0.3190120458602905,0.33368751406669617]},"test_rmse":1.207928815212829,"train_loss":-4.456061112253289,"gradients/model.lin5.biases":{"_type":"histogram","values":[1,9,1,0,0,0,0,0,0,0,0,0,0,0,0,0,0,0,0,0,0,0,0,0,0,0,0,0,0,0,0,0,0,0,0,0,0,0,0,0,0,0,0,0,0,0,0,0,0,0,0,0,0,0,0,0,0,0,0,0,0,0,0,1],"bins":[-0.2608444392681122,-0.045005083084106445,0.1708342730998993,0.38667362928390503,0.6025129556655884,0.8183523416519165,1.0341917276382446,1.2500309944152832,1.4658703804016113,1.6817097663879395,1.8975491523742676,2.1133885383605957,2.329227924346924,2.545067310333252,2.760906457901001,2.976745843887329,3.1925852298736572,3.4084246158599854,3.6242640018463135,3.8401033878326416,4.055942535400391,4.271781921386719,4.487621307373047,4.703460693359375,4.919300079345703,5.135139465332031,5.350978851318359,5.5668182373046875,5.782657623291016,5.998497009277344,6.214336395263672,6.43017578125,6.646015167236328,6.861854553222656,7.077693939208984,7.2935333251953125,7.509372711181641,7.725212097167969,7.941051483154297,8.156890869140625,8.372730255126953,8.588569641113281,8.80440902709961,9.020248413085938,9.236087799072266,9.451927185058594,9.667766571044922,9.88360595703125,10.099445343017578,10.31528377532959,10.531123161315918,10.746962547302246,10.962801933288574,11.178641319274902,11.39448070526123,11.610320091247559,11.826159477233887,12.041998863220215,12.257838249206543,12.473677635192871,12.6895170211792,12.905356407165527,13.121195793151855,13.337035179138184,13.552874565124512]},"gradients/model.lin5.weights":{"bins":[-0.46166038513183594,0.27219974994659424,1.0060598850250244,1.7399200201034546,2.4737801551818848,3.2076401710510254,3.941500425338745,4.675360679626465,5.4092206954956055,6.143080711364746,6.876940727233887,7.6108012199401855,8.344661712646484,9.078521728515625,9.812381744384766,10.546241760253906,11.280101776123047,12.013961791992188,12.747821807861328,13.481681823730469,14.21554183959961,14.949402809143066,15.683262825012207,16.41712188720703,17.150981903076172,17.884843826293945,18.618703842163086,19.352563858032227,20.086423873901367,20.820283889770508,21.55414390563965,22.28800392150879,23.021862030029297,23.755722045898438,24.489582061767578,25.22344207763672,25.95730209350586,26.691162109375,27.42502212524414,28.15888214111328,28.892742156982422,29.626604080200195,30.360464096069336,31.094324111938477,31.828184127807617,32.562042236328125,33.295902252197266,34.029762268066406,34.76362609863281,35.49748611450195,36.231346130371094,36.965206146240234,37.699066162109375,38.432926177978516,39.166786193847656,39.9006462097168,40.63450622558594,41.36836624145508,42.10222625732422,42.83608627319336,43.5699462890625,44.30380630493164,45.03766632080078,45.77152633666992,46.50538635253906],"_type":"histogram","values":[451,3,0,1,1,0,1,0,2,0,0,0,0,0,2,0,0,0,0,1,0,1,2,2,1,0,0,0,1,2,3,0,0,1,1,0,1,0,1,0,1,0,0,0,0,0,0,0,0,0,0,0,0,0,0,0,0,0,0,0,0,0,0,1]},"_runtime":17.251026761,"epoch":24}