{"_runtime":43.070889715,"test_rmse":1.2071533736624693,"gradients/model.lin2.weights":{"_type":"histogram","values":[1,0,0,0,1,0,1,1,0,0,0,1,3,3,3,5,4,0,2,10,13,11,16,30,37,64,62,134,271,7724,568,211,128,77,55,40,33,20,16,10,8,8,5,7,5,1,1,0,1,2,2,1,0,1,0,0,0,0,1,0,0,0,1,1],"bins":[-0.6152288317680359,-0.594648003578186,-0.5740671157836914,-0.5534862875938416,-0.5329054594039917,-0.5123246312141418,-0.4917437732219696,-0.47116291522979736,-0.4505820870399475,-0.43000125885009766,-0.4094204008579254,-0.3888395428657532,-0.3682587146759033,-0.34767788648605347,-0.3270970284938812,-0.306516170501709,-0.28593534231185913,-0.2653545141220093,-0.24477365612983704,-0.224192813038826,-0.20361196994781494,-0.1830311268568039,-0.16245028376579285,-0.1418694406747818,-0.12128859758377075,-0.1007077544927597,-0.08012691140174866,-0.05954606831073761,-0.03896522521972656,-0.018384382128715515,0.0021964609622955322,0.02277730405330658,0.04335808753967285,0.0639389306306839,0.08451977372169495,0.105100616812706,0.12568145990371704,0.1462623029947281,0.16684314608573914,0.18742398917675018,0.20800483226776123,0.22858567535877228,0.24916651844978333,0.26974737644195557,0.2903282046318054,0.3109090328216553,0.3314898908138275,0.35207074880599976,0.3726515769958496,0.39323240518569946,0.4138132631778717,0.43439412117004395,0.4549749493598938,0.47555577754974365,0.4961366355419159,0.5167174935340881,0.537298321723938,0.5578791499137878,0.5784599781036377,0.5990408658981323,0.6196216940879822,0.640202522277832,0.6607834100723267,0.6813642382621765,0.7019450664520264]},"gradients/model.lin4.biases":{"bins":[-1.309682846069336,-1.2670567035675049,-1.2244305610656738,-1.1818044185638428,-1.1391782760620117,-1.0965521335601807,-1.0539259910583496,-1.0112998485565186,-0.9686737656593323,-0.9260476231575012,-0.8834214806556702,-0.8407953381538391,-0.7981692552566528,-0.7555431127548218,-0.7129169702529907,-0.6702908277511597,-0.6276646852493286,-0.5850385427474976,-0.5424124002456665,-0.49978628754615784,-0.4571601450443268,-0.4145340025424957,-0.37190788984298706,-0.329281747341156,-0.28665560483932495,-0.2440294623374939,-0.20140333473682404,-0.15877720713615417,-0.11615106463432312,-0.07352492958307266,-0.030898794531822205,0.011727340519428253,0.05435347557067871,0.09697961062192917,0.13960574567317963,0.1822318732738495,0.22485801577568054,0.2674841582775116,0.31011027097702026,0.3527364134788513,0.3953625559806824,0.4379886984825134,0.4806148409843445,0.5232409834861755,0.5658670663833618,0.6084932088851929,0.6511193513870239,0.693745493888855,0.736371636390686,0.7789977788925171,0.8216239213943481,0.8642500638961792,0.9068762063980103,0.9495022892951965,0.9921284317970276,1.0347546339035034,1.077380657196045,1.120006799697876,1.162632942199707,1.205259084701538,1.2478852272033691,1.2905113697052002,1.3331375122070312,1.3757636547088623,1.4183897972106934],"_type":"histogram","values":[2,0,0,0,1,0,1,0,0,0,1,0,0,0,1,0,0,0,1,0,1,0,0,0,0,1,0,0,1,2,92,0,2,0,2,1,0,0,1,0,0,1,2,1,1,0,0,1,0,0,1,0,0,0,0,0,0,1,0,0,0,1,0,1]},"gradients/model.lin2.biases":{"values":[1,0,0,0,0,0,0,1,0,0,0,0,1,1,1,0,0,1,0,2,2,3,1,0,3,2,2,3,5,1,4,168,3,2,7,2,4,3,1,3,1,3,1,3,1,0,0,1,1,0,0,0,0,0,0,1,0,0,0,0,0,0,0,1],"bins":[-0.5333317518234253,-0.5162740349769592,-0.49921631813049316,-0.4821586012840271,-0.46510088443756104,-0.44804316759109497,-0.4309854507446289,-0.41392773389816284,-0.3968700170516968,-0.3798123002052307,-0.36275458335876465,-0.3456968665122986,-0.3286391496658325,-0.31158143281936646,-0.2945237159729004,-0.2774659991264343,-0.26040828227996826,-0.2433505654335022,-0.22629284858703613,-0.20923513174057007,-0.192177414894104,-0.17511969804763794,-0.15806198120117188,-0.1410042643547058,-0.12394654750823975,-0.10688883066177368,-0.08983111381530762,-0.07277339696884155,-0.05571568012237549,-0.038657963275909424,-0.02160024642944336,-0.004542529582977295,0.01251518726348877,0.029572904109954834,0.0466306209564209,0.06368833780288696,0.08074605464935303,0.09780377149581909,0.11486148834228516,0.13191920518875122,0.14897692203521729,0.16603463888168335,0.18309235572814941,0.20015007257461548,0.21720778942108154,0.2342655062675476,0.25132322311401367,0.26838093996047974,0.2854386568069458,0.30249637365341187,0.31955409049987793,0.336611807346344,0.35366952419281006,0.3707272410392761,0.3877849578857422,0.40484267473220825,0.4219003915786743,0.4389581084251404,0.45601582527160645,0.4730735421180725,0.4901312589645386,0.5071889758110046,0.5242466926574707,0.5413044095039368,0.5583621263504028],"_type":"histogram"},"_step":65,"gradients/model.lin3.weights":{"_type":"histogram","values":[2,0,4,4,5,3,9,5,10,10,16,19,33,39,55,45,65,79,125,139,158,226,303,361,465,23491,876,440,336,284,239,204,162,121,96,73,57,54,32,27,20,21,18,9,11,11,5,7,4,4,0,6,0,1,3,1,2,0,2,0,1,1,0,1],"bins":[-0.6659716367721558,-0.6400999426841736,-0.6142281889915466,-0.5883564949035645,-0.5624847412109375,-0.5366130471229553,-0.5107412934303284,-0.4848695993423462,-0.4589978754520416,-0.43312615156173706,-0.4072544276714325,-0.38138270378112793,-0.35551100969314575,-0.3296392858028412,-0.3037675619125366,-0.27789583802223206,-0.2520241141319275,-0.22615239024162292,-0.20028066635131836,-0.174408957362175,-0.14853723347187042,-0.12266550958156586,-0.09679379314184189,-0.07092207670211792,-0.045050352811813354,-0.019178632646799088,0.0066930875182151794,0.032564807683229446,0.05843652784824371,0.08430825173854828,0.11017996817827225,0.13605168461799622,0.161923348903656,0.18779507279396057,0.21366679668426514,0.2395385056734085,0.26541024446487427,0.29128193855285645,0.317153662443161,0.3430253863334656,0.36889711022377014,0.3947688341140747,0.4206405580043793,0.44651228189468384,0.472383975982666,0.4982556998729706,0.5241274237632751,0.5499991774559021,0.5758708715438843,0.6017425656318665,0.6276143193244934,0.6534860134124756,0.6793577671051025,0.7052294611930847,0.7311012148857117,0.7569729089736938,0.7828446626663208,0.808716356754303,0.8345880508422852,0.8604598045349121,0.8863314986228943,0.9122032523155212,0.9380749464035034,0.9639467000961304,0.9898183941841125]},"epoch":64,"gradients/model.lin1.biases":{"_type":"histogram","values":[1,0,0,0,1,0,0,1,0,0,0,0,0,1,0,0,0,0,0,0,1,0,0,0,0,0,1,0,0,1,0,0,1,1,2,1,81,3,2,6,2,1,2,1,1,1,1,2,1,1,0,0,1,0,0,0,1,0,0,0,0,0,0,1],"bins":[-0.4000556170940399,-0.3889967203140259,-0.37793785333633423,-0.3668789565563202,-0.35582005977630615,-0.3447611629962921,-0.3337022662162781,-0.3226433992385864,-0.3115845024585724,-0.30052560567855835,-0.2894667387008667,-0.27840784192085266,-0.2673489451408386,-0.2562900483608246,-0.24523116648197174,-0.2341722846031189,-0.22311338782310486,-0.21205449104309082,-0.20099560916423798,-0.18993672728538513,-0.1788778305053711,-0.16781893372535706,-0.1567600518465042,-0.14570116996765137,-0.13464227318763733,-0.12358338385820389,-0.11252449452877045,-0.101465605199337,-0.09040671586990356,-0.07934782654047012,-0.06828893721103668,-0.05723004788160324,-0.04617118835449219,-0.035112299025058746,-0.024053409695625305,-0.012994520366191864,-0.0019356310367584229,0.009123258292675018,0.02018214762210846,0.0312410369515419,0.04229992628097534,0.05335881561040878,0.06441770493984222,0.07547659426927567,0.0865354835987091,0.09759437292814255,0.10865326225757599,0.11971215158700943,0.13077104091644287,0.1418299376964569,0.15288881957530975,0.1639477014541626,0.17500659823417664,0.18606549501419067,0.19712437689304352,0.20818325877189636,0.2192421555519104,0.23030105233192444,0.24135993421077728,0.2524188160896301,0.26347771286964417,0.2745366096496582,0.28559547662734985,0.2966543734073639,0.30771327018737793]},"train_loss":-3.2910266898528873,"gradients/model.lin1.weights":{"_type":"histogram","values":[2,0,0,1,1,1,0,0,0,0,0,0,0,3,0,1,0,0,0,1,2,0,2,3,8,6,10,14,13,18,419,16,13,11,10,3,9,6,2,2,2,1,2,3,1,1,3,0,2,2,1,1,0,0,1,0,1,0,1,0,0,0,0,1],"bins":[-0.32821550965309143,-0.31742581725120544,-0.30663615465164185,-0.29584646224975586,-0.28505679965019226,-0.2742671072483063,-0.2634774446487427,-0.2526877522468567,-0.2418980747461319,-0.2311083972454071,-0.2203187197446823,-0.20952904224395752,-0.19873934984207153,-0.18794967234134674,-0.17715999484062195,-0.16637031733989716,-0.15558063983917236,-0.14479096233844757,-0.13400128483772278,-0.12321159988641739,-0.1124219223856926,-0.1016322448849678,-0.09084255993366241,-0.08005288243293762,-0.06926320493221283,-0.05847352743148804,-0.047683846205472946,-0.036894164979457855,-0.026104487478733063,-0.015314808115363121,-0.004525128751993179,0.006264550611376762,0.017054259777069092,0.027843939140439034,0.038633618503808975,0.049423299729824066,0.06021297723054886,0.07100265473127365,0.08179233968257904,0.09258201718330383,0.10337169468402863,0.11416137218475342,0.12495104968547821,0.135740727186203,0.146530419588089,0.15732009708881378,0.16810977458953857,0.17889945209026337,0.18968912959098816,0.20047880709171295,0.21126848459243774,0.22205816209316254,0.23284783959388733,0.24363753199577332,0.2544271945953369,0.2652168869972229,0.2760065793991089,0.2867962419986725,0.29758593440055847,0.30837559700012207,0.31916528940200806,0.32995495200157166,0.34074464440345764,0.35153430700302124,0.3623239994049072]},"_timestamp":1.752267368579744e+09,"gradients/model.lin5.weights":{"_type":"histogram","values":[1,0,0,1,1,0,1,0,0,1,1,0,0,0,0,0,0,1,0,1,0,0,1,1,0,1,1,1,1,0,1,0,0,1,1,1,0,0,0,2,0,0,0,0,1,0,0,0,0,0,0,0,0,0,0,0,1,1,0,1,0,0,46,410],"bins":[-27.91284942626953,-27.470121383666992,-27.027395248413086,-26.584667205810547,-26.141939163208008,-25.6992130279541,-25.256484985351562,-24.813756942749023,-24.371030807495117,-23.928302764892578,-23.48557472229004,-23.042848587036133,-22.600120544433594,-22.157392501831055,-21.71466636657715,-21.27193832397461,-20.82921028137207,-20.386484146118164,-19.943756103515625,-19.501028060913086,-19.05830192565918,-18.61557388305664,-18.1728458404541,-17.730119705200195,-17.287391662597656,-16.844663619995117,-16.40193748474121,-15.959209442138672,-15.516481399536133,-15.07375431060791,-14.631027221679688,-14.188299179077148,-13.74557113647461,-13.302844047546387,-12.860116958618164,-12.417388916015625,-11.974661827087402,-11.53193473815918,-11.08920669555664,-10.646479606628418,-10.203752517700195,-9.761024475097656,-9.318297386169434,-8.875570297241211,-8.432842254638672,-7.990115165710449,-7.547387599945068,-7.104660511016846,-6.661932945251465,-6.219205379486084,-5.776477813720703,-5.3337507247924805,-4.8910231590271,-4.448295593261719,-4.005568504333496,-3.5628409385681152,-3.1201136112213135,-2.6773860454559326,-2.234658718109131,-1.7919312715530396,-1.3492038249969482,-0.9064764976501465,-0.4637490510940552,-0.021021634340286255,0.42170578241348267]},"test_loss":8945.322773972603,"_wandb":{"runtime":43},"gradients/model.lin3.biases":{"bins":[-0.6469930410385132,-0.6218940019607544,-0.5967950224876404,-0.5716960430145264,-0.5465970039367676,-0.5214979648590088,-0.4963989853858948,-0.4712999761104584,-0.446200966835022,-0.42110195755958557,-0.39600294828414917,-0.37090393900871277,-0.34580492973327637,-0.32070592045783997,-0.29560691118240356,-0.27050790190696716,-0.24540889263153076,-0.22030988335609436,-0.19521087408065796,-0.17011186480522156,-0.14501285552978516,-0.11991384625434875,-0.09481483697891235,-0.06971582770347595,-0.04461681842803955,-0.01951780915260315,0.005581200122833252,0.030680209398269653,0.055779218673706055,0.08087822794914246,0.10597723722457886,0.13107624650001526,0.15617519617080688,0.1812742054462433,0.2063732147216797,0.2314722239971161,0.2565712332725525,0.2816702425479889,0.3067692518234253,0.3318682610988617,0.3569672703742981,0.3820662796497345,0.4071652889251709,0.4322642982006073,0.4573633074760437,0.4824623167514801,0.5075613260269165,0.5326603651046753,0.5577593445777893,0.5828583240509033,0.6079573631286621,0.6330564022064209,0.6581553816795349,0.6832543611526489,0.7083534002304077,0.7334524393081665,0.7585514187812805,0.7836503982543945,0.8087494373321533,0.8338484764099121,0.8589474558830261,0.8840464353561401,0.9091454744338989,0.9342445135116577,0.9593434929847717],"_type":"histogram","values":[2,0,0,0,1,1,0,0,1,0,0,4,3,0,2,1,1,4,4,3,2,5,2,1,5,261,10,4,4,3,3,3,5,4,1,2,3,4,1,0,2,0,2,0,2,0,1,1,0,0,0,0,0,1,0,0,0,0,0,0,0,0,0,1]},"gradients/model.lin4.weights":{"bins":[-2.3522698879241943,-2.275190591812134,-2.1981112957000732,-2.1210319995880127,-2.043952703475952,-1.9668734073638916,-1.889794111251831,-1.8127148151397705,-1.73563551902771,-1.6585562229156494,-1.5814769268035889,-1.5043976306915283,-1.4273183345794678,-1.3502390384674072,-1.2731597423553467,-1.1960804462432861,-1.1190011501312256,-1.041921854019165,-0.9648425579071045,-0.887763261795044,-0.8106839656829834,-0.7336046695709229,-0.6565253734588623,-0.5794460773468018,-0.5023667812347412,-0.42528748512268066,-0.3482081890106201,-0.27112889289855957,-0.19404959678649902,-0.11697030067443848,-0.03989100456237793,0.03718829154968262,0.11426734924316406,0.1913466453552246,0.26842594146728516,0.3455052375793457,0.42258453369140625,0.4996638298034668,0.5767431259155273,0.6538224220275879,0.7309017181396484,0.807981014251709,0.8850603103637695,0.9621396064758301,1.0392189025878906,1.1162981986999512,1.1933774948120117,1.2704567909240723,1.3475360870361328,1.4246153831481934,1.501694679260254,1.5787739753723145,1.655853271484375,1.7329325675964355,1.810011863708496,1.8870911598205566,1.9641704559326172,2.0412497520446777,2.1183290481567383,2.195408344268799,2.2724876403808594,2.34956693649292,2.4266462326049805,2.503725528717041,2.5808048248291016],"_type":"histogram","values":[2,0,0,1,2,4,1,4,9,8,11,14,12,15,27,15,32,34,42,34,37,42,46,50,44,53,69,69,86,209,12107,234,184,116,92,98,106,70,67,67,39,37,28,35,25,26,16,11,14,6,11,11,4,7,5,2,3,2,2,1,0,1,0,1]},"gradients/model.lin5.biases":{"bins":[-9.004820823669434,-8.859952926635742,-8.715084075927734,-8.570216178894043,-8.425347328186035,-8.280479431152344,-8.135611534118652,-7.9907426834106445,-7.845874786376953,-7.7010064125061035,-7.556138038635254,-7.411269664764404,-7.266401290893555,-7.121532917022705,-6.976665019989014,-6.831796646118164,-6.6869282722473145,-6.542059898376465,-6.397191524505615,-6.252323627471924,-6.107455253601074,-5.962586879730225,-5.817718505859375,-5.672850131988525,-5.527981758117676,-5.383113861083984,-5.238245487213135,-5.093377113342285,-4.9485087394714355,-4.803640365600586,-4.6587724685668945,-4.513904094696045,-4.369035720825195,-4.224167346954346,-4.079298973083496,-3.9344308376312256,-3.789562702178955,-3.6446943283081055,-3.499825954437256,-3.3549578189849854,-3.2100894451141357,-3.0652213096618652,-2.9203529357910156,-2.775484561920166,-2.6306164264678955,-2.485748052597046,-2.3408796787261963,-2.196011543273926,-2.051143169403076,-1.9062749147415161,-1.761406660079956,-1.6165382862091064,-1.4716700315475464,-1.3268017768859863,-1.1819335222244263,-1.0370652675628662,-0.8921968936920166,-0.7473286390304565,-0.6024603843688965,-0.45759207010269165,-0.3127237856388092,-0.16785550117492676,-0.02298721671104431,0.12188106775283813,0.2667493522167206],"_type":"histogram","values":[1,0,0,0,0,0,0,0,0,0,0,0,0,0,0,0,0,0,0,0,0,0,0,0,0,0,0,0,0,0,0,0,0,0,0,0,0,0,0,0,0,0,0,0,0,0,0,0,0,0,0,0,0,0,0,0,0,0,0,0,1,0,9,1]}}