{"_wandb":{"runtime":317},"gradients/model.lin5.weights":{"_type":"histogram","values":[1,0,0,0,0,0,0,1,0,1,1,1,0,2,0,1,1,1,1,0,0,1,1,1,0,0,1,0,0,1,0,6,30,420,2,2,1,0,1,0,0,0,0,1,0,0,0,0,0,0,0,0,0,0,0,0,0,0,0,0,0,0,0,1],"bins":[-223.64085388183594,-216.8673553466797,-210.09385681152344,-203.3203582763672,-196.54684448242188,-189.77334594726562,-182.99984741210938,-176.22634887695312,-169.45285034179688,-162.67935180664062,-155.9058380126953,-149.13233947753906,-142.3588409423828,-135.58534240722656,-128.8118438720703,-122.03833770751953,-115.26483917236328,-108.49134063720703,-101.71783447265625,-94.9443359375,-88.17083740234375,-81.39733123779297,-74.62383270263672,-67.85033416748047,-61.07683181762695,-54.30332946777344,-47.52983093261719,-40.75632858276367,-33.982826232910156,-27.209327697753906,-20.43582534790039,-13.662324905395508,-6.888824462890625,-0.11532354354858398,6.658177375793457,13.431678771972656,20.20517921447754,26.978679656982422,33.75218200683594,40.52568054199219,47.2991828918457,54.07268524169922,60.84618377685547,67.61968231201172,74.3931884765625,81.16668701171875,87.940185546875,94.71369171142578,101.48719024658203,108.26068878173828,115.03419494628906,121.80769348144531,128.58119201660156,135.3546905517578,142.12818908691406,148.90170288085938,155.67520141601562,162.44869995117188,169.22219848632812,175.99569702148438,182.76919555664062,189.54270935058594,196.3162078857422,203.08970642089844,209.8632049560547]},"gradients/model.lin4.weights":{"bins":[-27.633028030395508,-26.872163772583008,-26.11130142211914,-25.35043716430664,-24.58957290649414,-23.82870864868164,-23.06784439086914,-22.306982040405273,-21.546117782592773,-20.785253524780273,-20.024391174316406,-19.263526916503906,-18.502662658691406,-17.741798400878906,-16.980934143066406,-16.22007179260254,-15.459207534790039,-14.698343276977539,-13.937479972839355,-13.176616668701172,-12.415752410888672,-11.654888153076172,-10.894024848937988,-10.133161544799805,-9.372297286987305,-8.611433029174805,-7.850569725036621,-7.089705944061279,-6.3288421630859375,-5.567978382110596,-4.807114601135254,-4.046250820159912,-3.2853851318359375,-2.5245213508605957,-1.763657569885254,-1.002793788909912,-0.2419300079345703,0.5189337730407715,1.2797975540161133,2.040661334991455,2.801525115966797,3.5623888969421387,4.3232526779174805,5.084116458892822,5.844980239868164,6.605844020843506,7.366707801818848,8.127571105957031,8.888435363769531,9.649299621582031,10.410162925720215,11.171026229858398,11.931890487670898,12.692754745483398,13.453618049621582,14.214481353759766,14.975345611572266,15.736209869384766,16.497074127197266,17.257936477661133,18.018800735473633,18.779664993286133,19.54052734375,20.3013916015625,21.062255859375],"_type":"histogram","values":[1,1,1,1,0,2,0,1,1,2,1,1,1,3,1,1,4,3,2,8,7,8,11,16,8,10,12,13,11,32,36,38,21,31,98,293,13124,227,75,70,43,34,30,21,18,14,11,13,9,5,3,5,4,4,1,2,0,1,0,2,1,0,2,1]},"epoch":499,"test_rmse":13.608130383811298,"gradients/model.lin4.biases":{"bins":[-22.191791534423828,-21.5689754486084,-20.94615936279297,-20.32334327697754,-19.70052719116211,-19.07771110534668,-18.45489501953125,-17.83207893371582,-17.20926284790039,-16.586448669433594,-15.963631629943848,-15.340815544128418,-14.718000411987305,-14.095184326171875,-13.472368240356445,-12.849552154541016,-12.226736068725586,-11.603919982910156,-10.981103897094727,-10.358287811279297,-9.735471725463867,-9.112656593322754,-8.489840507507324,-7.8670244216918945,-7.244208335876465,-6.621392250061035,-5.9985761642456055,-5.375760555267334,-4.752944469451904,-4.130128383636475,-3.507312536239624,-2.8844966888427734,-2.261678695678711,-1.6388627290725708,-1.0160467624664307,-0.3932307958602905,0.2295851707458496,0.8524011373519897,1.4752171039581299,2.0980329513549805,2.72084903717041,3.34366512298584,3.9664809703826904,4.589296817779541,5.212112903594971,5.8349289894104,6.457744598388672,7.080560684204102,7.703376770019531,8.326192855834961,8.94900894165039,9.57182502746582,10.19464111328125,10.817456245422363,11.440272331237793,12.063088417053223,12.685904502868652,13.308720588684082,13.931536674499512,14.554352760314941,15.177167892456055,15.799983978271484,16.422800064086914,17.045616149902344,17.668432235717773],"_type":"histogram","values":[1,1,1,0,0,1,1,0,0,1,0,1,0,0,0,0,0,0,0,0,0,1,0,0,0,0,0,0,0,0,0,1,0,1,1,98,0,1,0,0,0,0,1,0,0,0,0,1,0,0,0,2,1,1,0,0,0,1,0,0,2,0,0,1]},"_step":499,"gradients/model.lin2.biases":{"values":[1,0,0,0,0,0,0,0,0,0,0,0,0,0,1,0,0,1,0,0,0,0,1,1,1,0,2,0,1,0,1,0,2,3,2,1,0,0,3,10,179,7,2,3,2,1,2,3,2,0,1,1,2,0,0,2,0,0,0,0,0,1,0,1],"bins":[-3.426938533782959,-3.3431363105773926,-3.259334087371826,-3.1755318641662598,-3.0917296409606934,-3.007927417755127,-2.9241251945495605,-2.840322971343994,-2.7565207481384277,-2.6727185249328613,-2.588916301727295,-2.5051140785217285,-2.421311855316162,-2.3375096321105957,-2.2537074089050293,-2.169905185699463,-2.0861029624938965,-2.00230073928833,-1.9184985160827637,-1.8346962928771973,-1.7508940696716309,-1.6670918464660645,-1.583289623260498,-1.4994874000549316,-1.4156851768493652,-1.3318829536437988,-1.2480807304382324,-1.164278507232666,-1.0804762840270996,-0.9966740608215332,-0.9128718376159668,-0.8290696144104004,-0.7452676296234131,-0.6614654064178467,-0.5776631832122803,-0.49386096000671387,-0.41005873680114746,-0.32625651359558105,-0.24245429039001465,-0.15865206718444824,-0.07484984397888184,0.00895237922668457,0.09275460243225098,0.17655682563781738,0.2603590488433838,0.3441612720489502,0.4279634952545166,0.511765718460083,0.5955679416656494,0.6793701648712158,0.7631723880767822,0.8469746112823486,0.930776834487915,1.0145790576934814,1.0983812808990479,1.1821835041046143,1.2659857273101807,1.349787950515747,1.4335901737213135,1.5173923969268799,1.6011946201324463,1.6849968433380127,1.768799066543579,1.8526012897491455,1.936403512954712],"_type":"histogram"},"_timestamp":1.7522373305768826e+09,"gradients/model.lin5.biases":{"bins":[-147.94970703125,-145.63548278808594,-143.32127380371094,-141.00704956054688,-138.6928253173828,-136.3786163330078,-134.06439208984375,-131.7501678466797,-129.4359588623047,-127.12173461914062,-124.8075180053711,-122.49329376220703,-120.1790771484375,-117.86486053466797,-115.5506362915039,-113.23641967773438,-110.92219543457031,-108.60797882080078,-106.29376220703125,-103.97953796386719,-101.66532135009766,-99.35110473632812,-97.03688049316406,-94.72266387939453,-92.408447265625,-90.09422302246094,-87.7800064086914,-85.46578979492188,-83.15156555175781,-80.83734893798828,-78.52313232421875,-76.20890808105469,-73.89468383789062,-71.5804672241211,-69.26625061035156,-66.9520263671875,-64.63780975341797,-62.32358932495117,-60.009368896484375,-57.695152282714844,-55.38093185424805,-53.06671142578125,-50.75249481201172,-48.43827438354492,-46.124053955078125,-43.809837341308594,-41.4956169128418,-39.181396484375,-36.8671760559082,-34.55295944213867,-32.238739013671875,-29.92452049255371,-27.610300064086914,-25.29608154296875,-22.981863021850586,-20.66764259338379,-18.353424072265625,-16.03920555114746,-13.724985122680664,-11.4107666015625,-9.09654712677002,-6.782327651977539,-4.468108654022217,-2.1538891792297363,0.16032996773719788],"_type":"histogram","values":[1,0,0,0,0,0,0,0,0,0,0,0,0,0,0,0,0,0,0,0,0,0,0,0,0,0,0,0,0,0,0,0,0,0,0,0,0,0,0,0,0,0,0,0,0,0,0,0,0,0,0,0,0,0,0,0,0,0,0,0,1,0,0,10]},"gradients/model.lin1.weights":{"values":[1,0,0,0,1,0,0,0,0,1,0,2,0,1,0,2,2,0,0,0,1,1,0,3,1,3,5,6,4,7,18,465,29,11,4,6,7,2,1,2,0,3,1,1,1,0,2,2,0,0,0,1,0,1,1,0,0,0,0,0,0,0,0,1],"bins":[-4.622759819030762,-4.4772233963012695,-4.331686973571777,-4.186150550842285,-4.040614128112793,-3.895077705383301,-3.7495412826538086,-3.6040048599243164,-3.458468437194824,-3.312932014465332,-3.16739559173584,-3.0218591690063477,-2.8763227462768555,-2.7307863235473633,-2.585249900817871,-2.439713478088379,-2.2941770553588867,-2.1486406326293945,-2.0031042098999023,-1.8575677871704102,-1.712031364440918,-1.5664949417114258,-1.4209585189819336,-1.2754220962524414,-1.1298856735229492,-0.984349250793457,-0.8388128280639648,-0.6932764053344727,-0.5477399826049805,-0.4022035598754883,-0.2566671371459961,-0.1111307144165039,0.03440523147583008,0.17994165420532227,0.32547807693481445,0.47101449966430664,0.6165509223937988,0.762087345123291,0.9076237678527832,1.0531601905822754,1.1986966133117676,1.3442330360412598,1.489769458770752,1.6353058815002441,1.7808423042297363,1.9263787269592285,2.0719151496887207,2.217451572418213,2.362987995147705,2.5085244178771973,2.6540608406066895,2.7995972633361816,2.945133686065674,3.090670108795166,3.236206531524658,3.3817429542541504,3.5272793769836426,3.6728157997131348,3.818352222442627,3.963888645172119,4.109425067901611,4.2549614906311035,4.400497913360596,4.546034336090088,4.69157075881958],"_type":"histogram"},"gradients/model.lin2.weights":{"_type":"histogram","values":[1,0,0,1,0,0,0,1,0,0,1,0,0,0,0,1,0,2,1,1,3,0,3,2,1,4,3,8,3,6,7,3,11,19,11,17,19,27,35,33,54,287,8474,265,98,48,39,23,23,11,15,6,7,6,6,2,3,1,2,1,1,1,1,2],"bins":[-4.479197978973389,-4.373855113983154,-4.26851224899292,-4.1631693840026855,-4.057826995849609,-3.952483892440796,-3.8471412658691406,-3.7417984008789062,-3.636455535888672,-3.5311126708984375,-3.425769805908203,-3.320427179336548,-3.2150843143463135,-3.109741449356079,-3.004398822784424,-2.8990559577941895,-2.793713092803955,-2.6883702278137207,-2.5830273628234863,-2.477684736251831,-2.3723418712615967,-2.2669990062713623,-2.161656379699707,-2.0563135147094727,-1.9509706497192383,-1.845627784729004,-1.740285038948059,-1.6349422931671143,-1.5295994281768799,-1.4242565631866455,-1.3189138174057007,-1.2135710716247559,-1.1082284450531006,-1.0028855800628662,-0.8975428342819214,-0.7922000288963318,-0.6868572235107422,-0.5815144181251526,-0.476171612739563,-0.3708288073539734,-0.2654860019683838,-0.1601431965827942,-0.05480039119720459,0.05054241418838501,0.1558852195739746,0.2612280249595642,0.3665708303451538,0.4719136357307434,0.577256441116333,0.6825992465019226,0.7879420518875122,0.8932848572731018,0.9986276626586914,1.1039705276489258,1.2093132734298706,1.3146560192108154,1.4199988842010498,1.5253417491912842,1.630684494972229,1.7360272407531738,1.8413701057434082,1.9467129707336426,2.052055835723877,2.1573984622955322,2.2627413272857666]},"_runtime":317,"gradients/model.lin3.weights":{"values":[1,1,0,0,6,4,3,5,3,9,2,5,8,11,5,8,14,17,13,22,33,27,33,47,42,48,48,60,80,92,109,114,156,216,1039,25249,451,206,162,90,79,65,50,26,21,19,24,17,19,11,7,4,2,2,3,0,5,1,1,1,3,0,0,1],"bins":[-2.489023208618164,-2.4181594848632812,-2.3472955226898193,-2.2764317989349365,-2.2055678367614746,-2.134704113006592,-2.06384015083313,-1.992976427078247,-1.9221125841140747,-1.8512487411499023,-1.78038489818573,-1.7095210552215576,-1.6386573314666748,-1.5677934885025024,-1.49692964553833,-1.4260658025741577,-1.3552019596099854,-1.284338116645813,-1.2134742736816406,-1.1426104307174683,-1.071746587753296,-1.000882863998413,-0.9300190210342407,-0.8591551780700684,-0.788291335105896,-0.7174274921417236,-0.6465636491775513,-0.5756998658180237,-0.5048360228538513,-0.43397217988967896,-0.363108366727829,-0.292244553565979,-0.22138071060180664,-0.15051688253879547,-0.0796530544757843,-0.008789226412773132,0.06207460165023804,0.1329384297132492,0.20380225777626038,0.27466607093811035,0.3455299139022827,0.4163937568664551,0.48725757002830505,0.558121383190155,0.6289852261543274,0.6998490691184998,0.7707128524780273,0.8415766954421997,0.9124405384063721,0.9833043813705444,1.0541682243347168,1.1250320672988892,1.1958959102630615,1.2667596340179443,1.3376234769821167,1.408487319946289,1.4793511629104614,1.5502150058746338,1.6210788488388062,1.6919426918029785,1.7628064155578613,1.8336702585220337,1.904534101486206,1.9753979444503784,2.046261787414551],"_type":"histogram"},"test_loss":1.5350870969863012e+08,"gradients/model.lin3.biases":{"bins":[-4.522223949432373,-4.3939008712768555,-4.265578269958496,-4.1372551918029785,-4.008932113647461,-3.8806090354919434,-3.752286195755005,-3.6239633560180664,-3.495640277862549,-3.3673171997070312,-3.2389943599700928,-3.1106715202331543,-2.9823484420776367,-2.854025363922119,-2.7257025241851807,-2.597379684448242,-2.4690566062927246,-2.340733528137207,-2.2124106884002686,-2.08408784866333,-1.9557647705078125,-1.8274418115615845,-1.6991188526153564,-1.5707958936691284,-1.4424729347229004,-1.3141499757766724,-1.1858270168304443,-1.0575040578842163,-0.9291810989379883,-0.8008581399917603,-0.6725351810455322,-0.5442122220993042,-0.41588878631591797,-0.28756582736968994,-0.15924286842346191,-0.030919909477233887,0.09740304946899414,0.22572600841522217,0.3540489673614502,0.4823719263076782,0.6106948852539062,0.7390178442001343,0.8673408031463623,0.9956637620925903,1.1239867210388184,1.2523096799850464,1.3806326389312744,1.5089555978775024,1.6372785568237305,1.7656015157699585,1.8939244747161865,2.022247314453125,2.1505703926086426,2.27889347076416,2.4072163105010986,2.535539150238037,2.6638622283935547,2.7921853065490723,2.9205081462860107,3.048830986022949,3.177154064178467,3.3054771423339844,3.433799982070923,3.5621228218078613,3.690445899963379],"_type":"histogram","values":[1,1,0,0,2,1,0,0,0,2,1,2,0,0,0,1,1,1,2,0,2,2,1,0,1,1,0,2,1,2,1,1,1,1,10,289,3,1,5,2,0,3,1,4,0,0,0,1,3,0,1,1,2,0,1,0,0,0,0,0,1,0,0,1]},"train_loss":-9.333594606633772,"gradients/model.lin1.biases":{"_type":"histogram","values":[1,0,0,0,0,0,0,0,0,0,0,1,0,0,0,0,0,0,1,0,1,0,0,0,0,0,0,0,1,0,0,1,1,1,0,6,87,5,1,4,0,0,2,1,0,1,0,0,0,0,1,0,0,0,2,1,0,0,0,0,0,0,0,1],"bins":[-3.1579461097717285,-3.071693181991577,-2.985440492630005,-2.8991875648498535,-2.8129348754882812,-2.72668194770813,-2.6404290199279785,-2.5541763305664062,-2.467923402786255,-2.3816704750061035,-2.2954177856445312,-2.20916485786438,-2.1229119300842285,-2.0366592407226562,-1.9504063129425049,-1.864153504371643,-1.7779006958007812,-1.6916478872299194,-1.6053950786590576,-1.5191421508789062,-1.4328893423080444,-1.3466365337371826,-1.2603836059570312,-1.1741307973861694,-1.0878779888153076,-1.0016251802444458,-0.9153723120689392,-0.8291194438934326,-0.7428666353225708,-0.656613826751709,-0.5703609585762024,-0.4841081202030182,-0.3978555202484131,-0.3116026818752289,-0.22534984350204468,-0.13909700512886047,-0.05284416675567627,0.033408671617507935,0.11966150999069214,0.20591434836387634,0.29216718673706055,0.37842002511024475,0.46467286348342896,0.5509257316589355,0.6371785402297974,0.7234313488006592,0.8096842169761658,0.8959370851516724,0.9821898937225342,1.068442702293396,1.1546955108642578,1.2409484386444092,1.327201247215271,1.4134540557861328,1.4997069835662842,1.585959792137146,1.6722126007080078,1.7584654092788696,1.8447182178497314,1.9309711456298828,2.017223834991455,2.1034767627716064,2.189729690551758,2.27598237991333,2.3622353076934814]}}