{"train_loss":-3.540319610060307,"gradients/model.lin5.weights":{"values":[1,0,0,0,0,0,2,0,0,0,0,0,0,0,1,1,0,0,1,0,2,0,0,0,1,0,1,0,0,0,2,0,1,1,0,0,1,0,0,0,1,0,1,0,2,0,3,7,10,391,12,5,1,1,8,11,6,2,3,0,0,0,0,1],"bins":[-3.041196346282959,-2.9793131351470947,-2.9174299240112305,-2.855546712875366,-2.793663501739502,-2.731780529022217,-2.6698973178863525,-2.6080141067504883,-2.546130895614624,-2.4842476844787598,-2.4223644733428955,-2.3604812622070312,-2.298598289489746,-2.236715078353882,-2.1748318672180176,-2.1129486560821533,-2.051065444946289,-1.9891822338104248,-1.9272990226745605,-1.8654159307479858,-1.8035327196121216,-1.7416495084762573,-1.6797664165496826,-1.6178832054138184,-1.555999994277954,-1.4941167831420898,-1.4322335720062256,-1.3703504800796509,-1.3084672689437866,-1.2465840578079224,-1.1847009658813477,-1.1228177547454834,-1.0609346628189087,-0.9990514516830444,-0.937168300151825,-0.8752851486206055,-0.8134019374847412,-0.751518726348877,-0.6896355748176575,-0.627752423286438,-0.5658692121505737,-0.5039860010147095,-0.44210284948349,-0.3802196681499481,-0.31833648681640625,-0.2564533054828644,-0.1945701241493225,-0.13268694281578064,-0.07080376148223877,-0.0089205801486969,0.05296260118484497,0.11484578251838684,0.1767289638519287,0.23861214518547058,0.30049532651901245,0.3623785078525543,0.4242616891860962,0.48614487051963806,0.5480280518531799,0.6099112033843994,0.6717944145202637,0.7336776256561279,0.7955607771873474,0.8574439287185669,0.9193271398544312],"_type":"histogram"},"gradients/model.lin4.biases":{"bins":[-0.19898779690265656,-0.19199924170970917,-0.18501070141792297,-0.17802214622497559,-0.1710335910320282,-0.1640450358390808,-0.15705648064613342,-0.15006794035434723,-0.14307938516139984,-0.13609082996845245,-0.12910228967666626,-0.12211373448371887,-0.11512517929077148,-0.1081366240978241,-0.1011480763554573,-0.09415952861309052,-0.08717097342014313,-0.08018241822719574,-0.07319387048482895,-0.06620532274246216,-0.05921676754951477,-0.05222821608185768,-0.04523966461420059,-0.0382511131465435,-0.031262561678886414,-0.024274010211229324,-0.017285458743572235,-0.010296907275915146,-0.0033083558082580566,0.0036801956593990326,0.010668747127056122,0.01765729859471321,0.0246458500623703,0.03163440153002739,0.03862295299768448,0.04561150446534157,0.05260005593299866,0.059588607400655746,0.06657715886831284,0.07356570661067963,0.08055426180362701,0.0875428169965744,0.09453136473894119,0.10151991248130798,0.10850846767425537,0.11549702286720276,0.12248557060956955,0.12947411835193634,0.13646267354488373,0.14345122873783112,0.1504397690296173,0.1574283242225647,0.16441687941551208,0.17140543460845947,0.17839398980140686,0.18538253009319305,0.19237108528614044,0.19935964047908783,0.20634818077087402,0.2133367359638214,0.2203252911567688,0.2273138463497162,0.23430240154266357,0.24129094183444977,0.24827949702739716],"_type":"histogram","values":[1,0,0,0,0,0,0,0,0,1,0,0,0,0,0,0,1,0,1,1,1,3,1,3,1,2,0,3,94,2,2,0,0,0,0,2,0,0,0,0,0,0,0,0,0,0,0,0,0,0,0,0,0,0,0,0,0,0,0,0,0,0,0,1]},"gradients/model.lin3.weights":{"_type":"histogram","values":[2,1,3,1,7,13,8,9,12,23,35,24,43,72,80,129,181,227,308,411,614,785,1151,22417,636,419,308,219,164,116,95,64,49,50,41,20,14,18,8,5,4,4,0,1,1,1,1,0,2,1,0,0,1,0,0,0,0,0,0,1,0,0,0,1],"bins":[-0.10679776221513748,-0.10216263681650162,-0.09752751141786575,-0.09289237856864929,-0.08825725317001343,-0.08362212777137756,-0.0789870023727417,-0.07435187697410583,-0.06971675157546997,-0.06508161872625351,-0.060446493327617645,-0.05581136792898178,-0.05117624253034592,-0.046541113406419754,-0.04190598800778389,-0.03727085888385773,-0.03263573348522186,-0.02800060622394085,-0.023365478962659836,-0.01873035356402397,-0.014095226302742958,-0.009460099041461945,-0.004824972711503506,-0.00018984591588377953,0.004445280879735947,0.00908040814101696,0.013715534470975399,0.018350660800933838,0.02298578806221485,0.027620915323495865,0.03225604072213173,0.03689116984605789,0.04152628779411316,0.04616141319274902,0.050796542316675186,0.05543166771531105,0.06006679683923721,0.06470192223787308,0.06933704763650894,0.0739721730351448,0.07860730588436127,0.08324243128299713,0.087877556681633,0.09251268208026886,0.09714780747890472,0.10178293287754059,0.10641806572675705,0.11105319112539291,0.11568831652402878,0.12032344192266464,0.1249585673213005,0.12959370017051697,0.13422882556915283,0.1388639509677887,0.14349907636642456,0.14813420176506042,0.1527693271636963,0.15740445256233215,0.16203957796096802,0.16667471826076508,0.17130984365940094,0.1759449690580368,0.18058009445667267,0.18521521985530853,0.1898503452539444]},"gradients/model.lin2.weights":{"_type":"histogram","values":[1,0,0,3,0,0,0,0,0,0,1,3,1,3,0,4,4,3,8,6,8,6,6,11,28,33,37,47,71,61,88,134,158,214,306,522,7072,230,123,95,86,52,51,29,16,22,14,10,8,5,2,1,3,4,2,0,0,3,2,0,0,1,0,2],"bins":[-0.23617245256900787,-0.22961242496967316,-0.22305238246917725,-0.21649235486984253,-0.20993231236934662,-0.2033722847700119,-0.196812242269516,-0.19025221467018127,-0.18369217216968536,-0.17713214457035065,-0.17057210206985474,-0.16401207447052002,-0.1574520319700241,-0.1508920043706894,-0.14433196187019348,-0.13777193427085876,-0.13121190667152405,-0.12465186417102814,-0.11809182912111282,-0.11153179407119751,-0.1049717590212822,-0.09841172397136688,-0.09185168892145157,-0.08529165387153625,-0.07873162627220154,-0.07217159122228622,-0.06561155617237091,-0.0590515173971653,-0.05249148607254028,-0.04593145102262497,-0.039371415972709656,-0.03281138092279434,-0.02625134587287903,-0.019691310822963715,-0.013131276704370975,-0.006571242120116949,-1.1207535862922668e-05,0.006548827048391104,0.01310886163264513,0.01966889575123787,0.026228930801153183,0.0327889658510685,0.03934900090098381,0.045909035950899124,0.05246906727552414,0.05902910232543945,0.06558913737535477,0.07214917242527008,0.0787092074751854,0.08526924252510071,0.09182927757501602,0.09838931262493134,0.10494934767484665,0.11150938272476196,0.11806941777467728,0.12462945282459259,0.1311894804239273,0.13774952292442322,0.14430955052375793,0.15086959302425385,0.15742962062358856,0.16398966312408447,0.1705496907234192,0.1771097332239151,0.18366976082324982]},"_runtime":8.330304822,"gradients/model.lin1.biases":{"bins":[-0.2441287785768509,-0.23798708617687225,-0.23184539377689362,-0.22570371627807617,-0.21956202387809753,-0.2134203314781189,-0.20727863907814026,-0.20113694667816162,-0.19499525427818298,-0.18885357677936554,-0.1827118843793869,-0.17657019197940826,-0.17042849957942963,-0.164286807179451,-0.15814512968063354,-0.1520034372806549,-0.14586174488067627,-0.13972005248069763,-0.133578360080719,-0.12743668258190155,-0.12129499018192291,-0.11515329778194427,-0.10901160538196564,-0.1028699204325676,-0.09672822803258896,-0.09058653563261032,-0.08444485068321228,-0.07830315828323364,-0.072161465883255,-0.06601978093385696,-0.059878088533878326,-0.05373639985918999,-0.04759471118450165,-0.04145302250981331,-0.03531133383512497,-0.029169641435146332,-0.023027952760457993,-0.016886264085769653,-0.010744573548436165,-0.004602883942425251,0.0015388056635856628,0.007680495269596577,0.01382218487560749,0.01996387541294098,0.026105564087629318,0.03224725276231766,0.038388945162296295,0.044530633836984634,0.050672322511672974,0.05681401118636131,0.06295569986104965,0.06909739226102829,0.07523907721042633,0.08138076961040497,0.0875224620103836,0.09366414695978165,0.09980583935976028,0.10594753175973892,0.11208921670913696,0.1182309091091156,0.12437260150909424,0.13051429390907288,0.13665597140789032,0.14279766380786896,0.1489393562078476],"_type":"histogram","values":[1,0,0,0,0,1,0,0,0,0,0,0,1,0,0,0,0,1,0,0,1,1,2,0,1,0,1,1,0,2,0,1,1,2,4,1,1,0,1,80,1,2,3,1,3,0,0,1,0,0,0,0,2,0,0,0,0,0,0,1,0,0,0,2]},"epoch":11,"gradients/model.lin2.biases":{"bins":[-0.12128032743930817,-0.11686471849679947,-0.11244910955429077,-0.10803350806236267,-0.10361789911985397,-0.09920229017734528,-0.09478668868541718,-0.09037107974290848,-0.08595547080039978,-0.08153986185789108,-0.07712425291538239,-0.07270865142345428,-0.06829304248094559,-0.06387743353843689,-0.05946182832121849,-0.05504622310400009,-0.050630614161491394,-0.0462150052189827,-0.0417994000017643,-0.0373837947845459,-0.0329681858420372,-0.028552578762173653,-0.024136971682310104,-0.019721364602446556,-0.015305757522583008,-0.01089015044271946,-0.006474543362855911,-0.002058936282992363,0.0023566707968711853,0.006772277876734734,0.011187884956598282,0.01560349203646183,0.020019084215164185,0.024434691295027733,0.02885029837489128,0.03326590359210968,0.03768151253461838,0.042097121477127075,0.046512726694345474,0.05092833191156387,0.05534394085407257,0.05975954979658127,0.06417515873908997,0.06859076023101807,0.07300636917352676,0.07742197811603546,0.08183757960796356,0.08625318855047226,0.09066879749298096,0.09508440643548965,0.09950001537799835,0.10391561686992645,0.10833122581243515,0.11274683475494385,0.11716243624687195,0.12157804518938065,0.12599365413188934,0.13040925562381744,0.13482487201690674,0.13924047350883484,0.14365607500076294,0.14807169139385223,0.15248729288578033,0.15690290927886963,0.16131851077079773],"_type":"histogram","values":[2,1,1,1,2,2,0,3,2,2,2,3,1,4,4,2,0,3,3,2,3,3,2,2,1,2,2,164,3,2,1,2,0,1,0,1,2,3,1,0,0,2,0,0,1,0,0,0,0,0,0,1,0,0,0,0,0,0,0,0,0,0,0,1]},"_step":12,"gradients/model.lin3.biases":{"values":[2,0,0,2,0,2,1,1,0,6,3,2,3,6,2,3,6,4,7,3,4,4,2,6,266,3,2,4,4,1,1,0,0,1,1,0,3,0,1,1,1,0,0,0,0,1,0,0,0,0,0,0,0,0,0,0,0,0,0,0,0,0,0,1],"bins":[-0.08032143115997314,-0.07703002542257309,-0.07373861223459244,-0.07044720649719238,-0.06715580075979233,-0.06386439502239227,-0.06057298555970192,-0.057281576097011566,-0.05399017035961151,-0.05069876089692116,-0.047407351434230804,-0.04411594569683075,-0.040824536234140396,-0.03753313049674034,-0.03424172103404999,-0.030950313434004784,-0.02765890583395958,-0.024367498233914375,-0.02107609063386917,-0.017784683033823967,-0.014493274502456188,-0.011201866902410984,-0.007910458371043205,-0.004619050770998001,-0.001327643170952797,0.001963764661923051,0.005255172494798899,0.00854658056050539,0.011837988160550594,0.015129395760595798,0.018420804291963577,0.02171221189200878,0.025003619492053986,0.02829502709209919,0.031586434692144394,0.03487784415483475,0.0381692498922348,0.041460659354925156,0.04475206509232521,0.048043474555015564,0.05133488029241562,0.05462628975510597,0.057917699217796326,0.06120910495519638,0.06450051069259644,0.06779192388057709,0.07108332961797714,0.0743747353553772,0.07766614854335785,0.0809575542807579,0.08424896001815796,0.08754036575555801,0.09083177894353867,0.09412318468093872,0.09741459041833878,0.10070599615573883,0.10399740934371948,0.10728881508111954,0.11058022081851959,0.11387163400650024,0.1171630397439003,0.12045444548130035,0.12374585121870041,0.12703725695610046,0.13032867014408112],"_type":"histogram"},"test_rmse":1.2224579638247033,"gradients/model.lin4.weights":{"_type":"histogram","values":[1,1,0,1,0,2,1,0,3,2,3,4,3,9,2,8,12,16,12,11,25,31,32,45,44,37,85,96,140,177,233,376,12101,211,122,77,73,55,53,37,33,36,33,12,21,16,20,13,19,12,10,3,4,7,6,2,1,3,1,0,4,2,0,1],"bins":[-0.34256553649902344,-0.33191901445388794,-0.32127249240875244,-0.31062597036361694,-0.29997944831848145,-0.28933292627334595,-0.27868640422821045,-0.26803988218307495,-0.25739336013793945,-0.24674685299396515,-0.23610033094882965,-0.22545380890369415,-0.21480728685855865,-0.20416076481342316,-0.19351424276828766,-0.18286772072315216,-0.17222119867801666,-0.16157467663288116,-0.15092815458774567,-0.14028163254261017,-0.12963511049747467,-0.11898859590291977,-0.10834207385778427,-0.09769555181264877,-0.08704902976751328,-0.07640250772237778,-0.06575598567724228,-0.05510946735739708,-0.04446294531226158,-0.03381642326712608,-0.023169903084635735,-0.012523381970822811,-0.0018768608570098877,0.008769660256803036,0.01941618137061596,0.030062701553106308,0.040709223598241806,0.051355745643377304,0.062002263963222504,0.072648786008358,0.0832953080534935,0.093941830098629,0.1045883521437645,0.1152348741889,0.1258813887834549,0.1365279108285904,0.1471744328737259,0.1578209549188614,0.1684674769639969,0.17911399900913239,0.18976052105426788,0.20040704309940338,0.21105356514453888,0.22170008718967438,0.23234660923480988,0.24299313127994537,0.2536396384239197,0.2642861604690552,0.2749326825141907,0.28557920455932617,0.29622572660446167,0.30687224864959717,0.31751877069473267,0.32816529273986816,0.33881181478500366]},"gradients/model.lin1.weights":{"bins":[-0.27108147740364075,-0.2621856927871704,-0.2532899081707001,-0.24439410865306854,-0.2354983240365982,-0.22660253942012787,-0.21770673990249634,-0.208810955286026,-0.19991517066955566,-0.19101938605308533,-0.182123601436615,-0.17322780191898346,-0.16433201730251312,-0.15543623268604279,-0.14654043316841125,-0.13764464855194092,-0.12874886393547058,-0.11985307931900024,-0.11095728725194931,-0.10206149518489838,-0.09316571056842804,-0.0842699259519577,-0.07537413388490677,-0.06647834181785583,-0.0575825572013855,-0.04868676885962486,-0.03979098051786423,-0.030895192176103592,-0.021999403834342957,-0.013103615492582321,-0.004207827150821686,0.00468796119093895,0.013583749532699585,0.02247953787446022,0.031375326216220856,0.04027111455798149,0.049166902899742126,0.05806269124150276,0.0669584795832634,0.07585427165031433,0.08475005626678467,0.093645840883255,0.10254163295030594,0.11143742501735687,0.12033320963382721,0.12922899425029755,0.13812479376792908,0.14702057838439941,0.15591636300086975,0.1648121476173401,0.17370793223381042,0.18260373175144196,0.1914995163679123,0.20039530098438263,0.20929110050201416,0.2181868851184845,0.22708266973495483,0.23597845435142517,0.2448742389678955,0.25377002358436584,0.2626658082008362,0.2715616226196289,0.28045740723609924,0.2893531918525696,0.2982489764690399],"_type":"histogram","values":[1,0,1,0,0,0,0,0,0,0,1,0,1,2,1,1,1,0,1,3,4,6,2,3,10,11,10,12,15,11,415,13,10,15,5,7,10,6,3,4,3,2,1,1,0,1,1,0,1,2,0,0,0,0,1,0,0,0,0,1,0,0,0,1]},"_timestamp":1.7522602442906349e+09,"gradients/model.lin5.biases":{"_type":"histogram","values":[1,0,0,0,0,0,0,0,0,0,0,0,0,0,0,0,0,0,0,8,0,0,0,0,0,0,0,0,0,0,0,0,0,0,0,0,0,0,0,0,0,0,0,0,0,1,0,0,1,0,0,0,0,0,0,0,0,0,0,0,0,0,0,1],"bins":[-0.14041350781917572,-0.1333530694246292,-0.1262926459312439,-0.11923221498727798,-0.11217178404331207,-0.10511134564876556,-0.09805091470479965,-0.09099048376083374,-0.08393005281686783,-0.07686962187290192,-0.069809190928936,-0.06274875998497009,-0.05568832531571388,-0.04862789437174797,-0.04156745970249176,-0.03450702875852585,-0.027446597814559937,-0.020386166870594025,-0.013325734063982964,-0.006265302188694477,0.0007951296865940094,0.007855561561882496,0.014915993437170982,0.021976426243782043,0.029036857187747955,0.03609728813171387,0.04315771907567978,0.05021815374493599,0.0572785846889019,0.06433901935815811,0.07139945030212402,0.07845988124608994,0.08552029728889465,0.09258072823286057,0.09964115917682648,0.10670159012079239,0.1137620210647583,0.12082245945930481,0.12788288295269012,0.13494332134723663,0.14200374484062195,0.14906418323516846,0.15612462162971497,0.16318504512310028,0.1702454835176468,0.1773059070110321,0.1843663454055786,0.19142676889896393,0.19848720729351044,0.20554764568805695,0.21260806918144226,0.21966850757598877,0.22672893106937408,0.2337893694639206,0.2408497929573059,0.24791023135185242,0.2549706697463989,0.26203110814094543,0.26909151673316956,0.27615195512771606,0.2832123935222626,0.2902728319168091,0.2973332405090332,0.3043936789035797,0.3114541172981262]},"_wandb":{"runtime":8},"test_loss":6934.054794520548}