{"test_loss":14959.827054794521,"gradients/model.lin5.biases":{"_type":"histogram","values":[1,0,0,0,0,0,0,0,0,0,0,0,0,0,0,0,0,0,0,0,0,0,0,0,0,0,0,0,0,0,0,0,0,0,0,0,0,0,0,0,0,0,0,0,0,0,0,0,0,0,0,0,0,0,0,0,0,0,0,0,0,1,1,9],"bins":[-19.361637115478516,-19.059110641479492,-18.7565860748291,-18.454059600830078,-18.151535034179688,-17.849008560180664,-17.546483993530273,-17.24395751953125,-16.94143295288086,-16.638906478881836,-16.336381912231445,-16.033855438232422,-15.731329917907715,-15.428804397583008,-15.1262788772583,-14.823753356933594,-14.521227836608887,-14.21870231628418,-13.916176795959473,-13.613651275634766,-13.311125755310059,-13.008600234985352,-12.706074714660645,-12.403549194335938,-12.101022720336914,-11.798497200012207,-11.4959716796875,-11.193446159362793,-10.890920639038086,-10.588395118713379,-10.285869598388672,-9.983344078063965,-9.680818557739258,-9.37829303741455,-9.075767517089844,-8.773241996765137,-8.47071647644043,-8.168190956115723,-7.865664958953857,-7.56313943862915,-7.260613918304443,-6.958088397979736,-6.655562877655029,-6.353037357330322,-6.050511360168457,-5.74798583984375,-5.445460319519043,-5.142934799194336,-4.840409278869629,-4.537883758544922,-4.235358238220215,-3.9328324794769287,-3.6303069591522217,-3.3277814388275146,-3.0252556800842285,-2.7227301597595215,-2.4202046394348145,-2.1176791191101074,-1.8151534795761108,-1.5126278400421143,-1.2101023197174072,-0.9075767397880554,-0.6050511598587036,-0.3025255799293518,0]},"gradients/model.lin2.biases":{"_type":"histogram","values":[1,0,0,0,0,0,2,0,0,0,0,0,2,0,0,1,0,1,0,0,1,1,1,0,1,0,3,2,1,0,3,1,3,3,165,1,3,3,4,2,1,7,6,5,1,3,2,2,2,1,0,1,2,1,0,0,0,0,0,0,0,0,0,1],"bins":[-1.6135183572769165,-1.566375732421875,-1.5192331075668335,-1.4720906019210815,-1.42494797706604,-1.3778053522109985,-1.330662727355957,-1.2835201025009155,-1.236377477645874,-1.189234972000122,-1.1420923471450806,-1.094949722290039,-1.0478070974349976,-1.000664472579956,-0.9535219073295593,-0.9063793420791626,-0.8592367172241211,-0.8120940923690796,-0.7649515271186829,-0.7178089022636414,-0.6706663370132446,-0.6235237121582031,-0.5763810873031616,-0.5292385220527649,-0.4820958971977234,-0.4349533021450043,-0.38781070709228516,-0.34066808223724365,-0.29352548718452454,-0.24638289213180542,-0.1992402821779251,-0.1520976722240448,-0.10495519638061523,-0.05781259387731552,-0.010669991374015808,0.036472611129283905,0.08361521363258362,0.13075780868530273,0.17790041863918304,0.22504302859306335,0.27218562364578247,0.3193282186985016,0.3664708137512207,0.4136134386062622,0.4607560336589813,0.5078986287117004,0.5550412535667419,0.6021838188171387,0.6493264436721802,0.6964690685272217,0.7436116337776184,0.7907542586326599,0.8378968238830566,0.8850394487380981,0.9321820735931396,0.9793246388435364,1.0264673233032227,1.0736098289489746,1.1207524538040161,1.1678950786590576,1.2150377035140991,1.2621803283691406,1.3093228340148926,1.356465458869934,1.4036080837249756]},"gradients/model.lin3.weights":{"values":[2,2,1,1,4,2,3,4,10,7,14,14,27,34,40,45,64,87,84,110,148,209,271,348,553,1017,22369,793,563,400,319,235,193,158,119,94,75,60,60,34,44,32,19,20,27,14,7,6,15,3,7,9,8,3,0,2,3,2,1,0,0,2,1,2],"bins":[-0.6885508894920349,-0.6621027588844299,-0.6356545686721802,-0.6092064380645752,-0.5827583074569702,-0.5563101172447205,-0.5298619866371155,-0.5034137964248657,-0.47696566581726074,-0.4505175054073334,-0.424069344997406,-0.397621214389801,-0.37117305397987366,-0.3447248935699463,-0.3182767629623413,-0.29182860255241394,-0.2653804421424866,-0.2389322817325592,-0.21248413622379303,-0.18603599071502686,-0.1595878303050995,-0.13313966989517212,-0.10669152438640594,-0.08024337142705917,-0.0537952184677124,-0.02734706550836563,-0.0008989125490188599,0.02554924041032791,0.05199739336967468,0.07844554632902145,0.10489369928836823,0.1313418447971344,0.157789945602417,0.18423810601234436,0.21068625152111053,0.2371343970298767,0.2635825574398041,0.29003071784973145,0.3164788484573364,0.3429270088672638,0.36937516927719116,0.39582332968711853,0.4222714900970459,0.4487196207046509,0.47516778111457825,0.5016159415245056,0.5280640721321106,0.5545122623443604,0.5809603929519653,0.6074085235595703,0.6338567137718201,0.660304844379425,0.6867530345916748,0.7132011651992798,0.7396492958068848,0.7660974860191345,0.7925456166267395,0.8189937472343445,0.8454419374465942,0.8718900680541992,0.8983381986618042,0.924786388874054,0.9512345194816589,0.9776827096939087,1.0041308403015137],"_type":"histogram"},"_timestamp":1.7522489328348916e+09,"epoch":52,"gradients/model.lin3.biases":{"_type":"histogram","values":[1,0,0,1,0,1,1,1,0,2,0,4,4,2,1,5,1,0,0,3,2,3,1,3,6,264,1,2,4,4,1,3,3,4,1,1,2,4,3,0,5,3,1,0,3,2,0,0,1,0,2,1,1,0,0,0,1,0,0,0,0,0,0,1],"bins":[-0.8535751104354858,-0.8195168375968933,-0.785458505153656,-0.7514002323150635,-0.7173418998718262,-0.6832836270332336,-0.6492253541946411,-0.6151670217514038,-0.5811087489128113,-0.5470504760742188,-0.5129921436309814,-0.4789338707923889,-0.444875568151474,-0.4108172655105591,-0.37675899267196655,-0.34270069003105164,-0.3086423873901367,-0.2745840847492218,-0.24052579700946808,-0.20646750926971436,-0.17240920662879944,-0.13835090398788452,-0.1042926162481308,-0.07023432105779648,-0.03617602586746216,-0.002117730677127838,0.03194056451320648,0.0659988597035408,0.10005715489387512,0.13411545753479004,0.16817374527454376,0.20223203301429749,0.2362903356552124,0.2703486382961273,0.30440694093704224,0.33846521377563477,0.3725235164165497,0.4065818190574646,0.44064009189605713,0.47469839453697205,0.508756697177887,0.5428149700164795,0.5768733024597168,0.6109315752983093,0.6449898481369019,0.6790481805801392,0.7131064534187317,0.747164785861969,0.7812230587005615,0.815281331539154,0.8493396639823914,0.8833979368209839,0.9174562692642212,0.9515145421028137,0.9855728149414062,1.0196311473846436,1.0536894798278809,1.0877476930618286,1.121806025505066,1.1558643579483032,1.189922571182251,1.2239809036254883,1.2580392360687256,1.2920974493026733,1.3261557817459106]},"test_rmse":1.2627102884594452,"_step":53,"gradients/model.lin4.weights":{"values":[2,0,0,0,0,1,2,2,3,1,4,7,8,8,12,17,13,27,30,25,32,33,44,47,67,82,80,96,204,618,11741,176,174,134,110,101,92,78,65,49,34,31,24,27,27,8,18,6,11,6,2,9,3,2,0,2,2,0,1,0,0,0,0,2],"bins":[-3.1868131160736084,-3.0806260108947754,-2.9744386672973633,-2.8682515621185303,-2.7620644569396973,-2.6558773517608643,-2.5496902465820312,-2.443502902984619,-2.337315797805786,-2.231128692626953,-2.124941349029541,-2.018754243850708,-1.912567138671875,-1.806380033493042,-1.7001928091049194,-1.5940055847167969,-1.4878184795379639,-1.3816313743591309,-1.2754441499710083,-1.1692569255828857,-1.0630698204040527,-0.956882655620575,-0.8506954908370972,-0.7445083260536194,-0.6383211612701416,-0.5321339964866638,-0.42594683170318604,-0.31975966691970825,-0.21357250213623047,-0.10738533735275269,-0.0011981725692749023,0.10498899221420288,0.21117591857910156,0.31736308336257935,0.42355024814605713,0.5297374129295349,0.6359245777130127,0.7421117424964905,0.8482989072799683,0.954486072063446,1.0606732368469238,1.1668603420257568,1.2730475664138794,1.379234790802002,1.485421895980835,1.591609001159668,1.6977962255477905,1.803983449935913,1.910170555114746,2.016357660293579,2.122544765472412,2.228732109069824,2.3349192142486572,2.4411063194274902,2.5472936630249023,2.6534807682037354,2.7596678733825684,2.8658549785614014,2.9720420837402344,3.0782294273376465,3.1844165325164795,3.2906036376953125,3.3967909812927246,3.5029780864715576,3.6091651916503906],"_type":"histogram"},"gradients/model.lin1.biases":{"bins":[-2.552689552307129,-2.477187395095825,-2.4016852378845215,-2.3261830806732178,-2.250680923461914,-2.1751787662506104,-2.0996766090393066,-2.024174451828003,-1.9486724138259888,-1.873170256614685,-1.7976680994033813,-1.7221659421920776,-1.6466639041900635,-1.5711617469787598,-1.495659589767456,-1.4201574325561523,-1.3446552753448486,-1.269153118133545,-1.1936509609222412,-1.1181488037109375,-1.0426466464996338,-0.9671445488929749,-0.8916424512863159,-0.8161402940750122,-0.7406381368637085,-0.6651359796524048,-0.5896338224411011,-0.5141317248344421,-0.4386295676231384,-0.3631274104118347,-0.2876252830028534,-0.21212314069271088,-0.13662075996398926,-0.06111861765384674,0.014383524656295776,0.0898856669664383,0.1653878092765808,0.24088995158672333,0.31639209389686584,0.39189422130584717,0.4673963785171509,0.5428985357284546,0.6184006929397583,0.6939027905464172,0.769404947757721,0.8449071049690247,0.9204092025756836,0.9959113597869873,1.071413516998291,1.1469156742095947,1.2224178314208984,1.2979199886322021,1.3734221458435059,1.44892418384552,1.5244263410568237,1.5999284982681274,1.6754306554794312,1.7509328126907349,1.8264349699020386,1.9019371271133423,1.9774391651153564,2.05294132232666,2.128443479537964,2.2039456367492676,2.2794477939605713],"_type":"histogram","values":[1,0,0,0,0,0,0,0,0,0,0,0,0,0,0,0,1,0,0,2,0,1,1,0,0,2,1,2,0,0,2,1,1,85,4,1,1,1,0,2,1,0,0,0,3,2,0,1,0,0,0,0,0,1,0,0,0,0,1,0,0,0,1,1]},"gradients/model.lin1.weights":{"_type":"histogram","values":[1,0,0,0,0,0,0,0,0,0,0,1,1,0,1,1,0,1,2,2,1,2,2,3,2,5,8,2,5,7,8,3,11,26,419,17,13,8,3,8,5,6,5,4,1,1,4,1,2,2,0,1,1,1,0,1,0,0,1,0,0,0,0,1],"bins":[-3.560429573059082,-3.4563918113708496,-3.352354049682617,-3.2483160495758057,-3.1442782878875732,-3.040240526199341,-2.9362025260925293,-2.832164764404297,-2.7281270027160645,-2.624089241027832,-2.5200514793395996,-2.416013479232788,-2.3119757175445557,-2.2079379558563232,-2.1038999557495117,-1.9998621940612793,-1.8958244323730469,-1.7917866706848145,-1.6877487897872925,-1.5837109088897705,-1.479673147201538,-1.3756353855133057,-1.2715975046157837,-1.1675596237182617,-1.0635218620300293,-0.9594840407371521,-0.8554462194442749,-0.7514083981513977,-0.6473705768585205,-0.5433327555656433,-0.4392949342727661,-0.3352571129798889,-0.23121953010559082,-0.12718170881271362,-0.023143887519836426,0.08089393377304077,0.18493175506591797,0.28896957635879517,0.39300739765167236,0.49704521894454956,0.6010830402374268,0.705120861530304,0.8091586828231812,0.9131965041160583,1.0172343254089355,1.121272087097168,1.22530996799469,1.329347848892212,1.4333856105804443,1.5374233722686768,1.6414612531661987,1.7454991340637207,1.8495368957519531,1.9535746574401855,2.057612419128418,2.1616504192352295,2.265688180923462,2.3697259426116943,2.473763942718506,2.5778017044067383,2.6818394660949707,2.785877227783203,2.8899149894714355,2.993952989578247,3.0979907512664795]},"_wandb":{"runtime":34},"gradients/model.lin5.weights":{"values":[1,0,0,0,0,0,0,0,0,0,0,0,0,0,0,0,0,0,0,0,0,0,1,0,1,0,2,1,0,1,2,0,1,2,1,0,2,0,0,1,1,0,0,1,1,0,0,1,2,0,0,1,0,1,0,0,0,0,0,1,1,0,7,447],"bins":[-50.980899810791016,-50.183841705322266,-49.38677978515625,-48.5897216796875,-47.79266357421875,-46.995601654052734,-46.198543548583984,-45.401485443115234,-44.60442352294922,-43.80736541748047,-43.01030731201172,-42.21324920654297,-41.41618728637695,-40.6191291809082,-39.82207107543945,-39.02500915527344,-38.22795104980469,-37.43089294433594,-36.63383102416992,-35.83677291870117,-35.03971481323242,-34.242652893066406,-33.445594787597656,-32.648536682128906,-31.851476669311523,-31.05441665649414,-30.25735855102539,-29.460298538208008,-28.663238525390625,-27.866180419921875,-27.069120407104492,-26.272062301635742,-25.475004196166992,-24.67794418334961,-23.880884170532227,-23.083826065063477,-22.286766052246094,-21.489707946777344,-20.69264793395996,-19.895587921142578,-19.098529815673828,-18.301469802856445,-17.504409790039062,-16.707351684570312,-15.91029167175293,-15.113232612609863,-14.316173553466797,-13.51911449432373,-12.722054481506348,-11.924995422363281,-11.127936363220215,-10.330877304077148,-9.533817291259766,-8.7367582321167,-7.939699172973633,-7.142639636993408,-6.345580577850342,-5.548521041870117,-4.751461982727051,-3.9544026851654053,-3.1573433876037598,-2.3602840900421143,-1.5632247924804688,-0.7661654353141785,0.030893836170434952],"_type":"histogram"},"gradients/model.lin2.weights":{"bins":[-1.648993730545044,-1.6040061712265015,-1.559018611907959,-1.5140310525894165,-1.469043493270874,-1.4240559339523315,-1.379068374633789,-1.3340808153152466,-1.289093255996704,-1.2441058158874512,-1.1991182565689087,-1.1541306972503662,-1.1091431379318237,-1.0641555786132812,-1.0191680192947388,-0.9741804599761963,-0.9291929006576538,-0.8842053413391113,-0.8392177820205688,-0.7942302227020264,-0.7492426633834839,-0.7042551636695862,-0.6592676043510437,-0.6142800450325012,-0.5692924857139587,-0.5243049263954163,-0.4793173670768738,-0.4343298375606537,-0.3893422782421112,-0.3443547189235687,-0.29936718940734863,-0.25437963008880615,-0.20939218997955322,-0.16440463066101074,-0.11941708624362946,-0.07442953437566757,-0.02944198250770569,0.015545569360256195,0.06053312122821808,0.10552067309617996,0.15050822496414185,0.19549578428268433,0.2404833287000656,0.2854708731174469,0.3304584324359894,0.37544599175453186,0.42043352127075195,0.46542108058929443,0.5104086399078369,0.5553961992263794,0.6003837585449219,0.6453713178634644,0.6903588771820068,0.7353463768959045,0.780333936214447,0.8253214955329895,0.870309054851532,0.9152966141700745,0.9602841734886169,1.0052716732025146,1.0502592325210571,1.0952467918395996,1.140234351158142,1.1852219104766846,1.230209469795227],"_type":"histogram","values":[1,0,0,1,1,0,1,2,1,0,3,3,1,6,2,4,6,4,9,0,7,8,8,6,9,7,9,9,13,14,28,47,80,123,160,262,7206,469,278,183,137,116,82,75,51,39,30,23,21,13,10,11,6,5,2,1,0,1,1,2,0,1,1,1]},"gradients/model.lin4.biases":{"values":[2,0,0,0,0,0,1,0,1,0,0,0,0,0,0,1,0,0,1,1,0,1,0,0,0,2,0,1,4,90,1,0,1,0,1,1,0,0,1,0,1,0,0,1,0,2,0,1,1,0,0,1,0,0,0,0,0,0,1,0,0,0,0,2],"bins":[-2.5701799392700195,-2.483181953430176,-2.396183729171753,-2.309185743331909,-2.2221877574920654,-2.1351895332336426,-2.048191547393799,-1.961193561553955,-1.8741954565048218,-1.7871973514556885,-1.7001993656158447,-1.6132012605667114,-1.5262031555175781,-1.4392051696777344,-1.352207064628601,-1.2652090787887573,-1.178210973739624,-1.0912128686904907,-1.004214882850647,-0.9172167778015137,-0.8302187323570251,-0.7432206869125366,-0.6562225818634033,-0.5692245364189148,-0.48222649097442627,-0.39522844552993774,-0.30823037028312683,-0.2212323099374771,-0.1342342495918274,-0.04723618924617767,0.039761871099472046,0.12675993144512177,0.21375775337219238,0.3007557988166809,0.3877538740634918,0.47475194931030273,0.5617499947547913,0.6487480401992798,0.7357461452484131,0.8227441906929016,0.9097422361373901,0.9967402815818787,1.0837383270263672,1.1707364320755005,1.2577345371246338,1.3447325229644775,1.4317306280136108,1.5187286138534546,1.605726718902588,1.6927248239517212,1.779722809791565,1.8667209148406982,1.953718900680542,2.040717124938965,2.1277151107788086,2.2147130966186523,2.301711082458496,2.388709306716919,2.4757072925567627,2.5627052783966064,2.6497035026550293,2.736701488494873,2.823699474334717,2.9106976985931396,2.9976956844329834],"_type":"histogram"},"_runtime":34.25869499,"train_loss":-5.160648100557383}