{"gradients/model.lin2.biases":{"values":[1,0,0,0,0,0,0,0,0,0,0,0,0,0,0,0,0,0,0,0,0,0,0,0,0,0,0,0,0,0,0,0,0,1,0,0,1,0,0,1,0,0,0,1,0,0,0,0,0,0,1,0,0,0,2,0,1,1,0,0,0,1,0,501],"bins":[-11.213485717773438,-11.038274765014648,-10.86306381225586,-10.687853813171387,-10.512642860412598,-10.337431907653809,-10.162221908569336,-9.987010955810547,-9.811800003051758,-9.636589050292969,-9.46137809753418,-9.286168098449707,-9.110957145690918,-8.935746192932129,-8.760536193847656,-8.585325241088867,-8.410114288330078,-8.234903335571289,-8.0596923828125,-7.884482383728027,-7.709271430969238,-7.534060478210449,-7.358850002288818,-7.1836395263671875,-7.008428573608398,-6.833217620849609,-6.6580071449279785,-6.482796669006348,-6.307585716247559,-6.1323747634887695,-5.957164287567139,-5.781953811645508,-5.606742858886719,-5.43153190612793,-5.256321430206299,-5.081110954284668,-4.905900001525879,-4.73068904876709,-4.555478572845459,-4.380268096923828,-4.205057144165039,-4.02984619140625,-3.854635715484619,-3.679425001144409,-3.504214286804199,-3.3290035724639893,-3.1537928581237793,-2.9785821437835693,-2.8033714294433594,-2.6281607151031494,-2.4529500007629395,-2.2777392864227295,-2.1025285720825195,-1.9273178577423096,-1.7521071434020996,-1.5768964290618896,-1.4016857147216797,-1.2264750003814697,-1.0512642860412598,-0.8760535717010498,-0.7008428573608398,-0.5256321430206299,-0.3504214286804199,-0.17521071434020996,0],"_type":"histogram"},"_step":499,"_runtime":229,"gradients/model.lin4.biases":{"_type":"histogram","values":[1,0,0,0,0,0,0,0,0,0,0,1,0,0,0,0,1,0,0,0,0,0,0,1,0,0,0,1,0,0,3,3,1,3,2,2,232,1,2,0,0,1,0,0,0,0,0,0,0,0,0,0,0,0,0,0,0,0,0,0,0,0,0,1],"bins":[-31.873992919921875,-31.0059814453125,-30.137969970703125,-29.269956588745117,-28.401945114135742,-27.533933639526367,-26.665922164916992,-25.797910690307617,-24.92989730834961,-24.061885833740234,-23.19387435913086,-22.325862884521484,-21.45785140991211,-20.589839935302734,-19.721826553344727,-18.85381507873535,-17.985803604125977,-17.1177921295166,-16.249780654907227,-15.381768226623535,-14.513755798339844,-13.645744323730469,-12.777732849121094,-11.909720420837402,-11.041708946228027,-10.173697471618652,-9.305685043334961,-8.437673568725586,-7.569661617279053,-6.7016496658325195,-5.8336381912231445,-4.965626239776611,-4.097616195678711,-3.2296042442321777,-2.3615925312042236,-1.49358069896698,-0.6255688667297363,0.24244296550750732,1.110454797744751,1.9784666299819946,2.8464784622192383,3.7144904136657715,4.582502365112305,5.45051383972168,6.318525791168213,7.186537742614746,8.054549217224121,8.922561645507812,9.790573120117188,10.658584594726562,11.526597023010254,12.394608497619629,13.26262092590332,14.130632400512695,14.99864387512207,15.866656303405762,16.734668731689453,17.602680206298828,18.470691680908203,19.338703155517578,20.206714630126953,21.074726104736328,21.942739486694336,22.81075096130371,23.678762435913086]},"test_rmse":0.0160748580640141,"epoch":499,"gradients/model.lin5.biases":{"_type":"histogram","values":[1,0,0,0,0,0,0,0,0,0,0,0,0,0,0,0,0,0,0,0,0,0,0,0,0,0,0,0,0,0,0,0,0,0,0,0,0,0,0,0,0,0,0,0,0,0,0,0,0,0,0,0,0,0,0,0,0,0,1,0,0,0,0,6],"bins":[-264.90478515625,-260.75836181640625,-256.6119384765625,-252.46551513671875,-248.319091796875,-244.17266845703125,-240.02622985839844,-235.8798065185547,-231.73338317871094,-227.5869598388672,-223.44053649902344,-219.2941131591797,-215.14768981933594,-211.0012664794922,-206.85484313964844,-202.7084197998047,-198.56198120117188,-194.41555786132812,-190.26913452148438,-186.12271118164062,-181.97628784179688,-177.82986450195312,-173.68344116210938,-169.53701782226562,-165.39059448242188,-161.24417114257812,-157.09774780273438,-152.95130920410156,-148.8048858642578,-144.65846252441406,-140.5120391845703,-136.36561584472656,-132.21917724609375,-128.07275390625,-123.92633056640625,-119.77989959716797,-115.63347625732422,-111.48705291748047,-107.34062957763672,-103.19420623779297,-99.04778289794922,-94.90135192871094,-90.75492858886719,-86.60850524902344,-82.46208190917969,-78.31565856933594,-74.16922760009766,-70.0228042602539,-65.87638092041016,-61.729957580566406,-57.58353042602539,-53.43710708618164,-49.29068374633789,-45.144256591796875,-40.997833251953125,-36.85140609741211,-32.70498275756836,-28.558557510375977,-24.412134170532227,-20.265708923339844,-16.11928367614746,-11.972859382629395,-7.826434135437012,-3.680009365081787,0.4664153754711151]},"gradients/model.lin1.weights":{"values":[1,0,0,0,0,0,0,0,0,0,0,0,0,0,0,1,0,0,2,1,0,0,0,1,0,1,1,3,0,9,7,29,1449,7,9,0,0,1,2,2,1,2,0,0,0,2,0,0,2,0,1,0,0,0,0,0,0,0,0,0,0,0,0,2],"bins":[-14.958840370178223,-14.491376876831055,-14.02391242980957,-13.556448936462402,-13.088985443115234,-12.621521949768066,-12.154057502746582,-11.686594009399414,-11.219130516052246,-10.751666069030762,-10.284202575683594,-9.816739082336426,-9.349275588989258,-8.881811141967773,-8.414347648620605,-7.9468841552734375,-7.479420185089111,-7.011956214904785,-6.544492721557617,-6.077028751373291,-5.609565258026123,-5.142101287841797,-4.674637794494629,-4.207173824310303,-3.7397100925445557,-3.2722463607788086,-2.8047826290130615,-2.3373188972473145,-1.8698550462722778,-1.4023913145065308,-0.9349275231361389,-0.46746376156806946,0,0.46746376156806946,0.9349275231361389,1.4023913145065308,1.8698550462722778,2.3373188972473145,2.8047826290130615,3.2722463607788086,3.7397100925445557,4.207173824310303,4.674637794494629,5.142101287841797,5.609565258026123,6.077028751373291,6.544492721557617,7.011956214904785,7.479420185089111,7.9468841552734375,8.414347648620605,8.881811141967773,9.349275588989258,9.816739082336426,10.284202575683594,10.751666069030762,11.219130516052246,11.686594009399414,12.154057502746582,12.621521949768066,13.088985443115234,13.556448936462402,14.02391242980957,14.491376876831055,14.958840370178223],"_type":"histogram"},"gradients/model.lin3.weights":{"bins":[-17.079648971557617,-16.792264938354492,-16.5048828125,-16.217498779296875,-15.930115699768066,-15.642731666564941,-15.355348587036133,-15.067965507507324,-14.780582427978516,-14.49319839477539,-14.205815315246582,-13.918432235717773,-13.631048202514648,-13.34366512298584,-13.056282043457031,-12.768898010253906,-12.481514930725098,-12.194131851196289,-11.906747817993164,-11.619364738464355,-11.331981658935547,-11.044597625732422,-10.757214546203613,-10.469831466674805,-10.18244743347168,-9.895064353942871,-9.607681274414062,-9.320298194885254,-9.032914161682129,-8.74553108215332,-8.458148002624512,-8.170763969421387,-7.883380889892578,-7.595997333526611,-7.3086137771606445,-7.021230697631836,-6.733847141265869,-6.446463584899902,-6.159080505371094,-5.871696949005127,-5.58431339263916,-5.296930313110352,-5.009546756744385,-4.722163677215576,-4.434780120849609,-4.147396564483643,-3.860013484954834,-3.572629928588867,-3.2852466106414795,-2.997863292694092,-2.710479736328125,-2.4230964183807373,-2.1357131004333496,-1.848329782485962,-1.5609463453292847,-1.2735629081726074,-0.9861795902252197,-0.6987962126731873,-0.4114128351211548,-0.12402945756912231,0.16335391998291016,0.4507372975349426,0.7381206750869751,1.0255041122436523,1.31288743019104],"_type":"histogram","values":[1,0,0,0,0,0,0,0,0,1,0,0,0,0,1,0,0,0,0,0,0,0,1,0,0,0,0,0,0,0,0,1,0,0,0,0,0,0,0,1,0,0,0,0,0,0,0,0,0,1,0,1,0,3,9,10,13,13,9,196539,0,1,0,3]},"_wandb":{"runtime":229},"_timestamp":1.7525868859675453e+09,"gradients/model.lin2.weights":{"bins":[-5.7041473388671875,-5.539707660675049,-5.375268459320068,-5.21082878112793,-5.046389102935791,-4.8819499015808105,-4.717510223388672,-4.553070545196533,-4.388631343841553,-4.224191665649414,-4.059751987457275,-3.895312786102295,-3.7308731079101562,-3.5664336681365967,-3.401994228363037,-3.2375545501708984,-3.073115110397339,-2.9086756706237793,-2.7442359924316406,-2.579796552658081,-2.4153571128845215,-2.250917434692383,-2.0864779949188232,-1.9220385551452637,-1.7575989961624146,-1.5931594371795654,-1.4287199974060059,-1.2642804384231567,-1.0998408794403076,-0.935401439666748,-0.7709618806838989,-0.6065223813056946,-0.44208288192749023,-0.2776433825492859,-0.11320385336875916,0.051235660910606384,0.21567517518997192,0.38011467456817627,0.5445542335510254,0.7089937329292297,0.8734332323074341,1.0378727912902832,1.2023122310638428,1.366751790046692,1.531191349029541,1.6956307888031006,1.8600703477859497,2.024509906768799,2.1889493465423584,2.353388786315918,2.5178284645080566,2.682267904281616,2.846707344055176,3.0111470222473145,3.175586462020874,3.3400259017944336,3.5044655799865723,3.668905019760132,3.8333444595336914,3.997783899307251,4.1622233390808105,4.326663017272949,4.491102695465088,4.655541896820068,4.819981575012207],"_type":"histogram","values":[1,0,0,0,0,0,0,0,0,1,0,1,0,0,0,1,0,0,1,1,0,0,1,3,2,1,4,1,3,5,3,6,15,16,65458,2,1,0,0,1,2,0,1,0,0,0,0,0,0,1,3,0,0,0,0,0,0,0,0,0,0,0,0,1]},"train_loss":-11.90634280199196,"gradients/model.lin5.weights":{"_type":"histogram","values":[1,0,0,0,0,0,0,1,0,0,0,1,0,1,0,0,0,1,0,1,0,0,0,0,0,0,0,1,1,1,0,1,1,0,0,0,4,13,982,0,4,1,1,0,0,0,0,0,1,0,1,1,1,0,0,2,1,0,0,0,0,0,0,1],"bins":[-145.96324157714844,-142.18109130859375,-138.39895629882812,-134.61680603027344,-130.83465576171875,-127.0525131225586,-123.2703628540039,-119.48822021484375,-115.70606994628906,-111.9239273071289,-108.14178466796875,-104.35963439941406,-100.5774917602539,-96.79534149169922,-93.01319885253906,-89.23104858398438,-85.44890594482422,-81.66676330566406,-77.88461303710938,-74.10247039794922,-70.32032012939453,-66.53817749023438,-62.75603103637695,-58.97388458251953,-55.19173812866211,-51.40959167480469,-47.627445220947266,-43.845298767089844,-40.06315612792969,-36.281009674072266,-32.498863220214844,-28.716716766357422,-24.93456268310547,-21.152416229248047,-17.370269775390625,-13.588125228881836,-9.805978775024414,-6.02383279800415,-2.2416868209838867,1.540459156036377,5.322605133056641,9.104751586914062,12.886897087097168,16.669042587280273,20.451189041137695,24.233335494995117,28.015480041503906,31.797626495361328,35.57977294921875,39.36191940307617,43.144065856933594,46.926212310791016,50.70835876464844,54.490501403808594,58.272647857666016,62.05479431152344,65.83694458007812,69.61908721923828,73.40122985839844,77.18338012695312,80.96552276611328,84.74767303466797,88.52981567382812,92.31196594238281,96.09410858154297]},"test_loss":-3.6889485398383988,"gradients/model.lin1.biases":{"bins":[-10.218832969665527,-10.044252395629883,-9.869670867919922,-9.695090293884277,-9.520508766174316,-9.345928192138672,-9.171347618103027,-8.996766090393066,-8.822185516357422,-8.647603988647461,-8.473023414611816,-8.298442840576172,-8.123861312866211,-7.949280261993408,-7.774699687957764,-7.600118637084961,-7.425537586212158,-7.2509565353393555,-7.076375484466553,-6.901794910430908,-6.7272138595581055,-6.552632808685303,-6.3780517578125,-6.203470706939697,-6.0288896560668945,-5.85430908203125,-5.679728031158447,-5.5051469802856445,-5.330565929412842,-5.155984878540039,-4.9814043045043945,-4.806823253631592,-4.632242202758789,-4.457661151885986,-4.283080101013184,-4.108499526977539,-3.9339184761047363,-3.7593374252319336,-3.584756374359131,-3.4101755619049072,-3.2355945110321045,-3.0610134601593018,-2.886432647705078,-2.7118515968322754,-2.5372705459594727,-2.362689733505249,-2.1881086826324463,-2.0135278701782227,-1.83894681930542,-1.6643658876419067,-1.4897849559783936,-1.3152039051055908,-1.1406229734420776,-0.9660420417785645,-0.7914610505104065,-0.6168800592422485,-0.44229912757873535,-0.2677181661128998,-0.09313720464706421,0.08144375681877136,0.25602471828460693,0.4306056797504425,0.6051866412162781,0.779767632484436,0.9543485641479492],"_type":"histogram","values":[1,0,0,0,0,0,0,0,0,0,0,0,0,0,0,0,0,0,0,0,0,0,0,0,0,0,0,0,1,0,0,0,0,1,0,0,0,0,0,0,0,0,0,0,0,0,0,0,1,0,2,0,0,0,0,1,1,1,240,1,2,0,3,1]},"gradients/model.lin4.weights":{"_type":"histogram","values":[1,0,1,0,0,0,0,0,0,0,0,0,2,0,0,0,0,0,0,1,0,0,1,0,0,1,1,3,4,5,12,25,32,65,87,98011,14,7,7,8,4,3,3,2,1,1,0,0,0,0,0,0,0,0,0,0,0,0,0,0,1,0,0,1],"bins":[-9.652722358703613,-9.378517150878906,-9.104312896728516,-8.830107688903809,-8.555902481079102,-8.281697273254395,-8.007492065429688,-7.733287811279297,-7.45908260345459,-7.184877395629883,-6.910672664642334,-6.636467933654785,-6.362262725830078,-6.088057518005371,-5.813852787017822,-5.539648056030273,-5.265442848205566,-4.991237640380859,-4.7170329093933105,-4.442828178405762,-4.168622970581055,-3.8944180011749268,-3.620213031768799,-3.346008062362671,-3.071803092956543,-2.797598123550415,-2.523393154144287,-2.249188184738159,-1.9749832153320312,-1.7007782459259033,-1.4265732765197754,-1.1523683071136475,-0.8781623840332031,-0.6039574146270752,-0.32975244522094727,-0.055547475814819336,0.2186574935913086,0.4928624629974365,0.7670674324035645,1.0412724018096924,1.3154773712158203,1.5896823406219482,1.8638873100280762,2.138092279434204,2.412297248840332,2.68650221824646,2.960707187652588,3.234912157058716,3.5091171264648438,3.7833220958709717,4.0575270652771,4.331731796264648,4.6059370040893555,4.8801422119140625,5.154346942901611,5.42855167388916,5.702756881713867,5.976962089538574,6.251166820526123,6.525371551513672,6.799576759338379,7.073781967163086,7.347986698150635,7.622191429138184,7.896396636962891]},"gradients/model.lin3.biases":{"bins":[-32.10477828979492,-31.58807945251465,-31.071380615234375,-30.5546817779541,-30.037982940673828,-29.521282196044922,-29.00458335876465,-28.487884521484375,-27.9711856842041,-27.454486846923828,-26.937788009643555,-26.42108917236328,-25.904388427734375,-25.3876895904541,-24.870990753173828,-24.354291915893555,-23.83759307861328,-23.320894241333008,-22.804195404052734,-22.28749656677246,-21.770797729492188,-21.25409698486328,-20.737398147583008,-20.220699310302734,-19.70400047302246,-19.187301635742188,-18.670602798461914,-18.15390396118164,-17.637203216552734,-17.12050437927246,-16.603805541992188,-16.087106704711914,-15.570408821105957,-15.053709030151367,-14.537010192871094,-14.02031135559082,-13.503612518310547,-12.986913681030273,-12.470213890075684,-11.95351505279541,-11.436816215515137,-10.920116424560547,-10.403417587280273,-9.88671875,-9.370019912719727,-8.853321075439453,-8.336621284484863,-7.81992244720459,-7.303223609924316,-6.786524295806885,-6.269824981689453,-5.75312614440918,-5.236427307128906,-4.719727993011475,-4.203028678894043,-3.6863298416137695,-3.169630765914917,-2.6529316902160645,-2.136232614517212,-1.6195335388183594,-1.1028344631195068,-0.5861353874206543,-0.06943631172180176,0.4472627639770508,0.9639618396759033],"_type":"histogram","values":[1,0,0,0,0,0,0,0,0,0,0,0,0,0,0,0,0,0,0,0,0,0,0,0,0,0,0,0,0,0,0,0,0,0,0,0,0,0,0,2,1,0,2,1,1,0,1,2,0,1,1,0,1,0,1,0,1,1,1,0,0,0,749,1]}}