{"test_rmse":0.0077122790361700624,"train_loss":-14.172801592196638,"gradients/model.lin3.biases":{"bins":[-0.8613449335098267,-0.8236022591590881,-0.7858596444129944,-0.7481169700622559,-0.7103743553161621,-0.6726316809654236,-0.6348890066146851,-0.5971463918685913,-0.5594037175178528,-0.5216610431671143,-0.4839184284210205,-0.446175754070282,-0.40843310952186584,-0.3706904649734497,-0.3329477906227112,-0.29520514607429504,-0.2574625015258789,-0.21971985697746277,-0.18197719752788544,-0.1442345380783081,-0.10649189352989197,-0.06874924153089523,-0.0310065895318985,0.006736062467098236,0.04447871446609497,0.0822213664650917,0.11996401846408844,0.15770667791366577,0.1954493224620819,0.23319196701049805,0.2709346413612366,0.3086772859096527,0.3464200496673584,0.38416269421577454,0.4219053387641907,0.4596480131149292,0.49739065766334534,0.5351333022117615,0.5728759765625,0.6106185913085938,0.6483612656593323,0.6861039400100708,0.7238465547561646,0.7615892291069031,0.7993319034576416,0.8370745182037354,0.8748171925544739,0.9125598073005676,0.9503024816513062,0.9880451560020447,1.0257878303527832,1.063530445098877,1.1012730598449707,1.139015793800354,1.1767584085464478,1.2145010232925415,1.2522437572479248,1.2899863719940186,1.3277289867401123,1.365471601486206,1.4032143354415894,1.440956950187683,1.4786995649337769,1.5164422988891602,1.554184913635254],"_type":"histogram","values":[1,0,0,1,1,1,1,1,0,0,0,1,1,1,1,0,1,0,3,2,2,2,319,5,3,2,3,1,0,1,1,1,0,2,0,0,0,1,0,0,0,0,0,0,0,0,0,0,0,0,0,0,0,0,0,0,0,0,0,0,0,0,0,1]},"gradients/model.lin2.biases":{"bins":[-0.7396901249885559,-0.7227503061294556,-0.7058104872703552,-0.6888706684112549,-0.6719307899475098,-0.6549909710884094,-0.6380511522293091,-0.6211113333702087,-0.6041715145111084,-0.5872316956520081,-0.5702918171882629,-0.5533519983291626,-0.5364121794700623,-0.5194723606109619,-0.5025325417518616,-0.48559269309043884,-0.4686528742313385,-0.45171305537223816,-0.43477320671081543,-0.4178333878517151,-0.40089356899261475,-0.383953720331192,-0.3670139014720917,-0.35007408261299133,-0.3331342339515686,-0.31619441509246826,-0.2992545962333679,-0.2823147773742676,-0.26537492871284485,-0.2484351098537445,-0.23149527609348297,-0.21455545723438263,-0.1976155936717987,-0.18067575991153717,-0.16373594105243683,-0.1467961072921753,-0.12985628843307495,-0.11291645467281342,-0.09597662091255188,-0.07903679460287094,-0.06209696829319,-0.045157141983509064,-0.028217311948537827,-0.011277483776211739,0.005662344396114349,0.022602172568440437,0.039542000740766525,0.05648183077573776,0.0734216570854187,0.09036148339509964,0.10730130970478058,0.12424114346504211,0.14118096232414246,0.158120796084404,0.17506062984466553,0.19200044870376587,0.2089402824640274,0.22588011622428894,0.24281993508338928,0.2597597539424896,0.27669960260391235,0.2936394214630127,0.31057924032211304,0.32751908898353577,0.3444589078426361],"_type":"histogram","values":[1,0,0,0,0,0,0,0,0,0,0,0,0,0,0,0,0,0,0,0,0,0,0,0,0,0,0,1,0,0,0,0,0,1,0,0,0,0,2,0,4,1,2,201,5,3,2,5,2,1,2,1,1,1,0,0,0,1,0,2,0,0,0,1]},"_wandb":{"runtime":344},"gradients/model.lin1.weights":{"values":[1,0,0,0,1,0,1,0,0,0,0,0,0,2,3,0,1,1,2,1,1,1,4,1,4,3,5,9,6,10,21,460,12,6,11,2,5,6,1,4,2,1,2,1,1,0,1,2,0,1,0,0,0,1,0,0,2,0,0,0,0,0,0,1],"bins":[-0.3535831570625305,-0.342223584651947,-0.3308640122413635,-0.3195044696331024,-0.3081448972225189,-0.2967853248119354,-0.28542575240135193,-0.27406617999076843,-0.2627066373825073,-0.25134706497192383,-0.23998749256134033,-0.22862792015075684,-0.21726834774017334,-0.20590879023075104,-0.19454921782016754,-0.18318966031074524,-0.17183008790016174,-0.16047051548957825,-0.14911095798015594,-0.13775138556957245,-0.12639182806015015,-0.11503225564956665,-0.10367268323898315,-0.09231311827898026,-0.08095355331897736,-0.06959398835897446,-0.05823441967368126,-0.04687485098838806,-0.03551528602838516,-0.024155719205737114,-0.012796152383089066,-0.0014365855604410172,0.009922951459884644,0.021282518282532692,0.03264208510518074,0.04400165379047394,0.05536121875047684,0.06672078371047974,0.07808035612106323,0.08943992108106613,0.10079948604106903,0.11215905100107193,0.12351861596107483,0.13487818837165833,0.14623776078224182,0.15759731829166412,0.16895689070224762,0.18031644821166992,0.19167602062225342,0.20303559303283691,0.21439515054225922,0.2257547229528427,0.23711428046226501,0.2484738528728485,0.259833425283432,0.2711929976940155,0.2825525403022766,0.2939121127128601,0.3052716851234436,0.3166312575340271,0.3279908299446106,0.3393504023551941,0.3507099449634552,0.3620695173740387,0.3734290897846222],"_type":"histogram"},"test_loss":-3.6329425132437927,"_step":499,"gradients/model.lin1.biases":{"_type":"histogram","values":[1,0,0,0,0,0,0,0,0,0,0,1,0,0,0,0,0,0,0,1,0,1,1,2,4,0,0,0,1,2,5,88,1,1,1,1,0,1,0,0,0,1,0,0,0,1,1,0,0,1,1,2,0,0,0,0,0,0,0,0,0,0,0,1],"bins":[-0.1961764097213745,-0.18985386192798615,-0.18353132903575897,-0.1772087812423706,-0.17088623344898224,-0.16456370055675507,-0.1582411527633667,-0.15191860496997833,-0.14559605717658997,-0.1392735242843628,-0.13295097649097443,-0.12662842869758606,-0.12030589580535889,-0.11398334801197052,-0.10766080766916275,-0.10133825987577438,-0.09501571953296661,-0.08869317919015884,-0.08237063139677048,-0.07604809105396271,-0.06972554326057434,-0.06340300291776657,-0.0570804625749588,-0.05075791850686073,-0.044435374438762665,-0.0381128303706646,-0.03179028630256653,-0.02546774595975876,-0.01914520189166069,-0.012822658754885197,-0.006500115618109703,-0.00017757248133420944,0.006144985556602478,0.012467528693377972,0.018790071830153465,0.025112614035606384,0.03143515810370445,0.03775770217180252,0.04408024251461029,0.05040278658270836,0.05672533065080643,0.0630478709936142,0.06937041878700256,0.07569295912981033,0.0820154994726181,0.08833804726600647,0.09466058760881424,0.1009831354022026,0.10730567574501038,0.11362821608781815,0.11995076388120651,0.12627330422401428,0.13259585201740265,0.13891838490962982,0.1452409327030182,0.15156348049640656,0.15788602828979492,0.1642085611820221,0.17053110897541046,0.17685365676879883,0.183176189661026,0.18949873745441437,0.19582128524780273,0.2021438181400299,0.20846636593341827]},"gradients/model.lin5.weights":{"_type":"histogram","values":[1,0,0,1,0,1,0,0,1,0,1,0,0,1,1,2,0,1,0,2,0,1,0,0,2,2,0,1,2,2,0,3,1,2,1,0,1,0,1,0,3,0,4,0,3,0,2,0,1,0,0,0,0,0,1,1,0,0,0,2,0,0,0,432],"bins":[-6.803156852722168,-6.696857452392578,-6.590558052062988,-6.484258651733398,-6.377959728240967,-6.271660327911377,-6.165360927581787,-6.059061527252197,-5.952762126922607,-5.846462726593018,-5.740163803100586,-5.633864402770996,-5.527565002441406,-5.421265602111816,-5.314966201782227,-5.208666801452637,-5.102367401123047,-4.996068477630615,-4.889769077301025,-4.7834696769714355,-4.677170276641846,-4.570870876312256,-4.464571475982666,-4.358272552490234,-4.2519731521606445,-4.145673751831055,-4.039374351501465,-3.933074951171875,-3.8267757892608643,-3.7204763889312744,-3.6141769886016846,-3.507877826690674,-3.401578426361084,-3.295279026031494,-3.1889798641204834,-3.0826804637908936,-2.9763810634613037,-2.870081901550293,-2.763782501220703,-2.6574831008911133,-2.5511837005615234,-2.4448845386505127,-2.338585138320923,-2.232285737991333,-2.1259865760803223,-2.0196871757507324,-1.9133878946304321,-1.8070884943008423,-1.700789213180542,-1.5944899320602417,-1.4881905317306519,-1.3818912506103516,-1.2755918502807617,-1.1692925691604614,-1.0629932880401611,-0.9566939473152161,-0.850394606590271,-0.7440952658653259,-0.6377959251403809,-0.5314966440200806,-0.4251973032951355,-0.31889796257019043,-0.21259865164756775,-0.10629932582378387,0]},"_runtime":344,"epoch":499,"gradients/model.lin3.weights":{"values":[1,0,1,0,2,2,4,0,8,1,4,4,3,5,7,10,18,16,15,16,19,33,53,90,27829,417,100,38,30,20,16,6,4,4,5,2,2,2,1,1,1,2,0,2,0,1,0,0,0,1,0,0,0,1,0,0,1,0,1,0,0,0,0,1],"bins":[-0.3777446150779724,-0.36255818605422974,-0.34737178683280945,-0.3321853578090668,-0.3169989585876465,-0.3018125295639038,-0.28662610054016113,-0.27143970131874084,-0.25625327229499817,-0.2410668581724167,-0.2258804440498352,-0.21069402992725372,-0.19550761580467224,-0.18032120168209076,-0.16513477265834808,-0.1499483585357666,-0.13476194441318512,-0.11957553029060364,-0.10438910871744156,-0.08920269459486008,-0.074016273021698,-0.058829858899116516,-0.043643444776535034,-0.028457026928663254,-0.013270609080791473,0.0019158078357577324,0.017102224752306938,0.03228864073753357,0.04747505858540535,0.06266147643327713,0.07784789055585861,0.09303431212902069,0.10822072625160217,0.12340714037418365,0.13859355449676514,0.1537799835205078,0.1689663976430893,0.18415281176567078,0.19933922588825226,0.21452564001083374,0.22971206903457642,0.2448984831571579,0.2600848972797394,0.27527132630348206,0.29045772552490234,0.305644154548645,0.3208305537700653,0.336016982793808,0.35120338201522827,0.36638981103897095,0.3815762400627136,0.3967626392841339,0.4119490683078766,0.4271354675292969,0.44232189655303955,0.4575083255767822,0.4726947247982025,0.4878811538219452,0.5030675530433655,0.5182539820671082,0.5334404110908508,0.5486268401145935,0.5638132095336914,0.5789996385574341,0.5941860675811768],"_type":"histogram"},"gradients/model.lin5.biases":{"bins":[-20.384639739990234,-20.066129684448242,-19.74761962890625,-19.429109573364258,-19.110599517822266,-18.792089462280273,-18.47357940673828,-18.15506935119629,-17.836559295654297,-17.518049240112305,-17.199539184570312,-16.88102912902832,-16.562519073486328,-16.244009017944336,-15.92549991607666,-15.606989860534668,-15.288479804992676,-14.969969749450684,-14.651459693908691,-14.3329496383667,-14.014439582824707,-13.695929527282715,-13.377419471740723,-13.05890941619873,-12.740400314331055,-12.421890258789062,-12.10338020324707,-11.784870147705078,-11.466360092163086,-11.147850036621094,-10.829339981079102,-10.51082992553711,-10.192319869995117,-9.873809814453125,-9.555299758911133,-9.23678970336914,-8.918279647827148,-8.599769592285156,-8.281259536743164,-7.96274995803833,-7.644239902496338,-7.325729846954346,-7.0072197914123535,-6.688709735870361,-6.370200157165527,-6.051690101623535,-5.733180046081543,-5.414669990539551,-5.096159934997559,-4.777649879455566,-4.459139823913574,-4.140629768371582,-3.822119951248169,-3.5036098957061768,-3.1851000785827637,-2.8665900230407715,-2.5480799674987793,-2.229569911956787,-1.9110599756240845,-1.5925500392913818,-1.2740399837493896,-0.9555299878120422,-0.6370199918746948,-0.3185099959373474,0],"_type":"histogram","values":[1,0,0,0,0,1,0,0,0,0,0,0,0,0,0,0,0,0,0,0,0,0,0,0,0,0,0,0,0,0,0,0,0,0,0,0,0,0,0,0,0,0,0,0,0,0,0,0,0,0,0,0,0,0,0,0,0,0,0,0,0,0,0,10]},"gradients/model.lin4.biases":{"_type":"histogram","values":[1,0,0,0,0,0,0,2,0,0,0,0,0,0,0,0,1,0,0,0,0,0,0,0,0,0,1,0,1,0,0,0,2,1,0,1,1,96,1,2,1,0,2,1,0,1,1,0,0,1,0,0,0,0,0,0,0,0,0,1,1,0,0,1],"bins":[-4.9517717361450195,-4.820375442504883,-4.688979148864746,-4.557582378387451,-4.4261860847473145,-4.294789791107178,-4.163393020629883,-4.031996726989746,-3.9006004333496094,-3.7692041397094727,-3.637807607650757,-3.506411075592041,-3.3750147819519043,-3.2436184883117676,-3.1122219562530518,-2.980825424194336,-2.849429130554199,-2.7180328369140625,-2.5866363048553467,-2.455239772796631,-2.323843479156494,-2.1924471855163574,-2.0610506534576416,-1.9296542406082153,-1.798257827758789,-1.6668614149093628,-1.5354650020599365,-1.4040685892105103,-1.272672176361084,-1.1412757635116577,-1.0098793506622314,-0.8784829378128052,-0.7470865249633789,-0.6156901121139526,-0.48429369926452637,-0.3528972864151001,-0.22150087356567383,-0.09010446071624756,0.04129195213317871,0.17268836498260498,0.30408477783203125,0.4354811906814575,0.5668776035308838,0.6982740163803101,0.8296704292297363,0.9610668420791626,1.0924632549285889,1.2238596677780151,1.3552560806274414,1.4866524934768677,1.618048906326294,1.7494453191757202,1.8808417320251465,2.012238025665283,2.143634557723999,2.275031089782715,2.4064273834228516,2.5378236770629883,2.669220209121704,2.80061674118042,2.9320130348205566,3.0634093284606934,3.194805860519409,3.326202392578125,3.4575986862182617]},"gradients/model.lin2.weights":{"bins":[-0.9890348315238953,-0.9671525955200195,-0.9452703595161438,-0.9233881235122681,-0.9015058875083923,-0.8796236515045166,-0.8577414155006409,-0.8358591794967651,-0.8139769434928894,-0.7920947074890137,-0.7702124714851379,-0.7483302354812622,-0.7264479994773865,-0.7045657634735107,-0.682683527469635,-0.6608012914657593,-0.6389191150665283,-0.6170368790626526,-0.5951546430587769,-0.5732724070549011,-0.5513901710510254,-0.5295079350471497,-0.5076256990432739,-0.4857434332370758,-0.46386122703552246,-0.44197899103164673,-0.420096755027771,-0.39821451902389526,-0.37633228302001953,-0.3544500470161438,-0.33256781101226807,-0.31068557500839233,-0.288803368806839,-0.26692113280296326,-0.24503889679908752,-0.2231566607952118,-0.20127442479133606,-0.17939220368862152,-0.1575099676847458,-0.13562773168087006,-0.11374549567699432,-0.09186325967311859,-0.06998102366924286,-0.04809879511594772,-0.02621655911207199,-0.004334324970841408,0.017547909170389175,0.03943014144897461,0.06131237745285034,0.08319461345672607,0.1050768494606018,0.12695908546447754,0.14884132146835327,0.1707235425710678,0.19260577857494354,0.21448801457881927,0.236370250582695,0.25825247168540955,0.2801347076892853,0.302016943693161,0.32389917969703674,0.3457814157009125,0.3676636517047882,0.38954588770866394,0.4114281237125397],"_type":"histogram","values":[1,0,1,0,0,0,0,0,0,0,1,1,0,0,0,0,0,0,0,0,0,0,2,0,0,1,1,0,0,1,3,0,1,1,2,1,2,2,5,3,6,7,16,63,231,8932,120,67,36,23,21,13,10,7,2,5,1,3,2,2,1,2,0,1]},"gradients/model.lin4.weights":{"_type":"histogram","values":[1,0,0,0,0,0,2,3,0,0,0,0,4,3,0,2,1,1,3,3,6,3,2,3,7,5,6,7,11,3,17,10,27,27,35,52,102,13590,185,83,54,38,24,12,11,10,6,8,4,4,6,3,2,1,1,3,3,0,1,3,1,0,0,1],"bins":[-1.344719409942627,-1.309021234512329,-1.2733229398727417,-1.2376247644424438,-1.2019264698028564,-1.1662282943725586,-1.1305301189422607,-1.0948318243026733,-1.0591336488723755,-1.0234354734420776,-0.9877371788024902,-0.9520390033721924,-0.9163407683372498,-0.8806425333023071,-0.8449443578720093,-0.8092461228370667,-0.773547887802124,-0.7378496527671814,-0.7021514177322388,-0.6664532423019409,-0.6307550072669983,-0.5950567722320557,-0.5593585968017578,-0.5236603617668152,-0.48796212673187256,-0.45226389169692993,-0.4165656864643097,-0.38086748123168945,-0.3451692461967468,-0.3094710111618042,-0.27377280592918396,-0.23807458579540253,-0.20237624645233154,-0.1666780263185501,-0.13097980618476868,-0.09528158605098724,-0.05958336591720581,-0.023885145783424377,0.011813074350357056,0.04751129448413849,0.08320951461791992,0.11890773475170135,0.1546059548854828,0.19030417501926422,0.22600239515304565,0.2617006301879883,0.2973988354206085,0.33309704065322876,0.3687952756881714,0.404493510723114,0.44019171595573425,0.4758899211883545,0.5115881562232971,0.5472863912582397,0.5829845666885376,0.6186828017234802,0.6543810367584229,0.6900792717933655,0.7257775068283081,0.761475682258606,0.7971739172935486,0.8328721523284912,0.8685703277587891,0.9042685627937317,0.9399667978286743]},"_timestamp":1.7522512241912858e+09}