{"_step":30,"gradients/model.lin1.biases":{"_type":"histogram","values":[1,0,0,0,0,0,0,0,0,0,1,0,0,0,0,0,0,0,1,1,0,1,1,0,0,0,3,2,1,4,4,81,2,2,1,2,0,2,0,0,0,1,1,3,0,0,0,2,0,0,0,1,0,0,0,0,0,1,0,0,0,0,0,1],"bins":[-0.6534790396690369,-0.6327937841415405,-0.6121084690093994,-0.5914232134819031,-0.570737898349762,-0.5500526428222656,-0.5293673276901245,-0.5086820721626282,-0.48799678683280945,-0.4673115015029907,-0.446626216173172,-0.42594093084335327,-0.40525567531585693,-0.3845703899860382,-0.3638851046562195,-0.34319981932640076,-0.32251453399658203,-0.3018292486667633,-0.2811439633369446,-0.26045867800712585,-0.23977340757846832,-0.2190881222486496,-0.19840285181999207,-0.17771756649017334,-0.15703228116035461,-0.1363469958305359,-0.11566171795129776,-0.09497644007205963,-0.0742911547422409,-0.05360587313771248,-0.03292059153318405,-0.012235309928655624,0.008450031280517578,0.029135312885046005,0.04982059448957443,0.07050587236881256,0.09119115769863129,0.11187644302845001,0.13256171345710754,0.15324699878692627,0.173932284116745,0.19461756944656372,0.21530285477638245,0.23598812520503998,0.2566733956336975,0.27735868096351624,0.29804396629333496,0.3187292516231537,0.3394145369529724,0.36009982228279114,0.38078510761260986,0.4014703929424286,0.4221556782722473,0.44284093379974365,0.4635262191295624,0.4842115044593811,0.5048967599868774,0.5255820751190186,0.5462673306465149,0.566952645778656,0.5876379013061523,0.6083232164382935,0.6290084719657898,0.6496937870979309,0.6703790426254272]},"_timestamp":1.7522488885322273e+09,"gradients/model.lin3.biases":{"bins":[-0.9335242509841919,-0.8997843861579895,-0.8660445213317871,-0.8323047161102295,-0.7985648512840271,-0.7648249864578247,-0.7310851216316223,-0.6973452568054199,-0.6636054515838623,-0.6298655867576599,-0.5961257219314575,-0.5623858571052551,-0.5286459922790527,-0.49490615725517273,-0.46116629242897034,-0.42742645740509033,-0.39368659257888794,-0.35994672775268555,-0.32620689272880554,-0.29246702790260315,-0.25872719287872314,-0.22498732805252075,-0.19124746322631836,-0.15750761330127716,-0.12376776337623596,-0.09002791345119476,-0.05628805607557297,-0.02254820242524147,0.011191651225090027,0.044931504875421524,0.07867135852575302,0.11241121590137482,0.14615106582641602,0.17989091575145721,0.2136307656764984,0.2473706305027008,0.2811104655265808,0.3148503303527832,0.3485901951789856,0.3823300302028656,0.416069895029068,0.4498097598552704,0.4835495948791504,0.5172894597053528,0.5510293245315552,0.5847691893577576,0.6185089945793152,0.6522488594055176,0.68598872423172,0.7197285890579224,0.7534684538841248,0.7872082591056824,0.8209481239318848,0.8546879887580872,0.8884278535842896,0.9221677184104919,0.9559075832366943,0.989647388458252,1.0233873128890991,1.0571271181106567,1.0908669233322144,1.1246068477630615,1.1583466529846191,1.1920865774154663,1.225826382637024],"_type":"histogram","values":[1,1,0,1,0,0,1,0,0,2,2,2,0,4,3,1,2,2,1,1,1,0,5,3,3,3,3,264,5,5,4,1,2,2,2,0,3,4,0,3,4,2,3,1,0,1,2,0,1,2,0,1,0,0,1,0,0,0,0,1,1,0,1,2]},"epoch":29,"gradients/model.lin4.biases":{"_type":"histogram","values":[2,0,0,0,0,1,0,1,0,0,0,0,0,0,1,0,0,0,1,1,0,1,0,0,1,0,0,0,0,1,3,93,0,0,0,1,0,0,2,0,0,0,1,2,0,1,2,0,0,1,0,0,1,0,0,0,0,0,1,0,0,0,0,2],"bins":[-3.00002121925354,-2.904236078262329,-2.808450698852539,-2.712665557861328,-2.616880416870117,-2.5210952758789062,-2.425309896469116,-2.3295247554779053,-2.2337396144866943,-2.1379542350769043,-2.0421690940856934,-1.9463839530944824,-1.850598692893982,-1.754813551902771,-1.6590282917022705,-1.5632431507110596,-1.467457890510559,-1.3716726303100586,-1.2758874893188477,-1.1801022291183472,-1.0843170881271362,-0.9885318279266357,-0.89274662733078,-0.7969614267349243,-0.7011762261390686,-0.6053910255432129,-0.5096058249473572,-0.4138205945491791,-0.31803539395332336,-0.22225019335746765,-0.12646497786045074,-0.030679769814014435,0.06510543823242188,0.1608906388282776,0.2566758394241333,0.3524610698223114,0.4482462704181671,0.5440315008163452,0.6398167014122009,0.7356019020080566,0.8313871026039124,0.9271723031997681,1.0229575634002686,1.1187427043914795,1.21452796459198,1.310313105583191,1.4060983657836914,1.5018835067749023,1.5976687669754028,1.6934540271759033,1.7892391681671143,1.8850244283676147,1.9808095693588257,2.076594829559326,2.172379970550537,2.268165111541748,2.363950490951538,2.459735631942749,2.55552077293396,2.65130615234375,2.747091293334961,2.842876434326172,2.938661575317383,3.034446954727173,3.130232095718384]},"gradients/model.lin3.weights":{"_type":"histogram","values":[1,2,1,3,4,3,6,4,2,8,7,14,20,30,30,35,49,57,77,95,120,147,192,268,297,511,669,23056,706,478,362,284,229,193,155,113,85,87,65,61,44,32,33,24,20,22,17,14,9,8,6,5,1,4,7,5,5,5,4,3,1,2,2,1],"bins":[-0.8268863558769226,-0.7966922521591187,-0.7664980888366699,-0.736303985118866,-0.7061098217964172,-0.6759157180786133,-0.6457215547561646,-0.6155274510383606,-0.5853333473205566,-0.5551391839981079,-0.524945080280304,-0.4947509169578552,-0.46455681324005127,-0.4343626797199249,-0.4041685461997986,-0.37397441267967224,-0.3437802791595459,-0.31358614563941956,-0.2833920121192932,-0.25319787859916687,-0.22300375998020172,-0.19280962646007538,-0.16261550784111023,-0.1324213743209839,-0.10222724080085754,-0.0720331072807312,-0.041838981211185455,-0.011644851416349411,0.018549278378486633,0.04874340817332268,0.07893753796815872,0.10913166403770447,0.13932585716247559,0.16951999068260193,0.19971412420272827,0.22990824282169342,0.26010239124298096,0.2902964949607849,0.32049062848091125,0.3506847620010376,0.38087889552116394,0.4110730290412903,0.4412671625614166,0.47146129608154297,0.5016553997993469,0.5318495631217957,0.5620436668395996,0.5922378301620483,0.6224319338798523,0.6526260375976562,0.682820200920105,0.7130143046379089,0.7432084679603577,0.7734025716781616,0.8035967350006104,0.8337908387184143,0.8639849424362183,0.894179105758667,0.924373209476471,0.9545673727989197,0.9847614765167236,1.0149556398391724,1.045149803161621,1.0753438472747803,1.105538010597229]},"test_loss":3128.6160102739727,"gradients/model.lin2.weights":{"_type":"histogram","values":[2,1,1,3,2,0,1,2,3,1,8,9,4,13,18,28,35,42,64,88,121,184,216,443,7088,308,173,162,125,86,66,53,40,30,25,19,19,18,19,9,10,7,9,5,5,3,3,5,5,5,1,0,3,2,1,1,1,2,1,0,0,0,1,1],"bins":[-0.4759276211261749,-0.4562150239944458,-0.4365023970603943,-0.41678979992866516,-0.39707720279693604,-0.3773645758628845,-0.3576519787311554,-0.3379393517971039,-0.31822675466537476,-0.29851415753364563,-0.2788015305995941,-0.259088933467865,-0.23937632143497467,-0.21966370940208435,-0.19995111227035522,-0.1802385002374649,-0.16052588820457458,-0.14081327617168427,-0.12110067158937454,-0.10138806700706482,-0.0816754549741745,-0.06196284666657448,-0.04225023835897446,-0.022537630051374435,-0.002825021743774414,0.016887586563825607,0.03660019487142563,0.05631280317902565,0.07602541148662567,0.09573802351951599,0.11545062810182571,0.13516323268413544,0.15487581491470337,0.1745884269475937,0.194301038980484,0.21401363611221313,0.23372624814510345,0.2534388601779938,0.2731514573097229,0.2928640842437744,0.31257668137550354,0.33228927850723267,0.3520019054412842,0.3717145025730133,0.39142709970474243,0.41113972663879395,0.43085232377052307,0.4505649507045746,0.4702775478363037,0.48999014496803284,0.509702742099762,0.5294153690338135,0.549127995967865,0.5688405632972717,0.5885531902313232,0.6082658171653748,0.6279784440994263,0.647691011428833,0.6674036383628845,0.687116265296936,0.7068288326263428,0.7265414595603943,0.7462540864944458,0.7659666538238525,0.785679280757904]},"test_rmse":1.2266069774786348,"_runtime":19.258458306,"gradients/model.lin4.weights":{"bins":[-4.07311487197876,-3.9428839683532715,-3.8126533031463623,-3.682422399520874,-3.552191734313965,-3.4219608306884766,-3.2917299270629883,-3.161499261856079,-3.031268358230591,-2.9010374546051025,-2.7708067893981934,-2.640575885772705,-2.510344982147217,-2.3801143169403076,-2.2498834133148193,-2.11965274810791,-1.9894218444824219,-1.8591910600662231,-1.7289602756500244,-1.5987293720245361,-1.4684985876083374,-1.3382678031921387,-1.2080368995666504,-1.0778061151504517,-0.9475753307342529,-0.8173445463180542,-0.6871137022972107,-0.5568828582763672,-0.42665207386016846,-0.29642125964164734,-0.16619044542312622,-0.0359596312046051,0.09427070617675781,0.22450152039527893,0.35473233461380005,0.48496314883232117,0.6151939630508423,0.745424747467041,0.8756555914878845,1.005886435508728,1.1361172199249268,1.2663480043411255,1.3965787887573242,1.5268096923828125,1.6570404767990112,1.78727126121521,1.9175021648406982,2.0477328300476074,2.1779637336730957,2.308194637298584,2.438425302505493,2.5686562061309814,2.6988868713378906,2.829117774963379,2.959348678588867,3.0895793437957764,3.2198102474212646,3.350041151046753,3.480271816253662,3.6105027198791504,3.7407336235046387,3.870964288711548,4.001194953918457,4.131425857543945,4.261656761169434],"_type":"histogram","values":[1,1,0,0,0,2,2,1,1,3,6,5,8,15,13,12,30,19,31,28,26,37,31,51,63,59,73,75,84,75,247,12218,117,124,140,120,105,99,98,67,58,39,37,23,38,18,22,21,6,11,18,2,4,9,0,2,0,1,2,0,0,0,0,2]},"gradients/model.lin5.weights":{"values":[1,0,0,0,0,0,0,0,0,1,0,0,0,0,0,0,1,1,2,0,0,3,0,0,2,0,0,1,1,1,0,2,0,0,0,1,0,0,2,0,0,0,0,0,0,1,0,1,1,1,1,0,0,0,0,0,0,0,1,1,0,1,0,453],"bins":[-52.773494720458984,-51.94001007080078,-51.10652542114258,-50.273040771484375,-49.43955612182617,-48.60607147216797,-47.772586822509766,-46.93910217285156,-46.10561752319336,-45.272132873535156,-44.43864822387695,-43.605167388916016,-42.77168273925781,-41.93819808959961,-41.104713439941406,-40.2712287902832,-39.437744140625,-38.6042594909668,-37.770774841308594,-36.93729019165039,-36.10380554199219,-35.270320892333984,-34.43683624267578,-33.60335159301758,-32.769866943359375,-31.936382293701172,-31.10289764404297,-30.2694149017334,-29.435930252075195,-28.602445602416992,-27.76896095275879,-26.935476303100586,-26.10198974609375,-25.26850700378418,-24.435022354125977,-23.601537704467773,-22.76805305480957,-21.934568405151367,-21.101083755493164,-20.26759910583496,-19.434114456176758,-18.600629806518555,-17.76714515686035,-16.93366241455078,-16.100177764892578,-15.266692161560059,-14.433208465576172,-13.599723815917969,-12.766239166259766,-11.932754516601562,-11.09926986694336,-10.265786170959473,-9.43230152130127,-8.598816871643066,-7.765332221984863,-6.931848049163818,-6.098363399505615,-5.264878749847412,-4.431394577026367,-3.597909927368164,-2.76442551612854,-1.930941104888916,-1.0974565744400024,-0.26397210359573364,0.5695123672485352],"_type":"histogram"},"gradients/model.lin1.weights":{"values":[1,0,0,0,0,0,0,0,0,0,0,1,0,0,1,0,0,1,0,2,2,0,2,5,6,1,6,5,11,18,24,421,21,20,15,4,5,6,6,2,1,1,0,2,1,1,3,2,0,0,1,0,1,0,0,0,0,0,0,0,0,0,0,1],"bins":[-0.7334010004997253,-0.7101001143455505,-0.6867992281913757,-0.6634983420372009,-0.6401974558830261,-0.6168965697288513,-0.5935956835746765,-0.5702947974205017,-0.5469939112663269,-0.5236930251121521,-0.5003921389579773,-0.4770912528038025,-0.4537903666496277,-0.4304894804954529,-0.4071885943412781,-0.38388770818710327,-0.36058682203292847,-0.33728593587875366,-0.31398504972457886,-0.29068416357040405,-0.26738327741622925,-0.24408239126205444,-0.22078150510787964,-0.19748061895370483,-0.17417973279953003,-0.15087884664535522,-0.12757796049118042,-0.10427707433700562,-0.08097618818283081,-0.057675302028656006,-0.0343744158744812,-0.011073529720306396,0.012227296829223633,0.03552818298339844,0.05882906913757324,0.08212995529174805,0.10543084144592285,0.12873172760009766,0.15203261375427246,0.17533349990844727,0.19863438606262207,0.22193527221679688,0.24523615837097168,0.2685370445251465,0.2918379306793213,0.3151388168334961,0.3384397029876709,0.3617405891418457,0.3850414752960205,0.4083423614501953,0.4316432476043701,0.4549441337585449,0.4782450199127197,0.5015459060668945,0.5248467922210693,0.5481476783752441,0.571448564529419,0.5947494506835938,0.6180503368377686,0.6413512229919434,0.6646521091461182,0.687952995300293,0.7112538814544678,0.7345547676086426,0.7578556537628174],"_type":"histogram"},"gradients/model.lin5.biases":{"bins":[-21.5463809967041,-21.203914642333984,-20.861446380615234,-20.518980026245117,-20.176513671875,-19.83404541015625,-19.491579055786133,-19.149112701416016,-18.806644439697266,-18.46417808532715,-18.12171173095703,-17.779245376586914,-17.436777114868164,-17.094310760498047,-16.75184440612793,-16.40937614440918,-16.066909790039062,-15.724442481994629,-15.381976127624512,-15.039508819580078,-14.697042465209961,-14.354575157165527,-14.012107849121094,-13.669641494750977,-13.327174186706543,-12.98470687866211,-12.642240524291992,-12.299773216247559,-11.957305908203125,-11.614839553833008,-11.272372245788574,-10.929905891418457,-10.58743953704834,-10.244972229003906,-9.902504920959473,-9.560038566589355,-9.217571258544922,-8.875104904174805,-8.532637596130371,-8.190170288085938,-7.847703456878662,-7.505236625671387,-7.162769794464111,-6.820302963256836,-6.477835655212402,-6.135368824005127,-5.792901992797852,-5.450435161590576,-5.107967853546143,-4.765501022338867,-4.423034191131592,-4.080567359924316,-3.738100290298462,-3.3956332206726074,-3.053166389465332,-2.7106993198394775,-2.368232488632202,-2.0257654190063477,-1.6832984685897827,-1.3408315181732178,-0.9983645677566528,-0.6558976173400879,-0.31343069672584534,0.029036253690719604,0.37150320410728455],"_type":"histogram","values":[1,0,0,0,0,0,0,0,0,0,0,0,0,0,0,0,0,0,0,0,0,0,0,0,0,0,0,0,0,0,0,0,0,0,0,0,0,0,0,0,0,0,0,0,0,0,0,0,0,0,0,0,0,0,0,0,0,0,0,0,0,0,9,2]},"gradients/model.lin2.biases":{"_type":"histogram","values":[1,1,0,0,0,0,0,0,0,0,1,0,3,3,2,6,2,2,3,5,0,4,0,166,4,1,2,6,2,6,2,0,2,4,0,1,0,1,1,1,1,2,0,0,1,0,0,1,0,0,0,0,1,0,1,0,0,0,0,0,0,0,0,1],"bins":[-0.5806625485420227,-0.5556402802467346,-0.5306179523468018,-0.5055956840515137,-0.4805734157562256,-0.4555511176586151,-0.43052881956100464,-0.40550655126571655,-0.3804842531681061,-0.3554619550704956,-0.3304396867752075,-0.30541738867759705,-0.2803950905799866,-0.2553728222846985,-0.230350524187088,-0.20532824099063873,-0.18030595779418945,-0.15528367459774017,-0.1302613914012909,-0.10523909330368042,-0.08021681010723114,-0.05519452318549156,-0.030172236263751984,-0.005149949342012405,0.019872337579727173,0.04489462450146675,0.06991691142320633,0.0949392020702362,0.11996148526668549,0.14498376846313477,0.17000606656074524,0.19502834975719452,0.22005057334899902,0.2450728565454483,0.2700951397418976,0.29511743783950806,0.32013970613479614,0.3451620042324066,0.3701843023300171,0.3952065706253052,0.42022886872291565,0.4452511668205261,0.4702734351158142,0.4952957332134247,0.5203180313110352,0.5453402996063232,0.5703625679016113,0.5953848958015442,0.6204071640968323,0.6454294323921204,0.6704517602920532,0.6954740285873413,0.7204962968826294,0.7455186247825623,0.7705408930778503,0.7955631613731384,0.8205854892730713,0.8456077575683594,0.8706300258636475,0.8956522941589355,0.9206746220588684,0.9456968903541565,0.9707191586494446,0.9957414865493774,1.0207637548446655]},"_wandb":{"runtime":19},"train_loss":-4.216054459064328}