{"test_rmse":1.2119635994537539,"gradients/model.lin3.biases":{"bins":[-0.6061725616455078,-0.582322895526886,-0.5584731698036194,-0.5346235036849976,-0.510773777961731,-0.48692408204078674,-0.46307438611984253,-0.4392246901988983,-0.4153749942779541,-0.3915253281593323,-0.36767563223838806,-0.34382593631744385,-0.31997624039649963,-0.2961265444755554,-0.2722768485546112,-0.248427152633667,-0.22457745671272278,-0.20072776079177856,-0.17687806487083435,-0.15302836894989014,-0.12917867302894592,-0.1053289845585823,-0.08147929608821869,-0.057629600167274475,-0.03377990424633026,-0.009930210188031197,0.013919483870267868,0.03776917606592178,0.061618871986866,0.08546856790781021,0.10931825637817383,0.13316795229911804,0.15701764822006226,0.18086734414100647,0.20471704006195068,0.2285667359828949,0.2524164319038391,0.2762661278247833,0.30011582374572754,0.32396551966667175,0.34781521558761597,0.3716648817062378,0.395514577627182,0.4193642735481262,0.44321396946907043,0.46706366539001465,0.49091336131095886,0.5147630572319031,0.5386127233505249,0.5624624490737915,0.5863121151924133,0.6101618409156799,0.6340115070343018,0.6578612327575684,0.6817108988761902,0.7055606245994568,0.7294102907180786,0.7532600164413452,0.777109682559967,0.8009594082832336,0.8248090744018555,0.8486588001251221,0.8725084662437439,0.8963581919670105,0.9202078580856323],"_type":"histogram","values":[2,0,0,1,0,0,1,0,2,1,0,2,1,1,3,3,0,5,2,3,2,8,2,1,6,263,4,2,4,5,2,4,3,2,3,3,2,5,2,1,0,0,3,1,1,0,0,2,0,0,0,0,0,1,0,0,0,0,0,0,0,0,0,1]},"gradients/model.lin2.weights":{"values":[1,1,0,1,0,2,1,1,4,3,2,6,9,6,11,17,22,26,43,59,125,159,380,7634,400,225,145,74,70,36,28,33,17,12,5,10,7,5,3,1,3,4,1,1,1,1,0,1,1,0,0,0,1,0,0,1,0,0,0,0,0,0,0,1],"bins":[-0.4736095368862152,-0.4535125195980072,-0.4334154725074768,-0.4133184552192688,-0.3932214379310608,-0.3731244206428528,-0.3530274033546448,-0.3329303562641144,-0.31283333897590637,-0.29273632168769836,-0.27263927459716797,-0.25254225730895996,-0.23244524002075195,-0.21234822273254395,-0.19225119054317474,-0.17215415835380554,-0.15205714106559753,-0.13196012377738953,-0.11186309158802032,-0.09176606684923172,-0.07166904211044312,-0.05157201737165451,-0.031474992632865906,-0.011377967894077301,0.008719056844711304,0.02881608158349991,0.04891310632228851,0.06901013106107712,0.08910715579986572,0.10920418053865433,0.12930120527744293,0.14939823746681213,0.16949522495269775,0.18959224224090576,0.20968927443027496,0.22978630661964417,0.24988332390785217,0.2699803411960602,0.2900773882865906,0.3101744055747986,0.3302714228630066,0.3503684401512146,0.3704654574394226,0.390562504529953,0.410659521818161,0.430756539106369,0.4508535861968994,0.4709506034851074,0.49104762077331543,0.5111446380615234,0.5312416553497314,0.5513386726379395,0.5714356899261475,0.5915327668190002,0.6116297841072083,0.6317268013954163,0.6518238186836243,0.6719208359718323,0.6920178532600403,0.7121148705482483,0.7322119474411011,0.7523089647293091,0.7724059820175171,0.7925029993057251,0.8126000165939331],"_type":"histogram"},"test_loss":3501.426369863014,"_runtime":35.241632527,"gradients/model.lin3.weights":{"bins":[-0.6534709334373474,-0.6280516982078552,-0.6026324033737183,-0.5772131681442261,-0.5517939329147339,-0.5263746976852417,-0.5009554624557495,-0.47553616762161255,-0.45011693239212036,-0.4246976971626282,-0.3992784321308136,-0.373859167098999,-0.34843993186950684,-0.32302069664001465,-0.2976014316082001,-0.2721821665763855,-0.2467629313468933,-0.22134368121623993,-0.19592443108558655,-0.17050518095493317,-0.14508593082427979,-0.1196666806936264,-0.09424743056297302,-0.06882818043231964,-0.04340893030166626,-0.01798968017101288,0.007429569959640503,0.032848820090293884,0.058268070220947266,0.08368732035160065,0.10910657048225403,0.1345258206129074,0.15994513034820557,0.18536438047885895,0.21078363060951233,0.2362028807401657,0.2616221308708191,0.2870413661003113,0.31246063113212585,0.33787989616394043,0.3632991313934326,0.3887183666229248,0.4141376316547394,0.43955689668655396,0.46497613191604614,0.49039536714553833,0.5158146619796753,0.5412338972091675,0.5666531324386597,0.5920723676681519,0.617491602897644,0.642910897731781,0.6683301329612732,0.6937493681907654,0.7191686630249023,0.7445878982543945,0.7700071334838867,0.7954263687133789,0.8208456039428711,0.8462648987770081,0.8716841340065002,0.8971033692359924,0.9225226640701294,0.9479418992996216,0.9733611345291138],"_type":"histogram","values":[3,1,1,4,2,5,7,8,11,11,18,19,26,29,45,52,72,84,103,147,185,219,321,395,457,23435,779,432,365,295,249,233,177,115,114,80,56,55,31,30,27,17,16,11,12,9,5,3,5,6,1,3,1,5,0,1,1,1,2,0,1,0,0,2]},"gradients/model.lin4.weights":{"_type":"histogram","values":[2,0,0,0,3,1,4,2,8,8,11,10,12,16,19,17,23,39,21,47,33,44,43,54,57,56,73,82,121,483,11974,109,146,119,104,104,92,73,60,58,35,42,31,29,25,18,15,14,13,7,9,6,10,3,6,1,2,3,0,1,0,1,0,1],"bins":[-2.3574016094207764,-2.2793171405792236,-2.201232433319092,-2.123147964477539,-2.0450634956359863,-1.9669787883758545,-1.8888943195343018,-1.8108097314834595,-1.7327251434326172,-1.654640555381775,-1.5765559673309326,-1.4984714984893799,-1.4203869104385376,-1.3423023223876953,-1.2642178535461426,-1.1861332654953003,-1.108048677444458,-1.0299640893936157,-0.9518795609474182,-0.8737950325012207,-0.7957104444503784,-0.7176258563995361,-0.6395413279533386,-0.5614567995071411,-0.48337221145629883,-0.40528765320777893,-0.32720309495925903,-0.24911853671073914,-0.17103397846221924,-0.09294942021369934,-0.014864861965179443,0.06321969628334045,0.14130449295043945,0.21938905119895935,0.29747360944747925,0.37555816769599915,0.45364272594451904,0.5317273139953613,0.6098118424415588,0.6878963708877563,0.7659809589385986,0.8440655469894409,0.9221500754356384,1.000234603881836,1.0783191919326782,1.1564037799835205,1.2344882488250732,1.3125728368759155,1.3906574249267578,1.4687420129776,1.5468266010284424,1.6249110698699951,1.7029956579208374,1.7810802459716797,1.8591647148132324,1.9372493028640747,2.015333890914917,2.0934183597564697,2.1715030670166016,2.2495875358581543,2.327672004699707,2.405756711959839,2.4838411808013916,2.5619258880615234,2.640010356903076]},"_step":55,"gradients/model.lin1.biases":{"bins":[-0.3811991810798645,-0.3705911934375763,-0.3599831759929657,-0.3493751883506775,-0.3387671709060669,-0.3281591832637787,-0.3175511658191681,-0.3069431781768799,-0.2963351607322693,-0.2857271730899811,-0.27511918544769287,-0.2645111680030823,-0.25390318036079407,-0.24329517781734467,-0.23268717527389526,-0.22207917273044586,-0.21147117018699646,-0.20086316764354706,-0.19025516510009766,-0.17964716255664825,-0.16903916001319885,-0.15843117237091064,-0.14782316982746124,-0.13721516728401184,-0.12660716474056244,-0.11599916219711304,-0.10539115965366364,-0.09478316456079483,-0.08417516201734543,-0.07356715947389603,-0.06295916438102722,-0.05235116183757782,-0.041743189096450806,-0.031135188415646553,-0.0205271877348423,-0.009919187054038048,0.0006888136267662048,0.011296814307570457,0.02190481498837471,0.032512813806533813,0.043120816349983215,0.05372881889343262,0.06433682143688202,0.07494481652975082,0.08555281907320023,0.09616082161664963,0.10676881670951843,0.11737681925296783,0.12798482179641724,0.13859282433986664,0.14920082688331604,0.15980882942676544,0.17041683197021484,0.18102481961250305,0.19163282215595245,0.20224082469940186,0.21284882724285126,0.22345682978630066,0.23406483232975006,0.24467283487319946,0.25528082251548767,0.26588883996009827,0.2764968276023865,0.28710484504699707,0.2977128326892853],"_type":"histogram","values":[1,0,0,0,0,0,0,1,1,0,0,0,0,0,0,1,0,1,0,0,0,0,0,0,0,0,0,0,0,0,0,0,1,2,1,83,1,4,3,4,3,0,0,1,1,1,1,0,1,2,1,0,1,1,0,1,0,0,0,0,0,0,1,1]},"gradients/model.lin5.biases":{"values":[1,0,0,0,0,0,0,0,0,0,0,0,0,0,0,0,0,0,0,0,0,0,0,0,0,0,0,0,0,0,0,0,0,0,0,0,0,0,0,0,0,0,0,0,0,0,0,0,0,0,0,0,0,0,0,0,0,0,0,0,1,0,9,1],"bins":[-8.779407501220703,-8.63941764831543,-8.49942684173584,-8.359436988830566,-8.219446182250977,-8.079456329345703,-7.9394659996032715,-7.79947566986084,-7.659485816955566,-7.519495487213135,-7.379505157470703,-7.2395148277282715,-7.09952449798584,-6.959534168243408,-6.819544315338135,-6.679553985595703,-6.5395636558532715,-6.39957332611084,-6.259582996368408,-6.119593143463135,-5.979602813720703,-5.8396124839782715,-5.69962215423584,-5.559631824493408,-5.419641494750977,-5.279651641845703,-5.1396613121032715,-4.99967098236084,-4.859680652618408,-4.719690322875977,-4.579700469970703,-4.4397101402282715,-4.299719333648682,-4.159729480743408,-4.019739151000977,-3.879748821258545,-3.7397584915161133,-3.5997684001922607,-3.459778070449829,-3.3197879791259766,-3.179797649383545,-3.0398073196411133,-2.8998172283172607,-2.759826898574829,-2.6198365688323975,-2.479846477508545,-2.3398561477661133,-2.1998658180236816,-2.059875726699829,-1.9198853969573975,-1.7798951864242554,-1.6399049758911133,-1.4999147653579712,-1.359924554824829,-1.2199342250823975,-1.0799440145492554,-0.9399538040161133,-0.7999635338783264,-0.6599732637405396,-0.5199830532073975,-0.379992812871933,-0.2400025725364685,-0.10001233220100403,0.03997790813446045,0.17996814846992493],"_type":"histogram"},"gradients/model.lin4.biases":{"_type":"histogram","values":[2,0,0,0,2,0,0,0,0,0,0,0,0,1,0,0,1,0,1,0,1,0,0,0,0,1,0,2,3,91,2,0,0,0,1,1,0,1,0,0,1,0,2,1,1,0,0,1,0,1,0,0,0,0,0,0,0,1,0,0,1,0,0,1],"bins":[-1.2525365352630615,-1.2105560302734375,-1.1685755252838135,-1.126595139503479,-1.084614634513855,-1.042634129524231,-1.000653624534607,-0.9586731791496277,-0.9166926741600037,-0.8747121691703796,-0.8327317237854004,-0.7907512187957764,-0.7487707138061523,-0.7067902684211731,-0.6648097634315491,-0.6228293180465698,-0.5808488130569458,-0.5388683080673218,-0.49688786268234253,-0.4549073576927185,-0.41292688250541687,-0.37094640731811523,-0.3289659023284912,-0.2869854271411896,-0.24500495195388794,-0.2030244767665863,-0.16104398667812347,-0.11906350404024124,-0.07708302140235901,-0.035102538764476776,0.0068779438734054565,0.04885842651128769,0.09083878993988037,0.132819265127182,0.17479975521564484,0.21678024530410767,0.2587607204914093,0.30074119567871094,0.34272170066833496,0.3847021758556366,0.42668265104293823,0.46866312623023987,0.5106436014175415,0.5526241064071655,0.5946046113967896,0.6365850567817688,0.6785655617713928,0.7205460071563721,0.7625265121459961,0.8045070171356201,0.8464874625205994,0.8884679675102234,0.9304484128952026,0.9724289178848267,1.0144094228744507,1.0563899278640747,1.0983703136444092,1.1403508186340332,1.1823313236236572,1.2243118286132812,1.2662923336029053,1.3082728385925293,1.3502532243728638,1.3922337293624878,1.4342142343521118]},"gradients/model.lin1.weights":{"bins":[-0.4395318627357483,-0.42573457956314087,-0.41193726658821106,-0.39813998341560364,-0.3843427002429962,-0.3705454170703888,-0.356748104095459,-0.34295082092285156,-0.32915353775024414,-0.31535622477531433,-0.3015589416027069,-0.2877616584300995,-0.27396437525749207,-0.26016706228256226,-0.24636977910995483,-0.2325724959373474,-0.2187751978635788,-0.20497789978981018,-0.19118061661720276,-0.17738331854343414,-0.16358603537082672,-0.1497887372970581,-0.13599145412445068,-0.12219415605068207,-0.10839686542749405,-0.09459957480430603,-0.08080228418111801,-0.06700499355792999,-0.053207699209451675,-0.03941040858626366,-0.02561311610043049,-0.011815824545919895,0.0019814670085906982,0.015778757631778717,0.029576050117611885,0.04337334260344505,0.05717063322663307,0.07096792757511139,0.08476521819829941,0.09856250882148743,0.11235979944467545,0.12615709006786346,0.13995438814163208,0.1537516713142395,0.16754896938800812,0.18134625256061554,0.19514355063438416,0.20894083380699158,0.2227381318807602,0.2365354299545288,0.25033271312713623,0.26412999629974365,0.27792730927467346,0.2917245924472809,0.3055218756198883,0.3193191587924957,0.33311647176742554,0.34691375494003296,0.3607110381126404,0.3745083510875702,0.3883056342601776,0.40210291743278503,0.41590020060539246,0.42969751358032227,0.4434947967529297],"_type":"histogram","values":[1,0,0,0,0,0,1,1,0,0,0,0,0,0,0,1,0,2,1,1,3,1,3,2,3,4,6,11,13,14,17,412,13,15,13,17,1,8,9,5,2,2,0,2,4,4,1,0,0,0,0,2,0,0,1,0,1,0,1,0,0,1,0,1]},"_timestamp":1.752263080732149e+09,"gradients/model.lin5.weights":{"_type":"histogram","values":[1,0,0,0,0,1,1,1,0,0,2,0,0,0,0,0,0,0,1,1,0,0,2,0,0,1,2,0,0,0,2,0,1,0,1,0,1,0,0,0,1,1,0,0,0,1,0,0,0,0,0,0,0,0,0,2,0,0,1,0,0,1,25,430],"bins":[-27.580074310302734,-27.145179748535156,-26.710285186767578,-26.275390625,-25.840496063232422,-25.405601501464844,-24.970705032348633,-24.535810470581055,-24.100915908813477,-23.6660213470459,-23.23112678527832,-22.796232223510742,-22.361337661743164,-21.926443099975586,-21.491548538208008,-21.05665397644043,-20.62175750732422,-20.18686294555664,-19.751968383789062,-19.317073822021484,-18.882179260253906,-18.447284698486328,-18.01239013671875,-17.577495574951172,-17.142601013183594,-16.707706451416016,-16.272811889648438,-15.837916374206543,-15.403021812438965,-14.968127250671387,-14.533231735229492,-14.098337173461914,-13.66344165802002,-13.228547096252441,-12.793652534484863,-12.358757972717285,-11.923863410949707,-11.488967895507812,-11.054073333740234,-10.619178771972656,-10.184284210205078,-9.7493896484375,-9.314494132995605,-8.879599571228027,-8.44470500946045,-8.009810447692871,-7.574915409088135,-7.140020847320557,-6.7051262855529785,-6.270231246948242,-5.835336685180664,-5.400442123413086,-4.96554708480835,-4.5306525230407715,-4.095757484436035,-3.660862922668457,-3.2259681224823,-2.7910733222961426,-2.3561787605285645,-1.9212839603424072,-1.48638916015625,-1.0514944791793823,-0.6165997385978699,-0.18170499801635742,0.25318974256515503]},"train_loss":-3.1188761393229165,"epoch":54,"gradients/model.lin2.biases":{"bins":[-0.44870585203170776,-0.4313855469226837,-0.41406524181365967,-0.39674490690231323,-0.3794246017932892,-0.36210429668426514,-0.3447839617729187,-0.32746365666389465,-0.3101433515548706,-0.29282304644584656,-0.2755027413368225,-0.2581824064254761,-0.24086210131645203,-0.22354179620742798,-0.20622147619724274,-0.1889011561870575,-0.17158085107803345,-0.1542605459690094,-0.13694022595882416,-0.11961991339921951,-0.10229960083961487,-0.08497928828001022,-0.06765897572040558,-0.050338663160800934,-0.03301835060119629,-0.015698038041591644,0.0016222745180130005,0.018942587077617645,0.03626289963722229,0.053583212196826935,0.07090352475643158,0.08822383731603622,0.10554420948028564,0.12286452203989029,0.14018483459949493,0.15750515460968018,0.17482545971870422,0.19214576482772827,0.2094660848379135,0.22678640484809875,0.2441067099571228,0.26142701506614685,0.2787473201751709,0.29606765508651733,0.3133879601955414,0.33070826530456543,0.34802860021591187,0.3653489053249359,0.38266921043395996,0.399989515542984,0.41730982065200806,0.4346301555633545,0.45195046067237854,0.4692707657814026,0.486591100692749,0.5039113759994507,0.5212317109107971,0.5385520458221436,0.5558723211288452,0.5731926560401917,0.5905129909515381,0.6078332662582397,0.6251536011695862,0.6424738764762878,0.6597942113876343],"_type":"histogram","values":[1,0,0,0,1,0,1,0,1,0,1,0,0,0,1,0,0,6,4,0,5,2,1,2,6,167,7,2,0,5,2,6,5,2,0,1,1,2,0,0,1,3,1,1,0,0,0,0,0,1,0,0,0,0,0,0,0,0,0,0,0,0,0,1]},"_wandb":{"runtime":35}}